{"learner":{"attributes":{},"feature_names":["amp_mean","amp_max","snr_mean","snr_max","hit_sum","hit_max","dur_max","n_low","n_med","n_high","n_lhf","fhigh_max","rate","noise","rain","wind","crane"],"feature_types":[],"gradient_booster":{"model":{"cats":{"enc":[],"feature_segments":[],"sorted_idx":[]},"gbtree_model_param":{"num_parallel_tree":"1","num_trees":"900"},"iteration_indptr":[0,3,6,9,12,15,18,21,24,27,30,33,36,39,42,45,48,51,54,57,60,63,66,69,72,75,78,81,84,87,90,93,96,99,102,105,108,111,114,117,120,123,126,129,132,135,138,141,144,147,150,153,156,159,162,165,168,171,174,177,180,183,186,189,192,195,198,201,204,207,210,213,216,219,222,225,228,231,234,237,240,243,246,249,252,255,258,261,264,267,270,273,276,279,282,285,288,291,294,297,300,303,306,309,312,315,318,321,324,327,330,333,336,339,342,345,348,351,354,357,360,363,366,369,372,375,378,381,384,387,390,393,396,399,402,405,408,411,414,417,420,423,426,429,432,435,438,441,444,447,450,453,456,459,462,465,468,471,474,477,480,483,486,489,492,495,498,501,504,507,510,513,516,519,522,525,528,531,534,537,540,543,546,549,552,555,558,561,564,567,570,573,576,579,582,585,588,591,594,597,600,603,606,609,612,615,618,621,624,627,630,633,636,639,642,645,648,651,654,657,660,663,666,669,672,675,678,681,684,687,690,693,696,699,702,705,708,711,714,717,720,723,726,729,732,735,738,741,744,747,750,753,756,759,762,765,768,771,774,777,780,783,786,789,792,795,798,801,804,807,810,813,816,819,822,825,828,831,834,837,840,843,846,849,852,855,858,861,864,867,870,873,876,879,882,885,888,891,894,897,900],"tree_info":[0,1,2,0,1,2,0,1,2,0,1,2,0,1,2,0,1,2,0,1,2,0,1,2,0,1,2,0,1,2,0,1,2,0,1,2,0,1,2,0,1,2,0,1,2,0,1,2,0,1,2,0,1,2,0,1,2,0,1,2,0,1,2,0,1,2,0,1,2,0,1,2,0,1,2,0,1,2,0,1,2,0,1,2,0,1,2,0,1,2,0,1,2,0,1,2,0,1,2,0,1,2,0,1,2,0,1,2,0,1,2,0,1,2,0,1,2,0,1,2,0,1,2,0,1,2,0,1,2,0,1,2,0,1,2,0,1,2,0,1,2,0,1,2,0,1,2,0,1,2,0,1,2,0,1,2,0,1,2,0,1,2,0,1,2,0,1,2,0,1,2,0,1,2,0,1,2,0,1,2,0,1,2,0,1,2,0,1,2,0,1,2,0,1,2,0,1,2,0,1,2,0,1,2,0,1,2,0,1,2,0,1,2,0,1,2,0,1,2,0,1,2,0,1,2,0,1,2,0,1,2,0,1,2,0,1,2,0,1,2,0,1,2,0,1,2,0,1,2,0,1,2,0,1,2,0,1,2,0,1,2,0,1,2,0,1,2,0,1,2,0,1,2,0,1,2,0,1,2,0,1,2,0,1,2,0,1,2,0,1,2,0,1,2,0,1,2,0,1,2,0,1,2,0,1,2,0,1,2,0,1,2,0,1,2,0,1,2,0,1,2,0,1,2,0,1,2,0,1,2,0,1,2,0,1,2,0,1,2,0,1,2,0,1,2,0,1,2,0,1,2,0,1,2,0,1,2,0,1,2,0,1,2,0,1,2,0,1,2,0,1,2,0,1,2,0,1,2,0,1,2,0,1,2,0,1,2,0,1,2,0,1,2,0,1,2,0,1,2,0,1,2,0,1,2,0,1,2,0,1,2,0,1,2,0,1,2,0,1,2,0,1,2,0,1,2,0,1,2,0,1,2,0,1,2,0,1,2,0,1,2,0,1,2,0,1,2,0,1,2,0,1,2,0,1,2,0,1,2,0,1,2,0,1,2,0,1,2,0,1,2,0,1,2,0,1,2,0,1,2,0,1,2,0,1,2,0,1,2,0,1,2,0,1,2,0,1,2,0,1,2,0,1,2,0,1,2,0,1,2,0,1,2,0,1,2,0,1,2,0,1,2,0,1,2,0,1,2,0,1,2,0,1,2,0,1,2,0,1,2,0,1,2,0,1,2,0,1,2,0,1,2,0,1,2,0,1,2,0,1,2,0,1,2,0,1,2,0,1,2,0,1,2,0,1,2,0,1,2,0,1,2,0,1,2,0,1,2,0,1,2,0,1,2,0,1,2,0,1,2,0,1,2,0,1,2,0,1,2,0,1,2,0,1,2,0,1,2,0,1,2,0,1,2,0,1,2,0,1,2,0,1,2,0,1,2,0,1,2,0,1,2,0,1,2,0,1,2,0,1,2,0,1,2,0,1,2,0,1,2,0,1,2,0,1,2,0,1,2,0,1,2,0,1,2,0,1,2,0,1,2,0,1,2,0,1,2,0,1,2,0,1,2,0,1,2,0,1,2,0,1,2,0,1,2,0,1,2,0,1,2,0,1,2,0,1,2,0,1,2,0,1,2,0,1,2,0,1,2,0,1,2,0,1,2,0,1,2,0,1,2,0,1,2,0,1,2,0,1,2,0,1,2,0,1,2,0,1,2,0,1,2,0,1,2,0,1,2,0,1,2,0,1,2,0,1,2,0,1,2,0,1,2,0,1,2,0,1,2,0,1,2,0,1,2,0,1,2,0,1,2,0,1,2,0,1,2,0,1,2,0,1,2,0,1,2,0,1,2,0,1,2,0,1,2,0,1,2,0,1,2,0,1,2,0,1,2,0,1,2,0,1,2,0,1,2,0,1,2,0,1,2,0,1,2,0,1,2,0,1,2,0,1,2,0,1,2,0,1,2,0,1,2,0,1,2,0,1,2,0,1,2,0,1,2,0,1,2,0,1,2,0,1,2,0,1,2,0,1,2],"trees":[{"base_weights":[2.002272E-3,4.5350814E-1,-7.5664693E-1,2.2740269E-1,1.0435252E0,2.3439877E-1,-7.9183114E-1,1.7140366E-2,8.05327E-1,8.8846934E-1,1.17263E0,7.0439893E-1,-8.081433E-2,-7.986762E-1,6.846121E-1,6.402916E-1,-2.7049726E-1,4.2924836E-1,1.1820911E0,1.2106026E0,7.7127665E-1,1.2336973E0,1.010868E0,1.1302373E0,3.9458507E-1,-1.4820741E-1,-8.1189233E-1,-6.899529E-2,1.069039E0,7.988972E-1,-4.957506E-1,4.4569612E-1,-5.1456374E-1,4.644645E-2,8.036759E-1,1.2560506E0,8.048879E-1,1.2702017E-1,1.1265208E0,3.664574E-1,1.002715E0,5.9618896E-1,1.2354716E0,1.1340543E0,-6.3456826E-2,1.1794094E-1,1.2661278E-3,-7.386652E-1,8.122445E-1,-2.6193142E-1,1.1369701E-1,-8.1895584E-1,-4.9838018E-1,1.2104874E-1,-4.833965E-2,-8.501154E-4,8.7503664E-2,-7.6272205E-2,1.00200765E-1,-7.069455E-2,5.8375802E-2,-5.6105852E-2,1.1326691E-1,9.052985E-2,-8.1799865E-2,1.2736468E-1,-5.422262E-2,1.2610303E-1,8.685913E-2,1.2256994E-1,-7.962821E-2,1.1956691E-1,5.216194E-2,1.0088068E-1,-3.3076068E-3,1.0856662E-1,2.2036557E-3,-7.175233E-3,8.996742E-2,1.2420577E-1,1.0109607E-1,1.1695111E-1,5.519528E-2,-2.7488777E-2,1.0871865E-1,-7.815928E-2,-7.175233E-3,3.7960056E-2,1.1732781E-1,4.105032E-2,-4.5739353E-2,-8.199082E-2,-5.3135406E-2,-6.1698485E-2,9.350924E-2],"categories":[],"categories_nodes":[],"categories_segments":[],"categories_sizes":[],"default_left":[0,0,0,0,0,0,0,0,0,0,0,0,0,0,0,0,0,0,0,0,0,0,0,0,0,0,0,0,0,0,0,0,0,0,0,0,0,0,0,0,0,0,0,0,0,0,0,0,0,0,0,0,0,0,0,0,0,0,0,0,0,0,0,0,0,0,0,0,0,0,0,0,0,0,0,0,0,0,0,0,0,0,0,0,0,0,0,0,0,0,0,0,0,0,0],"id":0,"left_children":[1,3,5,7,9,11,13,15,17,19,21,23,-1,25,27,29,31,33,35,37,39,41,43,45,47,49,51,-1,53,55,57,59,61,63,65,67,69,-1,71,73,75,77,79,81,83,-1,-1,85,87,89,-1,91,93,-1,-1,-1,-1,-1,-1,-1,-1,-1,-1,-1,-1,-1,-1,-1,-1,-1,-1,-1,-1,-1,-1,-1,-1,-1,-1,-1,-1,-1,-1,-1,-1,-1,-1,-1,-1,-1,-1,-1,-1,-1,-1],"loss_changes":[5.1985425E3,1.2690289E3,1.9762817E2,8.35973E2,5.1719482E1,9.607222E1,5.581299E1,9.045221E2,2.5953406E2,4.442859E1,1.2928833E1,1.734832E1,0E0,4.6677734E1,1.4357197E1,2.8755273E2,6.0376025E2,1.3183185E2,2.4549438E1,1.6653442E-1,8.243823E1,4.3676758E-1,5.2852264E1,3.077057E0,3.828065E1,1.6320177E1,1.1406494E1,0E0,5.0940933E0,8.600079E1,7.908011E1,1.4015039E2,1.9789594E2,3.392801E2,2.948448E2,3.7927246E-1,1.04052765E2,0E0,5.2769623E0,8.294479E1,4.567395E1,1.039879E0,2.7233887E-1,6.7401733E0,1.05100565E1,0E0,0E0,5.7269E-1,8.71534E0,1.3531908E1,0E0,9.9316406E-1,2.0997087E1,0E0,0E0,0E0,0E0,0E0,0E0,0E0,0E0,0E0,0E0,0E0,0E0,0E0,0E0,0E0,0E0,0E0,0E0,0E0,0E0,0E0,0E0,0E0,0E0,0E0,0E0,0E0,0E0,0E0,0E0,0E0,0E0,0E0,0E0,0E0,0E0,0E0,0E0,0E0,0E0,0E0,0E0],"parents":[2147483647,0,0,1,1,2,2,3,3,4,4,5,5,6,6,7,7,8,8,9,9,10,10,11,11,13,13,14,14,15,15,16,16,17,17,18,18,19,19,20,20,21,21,22,22,23,23,24,24,25,25,26,26,28,28,29,29,30,30,31,31,32,32,33,33,34,34,35,35,36,36,38,38,39,39,40,40,41,41,42,42,43,43,44,44,47,47,48,48,49,49,51,51,52,52],"right_children":[2,4,6,8,10,12,14,16,18,20,22,24,-1,26,28,30,32,34,36,38,40,42,44,46,48,50,52,-1,54,56,58,60,62,64,66,68,70,-1,72,74,76,78,80,82,84,-1,-1,86,88,90,-1,92,94,-1,-1,-1,-1,-1,-1,-1,-1,-1,-1,-1,-1,-1,-1,-1,-1,-1,-1,-1,-1,-1,-1,-1,-1,-1,-1,-1,-1,-1,-1,-1,-1,-1,-1,-1,-1,-1,-1,-1,-1,-1,-1],"split_conditions":[2.22E1,1.06E1,4.6692607E-1,5.7E0,1.21E1,7E0,1.2E1,5.194805E-1,6.8E0,4.9382716E-1,6.2791668E1,3E0,-8.081433E-2,1.3E1,2.28E1,7E0,1E0,1.79E1,1.92E1,4E0,3.9E1,2E0,1.12E1,2.66E1,1.55E1,3.74E0,9E0,-6.899529E-2,7E0,2.8E0,1E1,3E0,2.9268293E0,1.74E1,1.92E1,2E0,6.52E1,1.2702017E-1,1.142E2,1E0,6.5308334E1,4.7966667E1,1.98E1,1.579E2,1.54E1,1.1794094E-1,1.2661278E-3,3.52E0,3.772E1,5.63E1,1.1369701E-1,1.2E1,9.3E0,1.2104874E-1,-4.833965E-2,-8.501154E-4,8.7503664E-2,-7.6272205E-2,1.00200765E-1,-7.069455E-2,5.8375802E-2,-5.6105852E-2,1.1326691E-1,9.052985E-2,-8.1799865E-2,1.2736468E-1,-5.422262E-2,1.2610303E-1,8.685913E-2,1.2256994E-1,-7.962821E-2,1.1956691E-1,5.216194E-2,1.0088068E-1,-3.3076068E-3,1.0856662E-1,2.2036557E-3,-7.175233E-3,8.996742E-2,1.2420577E-1,1.0109607E-1,1.1695111E-1,5.519528E-2,-2.7488777E-2,1.0871865E-1,-7.815928E-2,-7.175233E-3,3.7960056E-2,1.1732781E-1,4.105032E-2,-4.5739353E-2,-8.199082E-2,-5.3135406E-2,-6.1698485E-2,9.350924E-2],"split_indices":[3,15,12,14,15,5,8,12,15,12,0,5,0,4,3,5,7,14,14,7,4,5,14,3,6,6,8,0,5,15,5,15,12,14,14,10,1,0,11,7,0,0,3,11,3,0,0,6,6,1,0,15,15,0,0,0,0,0,0,0,0,0,0,0,0,0,0,0,0,0,0,0,0,0,0,0,0,0,0,0,0,0,0,0,0,0,0,0,0,0,0,0,0,0,0],"split_type":[0,0,0,0,0,0,0,0,0,0,0,0,0,0,0,0,0,0,0,0,0,0,0,0,0,0,0,0,0,0,0,0,0,0,0,0,0,0,0,0,0,0,0,0,0,0,0,0,0,0,0,0,0,0,0,0,0,0,0,0,0,0,0,0,0,0,0,0,0,0,0,0,0,0,0,0,0,0,0,0,0,0,0,0,0,0,0,0,0,0,0,0,0,0,0],"sum_hessian":[1.5174693E4,9.513305E3,5.661388E3,6.8786606E3,2.6346443E3,1.93906E2,5.4674824E3,5.0444146E3,1.834246E3,1.2005974E3,1.4340469E3,1.3387613E2,6.002987E1,5.442708E3,2.4774231E1,1.5926973E3,3.4517175E3,9.190287E2,9.152173E2,3.1777716E2,8.828202E2,1.0362299E3,3.97817E2,5.5265594E1,7.861054E1,1.0862547E2,5.3340825E3,5.2407026E0,1.953353E1,1.3978384E3,1.9485886E2,8.771031E2,2.5746143E3,4.5498828E2,4.640404E2,7.632369E2,1.5198038E2,1.7770747E2,1.4006969E2,3.22065E2,5.607552E2,3.8114202E0,1.0324185E3,3.568442E2,4.0972767E1,5.2883457E1,2.3821375E0,2.096281E1,5.764773E1,1.0052621E2,8.099268E0,5.2149756E3,1.1910688E2,1.8104246E1,1.4292825E0,1.2053616E2,1.2773022E3,1.6579678E2,2.9062078E1,9.337979E1,7.8372327E2,2.5045796E3,7.003484E1,2.2820879E2,2.267795E2,3.4398068E2,1.2005974E2,7.5132623E2,1.1910688E1,1.2053616E2,3.1444216E1,1.2482401E2,1.5245681E1,1.22918304E2,1.991467E2,5.169239E2,4.3831333E1,1.4292825E0,2.3821375E0,9.985921E2,3.3826355E1,3.3540497E2,2.143924E1,3.525564E1,5.71713E0,1.953353E1,1.4292825E0,2.7156368E1,3.0491362E1,2.2392094E1,7.813412E1,5.1959185E3,1.90571E1,1.1053119E2,8.575695E0],"tree_param":{"num_deleted":"0","num_feature":"17","num_nodes":"95","size_leaf_vector":"1"}},{"base_weights":[6.0283463E-3,4.6306223E-1,-5.2289337E-1,7.7044636E-1,-2.9261288E-1,-1.7615737E-1,-7.278554E-2,8.901162E-2,1.0491233E0,-4.116021E-1,7.5642E-1,3.7273586E-1,-5.244758E-1,-1.4625882E-1,1.4468074E0,1.2535169E0,1.0312074E-1,-5.629116E-1,-3.9337337E-2,1.4240247E0,-6.74655E-1,7.9409015E-1,-1.9567288E-1,1.2985394E0,-5.789298E-1,6.3184273E-1,-2.3596343E-1,1.5289056E0,-6.486815E-2,1.3272189E0,-5.184481E-1,1.362589E0,9.761334E-4,-3.710775E-1,-6.7676467E-1,5.415875E-1,-3.8015845E-1,-6.2437553E-2,1.5149593E0,-7.170006E-2,3.7150875E-2,3.340337E-1,1.5778719E-1,-7.2551295E-2,1.265831E0,1.4522994E0,-3.3899963E-1,-6.956468E-1,-2.4552144E-1,-1.842462E-2,9.242458E-2,-3.8703553E-2,1.3320573E-2,-5.6413233E-2,1.5653576E-1,1.4307389E-1,6.920667E-2,2.7672067E-2,-6.545177E-2,1.4762296E-1,-2.9727686E-2,-2.0004269E-2,5.2907806E-2,-6.074381E-2,-6.300684E-3,-5.4824572E-2,-7.066461E-2,1.0269008E-1,-7.154395E-2,-5.875994E-2,1.7059978E-2,1.5423696E-1,-4.6046633E-2,8.994403E-2,-5.247527E-2,1.3380188E-1,-4.7622632E-2,7.947721E-2,1.5707795E-1,1.5272042E-1,-4.102121E-2,2.6338713E-3,-4.9699806E-2,-7.050412E-2,2.970959E-2,-3.952403E-2,1.5403682E-1],"categories":[],"categories_nodes":[],"categories_segments":[],"categories_sizes":[],"default_left":[0,0,0,0,0,0,0,0,0,0,0,0,0,0,0,0,0,0,0,0,0,0,0,0,0,0,0,0,0,0,0,0,0,0,0,0,0,0,0,0,0,0,0,0,0,0,0,0,0,0,0,0,0,0,0,0,0,0,0,0,0,0,0,0,0,0,0,0,0,0,0,0,0,0,0,0,0,0,0,0,0,0,0,0,0,0,0],"id":1,"left_children":[1,3,5,7,9,11,-1,13,15,17,19,21,23,25,27,29,31,33,35,37,39,41,43,45,47,49,51,53,-1,55,57,59,61,63,65,67,69,-1,71,-1,73,75,-1,-1,77,79,81,83,85,-1,-1,-1,-1,-1,-1,-1,-1,-1,-1,-1,-1,-1,-1,-1,-1,-1,-1,-1,-1,-1,-1,-1,-1,-1,-1,-1,-1,-1,-1,-1,-1,-1,-1,-1,-1,-1,-1],"loss_changes":[3.3192673E3,1.7112358E3,4.5221313E2,9.9430835E2,2.6626416E2,4.5254324E2,0E0,4.8609247E2,7.1847217E2,1.0780075E2,2.0866754E2,2.2028279E2,1.4448114E2,9.0698135E1,3.965143E1,3.997998E2,8.5086395E1,2.9473267E1,1.09947266E2,2.8619781E1,2.1316357E0,1.8987173E2,3.0452866E2,1.114344E1,5.4564514E1,3.223476E1,6.496394E1,1.7404358E1,0E0,1.919419E2,1.3462952E1,9.797768E0,6.515805E1,3.703218E1,2.8878174E0,1.26013916E2,4.0077953E1,0E0,8.428528E0,0E0,2.8326075E0,2.7233966E2,0E0,0E0,1.3789444E1,6.047882E0,2.6948524E-1,9.920837E0,9.854087E1,0E0,0E0,0E0,0E0,0E0,0E0,0E0,0E0,0E0,0E0,0E0,0E0,0E0,0E0,0E0,0E0,0E0,0E0,0E0,0E0,0E0,0E0,0E0,0E0,0E0,0E0,0E0,0E0,0E0,0E0,0E0,0E0,0E0,0E0,0E0,0E0,0E0,0E0],"parents":[2147483647,0,0,1,1,2,2,3,3,4,4,5,5,7,7,8,8,9,9,10,10,11,11,12,12,13,13,14,14,15,15,16,16,17,17,18,18,19,19,20,20,21,21,22,22,23,23,24,24,25,25,26,26,27,27,29,29,30,30,31,31,32,32,33,33,34,34,35,35,36,36,38,38,40,40,41,41,44,44,45,45,46,46,47,47,48,48],"right_children":[2,4,6,8,10,12,-1,14,16,18,20,22,24,26,28,30,32,34,36,38,40,42,44,46,48,50,52,54,-1,56,58,60,62,64,66,68,70,-1,72,-1,74,76,-1,-1,78,80,82,84,86,-1,-1,-1,-1,-1,-1,-1,-1,-1,-1,-1,-1,-1,-1,-1,-1,-1,-1,-1,-1,-1,-1,-1,-1,-1,-1,-1,-1,-1,-1,-1,-1,-1,-1,-1,-1,-1,-1],"split_conditions":[1.1E1,1.01E1,1.6E1,5.194805E-1,7E0,6.8E0,-7.278554E-2,7E0,6.055E1,7.894737E-1,2.2E0,1.79E1,5.0483334E1,2.8E0,1E1,2.7272727E0,3E0,1.16E1,5.9408333E1,1E0,5.77E1,1.74E1,1.92E1,3E0,6.4975E1,2E0,1E0,1E0,-6.486815E-2,1.1E1,4.8E0,3.1578948E0,1E0,5.063291E-1,1.21E1,2.7906976E0,1.2631578E0,-6.2437553E-2,6.5075E1,-7.170006E-2,6.735E1,5.7E0,1.5778719E-1,-7.2551295E-2,6.52E1,5E0,4.9725E1,1.97E1,1.74E1,-1.842462E-2,9.242458E-2,-3.8703553E-2,1.3320573E-2,-5.6413233E-2,1.5653576E-1,1.4307389E-1,6.920667E-2,2.7672067E-2,-6.545177E-2,1.4762296E-1,-2.9727686E-2,-2.0004269E-2,5.2907806E-2,-6.074381E-2,-6.300684E-3,-5.4824572E-2,-7.066461E-2,1.0269008E-1,-7.154395E-2,-5.875994E-2,1.7059978E-2,1.5423696E-1,-4.6046633E-2,8.994403E-2,-5.247527E-2,1.3380188E-1,-4.7622632E-2,7.947721E-2,1.5707795E-1,1.5272042E-1,-4.102121E-2,2.6338713E-3,-4.9699806E-2,-7.050412E-2,2.970959E-2,-3.952403E-2,1.5403682E-1],"split_indices":[5,15,5,12,5,15,0,5,0,12,14,14,0,15,5,12,15,15,0,8,13,14,14,12,0,5,10,8,0,8,15,12,10,12,15,12,12,0,0,0,0,14,0,0,1,10,0,3,14,0,0,0,0,0,0,0,0,0,0,0,0,0,0,0,0,0,0,0,0,0,0,0,0,0,0,0,0,0,0,0,0,0,0,0,0,0,0],"split_type":[0,0,0,0,0,0,0,0,0,0,0,0,0,0,0,0,0,0,0,0,0,0,0,0,0,0,0,0,0,0,0,0,0,0,0,0,0,0,0,0,0,0,0,0,0,0,0,0,0,0,0,0,0,0,0,0,0,0,0,0,0,0,0,0,0,0,0,0,0,0,0,0,0,0,0,0,0,0,0,0,0,0,0,0,0,0,0],"sum_hessian":[1.3729008E4,7.365074E3,6.3639336E3,5.2354453E3,2.129629E3,2.3649636E3,3.9989697E3,1.5199957E3,3.7154495E3,1.9132241E3,2.1640471E2,9.181067E2,1.4468569E3,1.2962771E3,2.2371858E2,3.0550493E3,6.604001E2,1.3599509E3,5.5327325E2,1.4756822E2,6.883649E1,5.2702936E2,3.910773E2,4.1301895E1,1.405555E3,1.333707E2,1.1629064E3,2.1554425E2,8.174333E0,2.933295E3,1.2175454E2,4.861577E1,6.117843E2,5.0809933E2,8.5185156E2,2.0435832E2,3.4891495E2,6.023193E0,1.4154503E2,6.496444E1,3.8720524E0,3.3299652E2,1.9403285E2,2.8739233E2,1.0368496E2,3.786007E1,3.4418244E0,1.0402914E3,3.652636E2,3.52787E1,9.8091995E1,8.251774E2,3.3772903E2,3.4418244E0,2.1210243E2,2.5211365E3,4.1215848E2,1.763935E1,1.0411519E2,4.5604176E1,3.0115964E0,4.4356512E2,1.6821916E2,2.869621E2,2.2113722E2,1.6434712E2,6.8750446E2,1.4756822E2,5.6790104E1,2.5340433E2,9.551063E1,1.3982411E2,1.7209122E0,1.2906842E0,2.5813684E0,1.4842868E2,1.8456784E2,4.216235E1,6.1522614E1,3.6569386E1,1.2906842E0,1.2906842E0,2.1511402E0,1.0308264E3,9.465017E0,3.3772903E2,2.7534595E1],"tree_param":{"num_deleted":"0","num_feature":"17","num_nodes":"87","size_leaf_vector":"1"}},{"base_weights":[-2.3652792E-3,-6.9863534E-1,1.6925122E-1,-6.6309685E-1,-7.0201E-1,-6.849801E-2,-4.2590234E-1,-7.021249E-1,-1.5471863E-2,-5.029338E-1,2.969472E-1,-7.031841E-2,-6.365516E-1,-5.704387E-1,4.934434E-1,1.2603708E-1,-5.600589E-2,3.5110426E-1,-6.5609384E-1,-6.702238E-2,-3.268912E-2,-3.9401893E-2,9.229605E-2,-3.9401893E-2,9.4009034E-2,-6.689088E-2,-1.3865796E-2],"categories":[],"categories_nodes":[],"categories_segments":[],"categories_sizes":[],"default_left":[0,0,0,0,0,0,0,0,0,0,0,0,0,0,0,0,0,0,0,0,0,0,0,0,0,0,0],"id":2,"left_children":[1,3,-1,5,7,-1,9,11,-1,13,15,-1,17,19,21,-1,-1,23,25,-1,-1,-1,-1,-1,-1,-1,-1],"loss_changes":[1.5646286E4,6.611328E-1,0E0,4.0322876E0,4.3017578E-1,0E0,4.2145824E0,1.4697266E-1,0E0,4.7440796E0,7.030178E0,0E0,3.0614357E0,1.3022919E0,2.1727738E0,0E0,0E0,1.9053001E0,8.633156E-1,0E0,0E0,0E0,0E0,0E0,0E0,0E0,0E0],"parents":[2147483647,0,0,1,1,3,3,4,4,6,6,7,7,9,9,10,10,12,12,13,13,14,14,17,17,18,18],"right_children":[2,4,-1,6,8,-1,10,12,-1,14,16,-1,18,20,22,-1,-1,24,26,-1,-1,-1,-1,-1,-1,-1,-1],"split_conditions":[1.6E1,2.2E0,1.6925122E-1,1.1E1,1.7683332E1,-6.849801E-2,1.88E1,3.982E1,-1.5471863E-2,1E0,1.0941667E1,-7.031841E-2,5.88E1,1.086E2,4.9125E1,1.2603708E-1,-5.600589E-2,5.5058334E1,2.25E1,-6.702238E-2,-3.268912E-2,-3.9401893E-2,9.229605E-2,-3.9401893E-2,9.4009034E-2,-6.689088E-2,-1.3865796E-2],"split_indices":[5,15,0,5,2,0,3,6,0,10,2,0,1,11,0,0,0,0,3,0,0,0,0,0,0,0,0],"split_type":[0,0,0,0,0,0,0,0,0,0,0,0,0,0,0,0,0,0,0,0,0,0,0,0,0,0,0],"sum_hessian":[1.3256524E4,9.396819E3,3.859705E3,8.3204474E2,8.564774E3,7.6003687E2,7.200787E1,8.562693E3,2.0811524E0,6.534818E1,6.6596875E0,8.417013E3,1.4568066E2,6.1602108E1,3.7460742E0,2.9136133E0,3.7460742E0,2.4973829E0,1.4318329E2,4.245551E1,1.91466E1,1.2486914E0,2.4973829E0,1.2486914E0,1.2486914E0,1.3943721E2,3.7460742E0],"tree_param":{"num_deleted":"0","num_feature":"17","num_nodes":"27","size_leaf_vector":"1"}},{"base_weights":[1.9415903E-3,4.1571382E-1,-7.1847737E-1,-1.7533569E-2,5.743602E-1,2.103634E-1,-7.521757E-1,6.5187263E-1,-4.3829817E-1,9.3667173E-1,4.3108222E-1,6.399007E-1,-7.683208E-2,-7.5904936E-1,6.6613674E-1,9.3867785E-1,6.456458E-2,-5.5005145E-1,1.0279971E0,1.0050514E0,4.826115E-1,1.6632193E-1,7.5746465E-1,1.0549364E0,3.3410776E-1,-1.2359777E-1,-7.719877E-1,-5.067731E-1,9.775196E-1,1.050489E0,7.4773693E-1,-8.0424815E-1,7.897144E-1,-1.8495747E-1,-7.6617223E-1,1.0689074E0,-3.7916052E-1,9.2253387E-1,1.124335E0,6.032293E-1,-7.552283E-2,3.440406E-1,-4.5495054E-1,8.8963544E-1,1.0714649E-1,1.086242E-1,-8.648404E-3,-7.2292006E-1,6.9893134E-1,4.7432843E-1,-3.4589112E-1,-7.790401E-2,-4.5977607E-1,-6.259831E-2,-6.4661256E-3,1.1059158E-1,-4.7180843E-2,1.0043242E-1,1.14048816E-1,8.1600994E-2,3.8491283E-2,-8.106212E-2,-8.863726E-3,8.946573E-2,-1.7260013E-2,3.5636745E-2,-4.0129706E-2,-7.825016E-2,-1.4097239E-2,2.5355682E-2,1.0851715E-1,-9.334447E-3,-5.09802E-2,9.534004E-2,-2.9457137E-2,1.1291056E-1,7.89163E-2,2.8565755E-2,9.282204E-2,6.524536E-2,1.8743826E-3,-7.32356E-2,1.451681E-2,6.747033E-2,9.976621E-2,-7.779043E-2,5.4873563E-2,-7.66707E-2,-7.723272E-3,3.516562E-2,9.981391E-2,7.396086E-2,-1.1938152E-2,3.294685E-2,-5.908444E-2,-9.0040563E-4,-7.647772E-2],"categories":[],"categories_nodes":[],"categories_segments":[],"categories_sizes":[],"default_left":[0,0,0,0,0,0,0,0,0,0,0,0,0,0,0,0,0,0,0,0,0,0,0,0,0,0,0,0,0,0,0,0,0,0,0,0,0,0,0,0,0,0,0,0,0,0,0,0,0,0,0,0,0,0,0,0,0,0,0,0,0,0,0,0,0,0,0,0,0,0,0,0,0,0,0,0,0,0,0,0,0,0,0,0,0,0,0,0,0,0,0,0,0,0,0,0,0],"id":3,"left_children":[1,3,5,7,9,11,13,15,17,19,21,23,-1,25,27,29,31,33,35,37,39,41,43,45,47,49,51,53,55,57,59,61,63,65,67,69,71,73,75,77,-1,79,81,83,85,-1,-1,87,89,91,93,-1,95,-1,-1,-1,-1,-1,-1,-1,-1,-1,-1,-1,-1,-1,-1,-1,-1,-1,-1,-1,-1,-1,-1,-1,-1,-1,-1,-1,-1,-1,-1,-1,-1,-1,-1,-1,-1,-1,-1,-1,-1,-1,-1,-1,-1],"loss_changes":[4.502213E3,6.594032E2,1.7262451E2,7.248177E2,3.6412695E2,8.191398E1,5.2344482E1,1.6724179E2,2.5948804E2,6.1275024E1,4.3488068E2,1.6800583E1,0E0,4.341504E1,1.0056262E1,1.3460205E1,2.0662747E2,1.1575821E2,6.8671036E0,1.5970215E1,3.961452E1,3.071761E2,1.9367358E2,2.1261482E0,3.1078617E1,1.4358527E1,1.1061523E1,2.8367293E-1,4.434801E0,5.9277344E-1,5.876236E0,6.0879517E-1,1.8203018E1,6.426142E1,9.306213E0,1.1747665E0,9.838587E-2,3.885968E1,2.312622E-1,2.445755E1,0E0,2.1696681E2,1.0314409E2,4.282495E1,1.49693E2,0E0,0E0,5.298176E-1,5.826071E0,4.7131953E0,1.316929E1,0E0,1.6079735E1,0E0,0E0,0E0,0E0,0E0,0E0,0E0,0E0,0E0,0E0,0E0,0E0,0E0,0E0,0E0,0E0,0E0,0E0,0E0,0E0,0E0,0E0,0E0,0E0,0E0,0E0,0E0,0E0,0E0,0E0,0E0,0E0,0E0,0E0,0E0,0E0,0E0,0E0,0E0,0E0,0E0,0E0,0E0,0E0],"parents":[2147483647,0,0,1,1,2,2,3,3,4,4,5,5,6,6,7,7,8,8,9,9,10,10,11,11,13,13,14,14,15,15,16,16,17,17,18,18,19,19,20,20,21,21,22,22,23,23,24,24,25,25,26,26,27,27,28,28,29,29,30,30,31,31,32,32,33,33,34,34,35,35,36,36,37,37,38,38,39,39,41,41,42,42,43,43,44,44,47,47,48,48,49,49,50,50,52,52],"right_children":[2,4,6,8,10,12,14,16,18,20,22,24,-1,26,28,30,32,34,36,38,40,42,44,46,48,50,52,54,56,58,60,62,64,66,68,70,72,74,76,78,-1,80,82,84,86,-1,-1,88,90,92,94,-1,96,-1,-1,-1,-1,-1,-1,-1,-1,-1,-1,-1,-1,-1,-1,-1,-1,-1,-1,-1,-1,-1,-1,-1,-1,-1,-1,-1,-1,-1,-1,-1,-1,-1,-1,-1,-1,-1,-1,-1,-1,-1,-1,-1,-1],"split_conditions":[2.22E1,4.09E1,4.6692607E-1,5.263158E-1,1E0,7E0,1.2E1,1E0,2.9268293E0,6.445E1,6.1225E1,3E0,-7.683208E-2,1.3E1,2.28E1,3.7151703E-1,5.97E0,1E0,1E0,5.7591667E1,1.88E1,7E0,1.74E1,2.66E1,1.55E1,6.741573E-1,9E0,6.89E1,7E0,1.5E1,5.02E1,4.03E0,7E0,6.896552E-1,5.7183334E1,3E0,6.4E1,1.92E1,6.84E1,6.6791664E1,-7.552283E-2,6.557377E-1,1E1,6.2458332E1,1.79E1,1.086242E-1,-8.648404E-3,3.52E0,3.772E1,2.5E1,5.63E1,-7.790401E-2,7E0,-6.259831E-2,-6.4661256E-3,1.1059158E-1,-4.7180843E-2,1.0043242E-1,1.14048816E-1,8.1600994E-2,3.8491283E-2,-8.106212E-2,-8.863726E-3,8.946573E-2,-1.7260013E-2,3.5636745E-2,-4.0129706E-2,-7.825016E-2,-1.4097239E-2,2.5355682E-2,1.0851715E-1,-9.334447E-3,-5.09802E-2,9.534004E-2,-2.9457137E-2,1.1291056E-1,7.89163E-2,2.8565755E-2,9.282204E-2,6.524536E-2,1.8743826E-3,-7.32356E-2,1.451681E-2,6.747033E-2,9.976621E-2,-7.779043E-2,5.4873563E-2,-7.66707E-2,-7.723272E-3,3.516562E-2,9.981391E-2,7.396086E-2,-1.1938152E-2,3.294685E-2,-5.908444E-2,-9.0040563E-4,-7.647772E-2],"split_indices":[3,13,12,12,8,5,8,8,12,0,0,5,0,4,3,12,6,8,8,0,14,5,14,3,6,12,8,1,5,4,0,6,5,12,0,12,4,14,1,0,0,12,5,0,14,0,0,6,6,3,1,0,5,0,0,0,0,0,0,0,0,0,0,0,0,0,0,0,0,0,0,0,0,0,0,0,0,0,0,0,0,0,0,0,0,0,0,0,0,0,0,0,0,0,0,0,0],"split_type":[0,0,0,0,0,0,0,0,0,0,0,0,0,0,0,0,0,0,0,0,0,0,0,0,0,0,0,0,0,0,0,0,0,0,0,0,0,0,0,0,0,0,0,0,0,0,0,0,0,0,0,0,0,0,0,0,0,0,0,0,0,0,0,0,0,0,0,0,0,0,0,0,0,0,0,0,0,0,0,0,0,0,0,0,0,0,0,0,0,0,0,0,0,0,0,0,0],"sum_hessian":[1.5101567E4,9.592528E3,5.50904E3,2.5713416E3,7.0211865E3,1.9268683E2,5.316353E3,9.922284E2,1.5791132E3,1.9881503E3,5.033036E3,1.3415385E2,5.8532974E1,5.291175E3,2.5178127E1,6.662665E2,3.259619E2,1.4678651E3,1.1124805E2,1.7268762E3,2.61274E2,2.7796792E3,2.2533567E3,5.587203E1,7.828183E1,1.05793495E2,5.1853813E3,5.1503634E0,2.0027763E1,4.173646E2,2.4890187E2,1.4824196E2,1.7771996E2,5.465058E2,9.213594E2,1.0833869E2,2.9093552E0,1.0259109E3,7.009654E2,2.3854257E2,2.2731428E1,2.1617454E3,6.1793384E2,1.8724347E3,3.8092203E2,5.442759E1,1.4444358E0,1.9833971E1,5.8447857E1,2.8364546E1,7.742895E1,5.069376E3,1.1600557E2,3.7289937E0,1.42137E0,1.8615553E1,1.4122099E0,2.8389886E2,1.3346573E2,2.0843196E2,4.0469917E1,1.468018E2,1.4401531E0,1.6030823E2,1.7411732E1,1.5586162E2,3.906442E2,8.9766205E2,2.3697311E1,2.4432478E0,1.0589545E2,1.450492E0,1.4588633E0,1.0007479E3,2.5162926E1,6.8879315E2,1.2172239E1,1.2159878E2,1.16943794E2,1.1091539E3,1.0525916E3,4.224401E2,1.9549374E2,6.2873517E2,1.2436996E3,1.2654127E2,2.5438075E2,1.8398836E1,1.435134E0,2.8057844E1,3.0390013E1,1.9434933E1,8.929613E0,2.0516893E1,5.6912056E1,4.723088E1,6.877469E1],"tree_param":{"num_deleted":"0","num_feature":"17","num_nodes":"97","size_leaf_vector":"1"}},{"base_weights":[2.1578267E-3,4.109359E-1,-5.23376E-1,6.870944E-1,-2.7277884E-1,-6.328826E-1,1.044593E-1,-1.3347501E-2,8.9731073E-1,-3.7946826E-1,4.3287122E-1,9.728571E-1,-6.563619E-1,1.1432991E0,-2.9079783E-1,-2.0248741E-1,1.0303929E0,1.0282294E0,-7.760965E-2,-5.9406805E-1,-1.21506825E-1,1.1337262E0,-6.739184E-1,1.1736709E0,-6.2784344E-2,-4.8094705E-1,-6.9923085E-1,1.3546218E0,-6.7801975E-2,-7.0111774E-2,4.046888E-1,4.5716685E-1,-2.7456376E-1,1.29322E0,-3.272882E-1,1.0777196E0,-5.641271E-1,2.6711655E-1,-3.2097867E-1,-4.7582495E-1,-6.703962E-1,-4.6212387E-1,6.553781E-1,1.2813042E0,-6.581142E-2,-1.0957538E-2,-6.817834E-2,-7.9122946E-2,1.2366775E0,3.1473985E-1,-6.0230917E-1,-4.9462909E-1,-7.049796E-2,6.710057E-1,1.3631302E-1,-2.2958077E-1,1.3750301E-1,-3.1467848E-2,7.9473235E-2,-4.08418E-2,6.124124E-3,1.330488E-1,-5.3769886E-2,1.3423197E-2,-6.678781E-2,6.746146E-2,1.1933869E-1,-7.027165E-2,-6.187197E-3,5.9800697E-3,8.505901E-2,-5.6385912E-2,7.0860945E-3,-5.6161877E-2,-2.3723545E-2,-2.902776E-2,-6.762132E-2,-5.592152E-2,-1.4746845E-2,9.1101564E-2,-9.03546E-3,-5.9980985E-2,1.3444413E-1,-4.773138E-2,4.273727E-2,1.05918065E-1,1.4215045E-1,-4.073819E-2,1.3130638E-1,-7.045899E-2,3.7032243E-2,4.53819E-2,-6.718232E-2,9.851534E-2,-4.0666717E-3,9.3431145E-2,-6.326043E-2],"categories":[],"categories_nodes":[],"categories_segments":[],"categories_sizes":[],"default_left":[0,0,0,0,0,0,0,0,0,0,0,0,0,0,0,0,0,0,0,0,0,0,0,0,0,0,0,0,0,0,0,0,0,0,0,0,0,0,0,0,0,0,0,0,0,0,0,0,0,0,0,0,0,0,0,0,0,0,0,0,0,0,0,0,0,0,0,0,0,0,0,0,0,0,0,0,0,0,0,0,0,0,0,0,0,0,0,0,0,0,0,0,0,0,0,0,0],"id":4,"left_children":[1,3,5,7,9,11,13,15,17,19,21,23,25,27,29,31,33,35,37,39,41,43,45,47,-1,49,51,53,-1,-1,55,57,59,61,63,65,67,69,71,73,75,77,79,81,-1,-1,-1,83,85,87,89,91,-1,93,-1,95,-1,-1,-1,-1,-1,-1,-1,-1,-1,-1,-1,-1,-1,-1,-1,-1,-1,-1,-1,-1,-1,-1,-1,-1,-1,-1,-1,-1,-1,-1,-1,-1,-1,-1,-1,-1,-1,-1,-1,-1,-1],"loss_changes":[2.935991E3,1.4516588E3,4.111671E2,8.06313E2,1.6672433E2,1.9259827E2,3.653231E2,2.499462E2,5.376655E2,1.0634619E2,2.2651776E2,2.4452675E1,3.7404297E1,9.5291046E1,1.8426442E2,5.108533E1,6.973482E1,2.9324E2,4.199743E1,9.149567E0,2.3164334E2,4.8062866E1,4.289093E-1,5.299904E0,0E0,9.5678955E1,4.392456E0,3.6517334E-1,0E0,0E0,1.4793805E2,2.7855185E1,4.3484398E1,1.1833405E1,5.167077E0,1.671294E2,7.793392E0,2.5022463E1,2.7952286E1,8.361626E0,1.2080383E0,1.8502914E1,5.0960075E1,2.0440948E1,0E0,0E0,0E0,1.0300071E0,5.54863E-1,9.534976E1,8.564856E1,1.938199E1,0E0,1.0851378E0,0E0,6.9031044E1,0E0,0E0,0E0,0E0,0E0,0E0,0E0,0E0,0E0,0E0,0E0,0E0,0E0,0E0,0E0,0E0,0E0,0E0,0E0,0E0,0E0,0E0,0E0,0E0,0E0,0E0,0E0,0E0,0E0,0E0,0E0,0E0,0E0,0E0,0E0,0E0,0E0,0E0,0E0,0E0,0E0],"parents":[2147483647,0,0,1,1,2,2,3,3,4,4,5,5,6,6,7,7,8,8,9,9,10,10,11,11,12,12,13,13,14,14,15,15,16,16,17,17,18,18,19,19,20,20,21,21,22,22,23,23,25,25,26,26,27,27,30,30,31,31,32,32,33,33,34,34,35,35,36,36,37,37,38,38,39,39,40,40,41,41,42,42,43,43,47,47,48,48,49,49,50,50,51,51,53,53,55,55],"right_children":[2,4,6,8,10,12,14,16,18,20,22,24,26,28,30,32,34,36,38,40,42,44,46,48,-1,50,52,54,-1,-1,56,58,60,62,64,66,68,70,72,74,76,78,80,82,-1,-1,-1,84,86,88,90,92,-1,94,-1,96,-1,-1,-1,-1,-1,-1,-1,-1,-1,-1,-1,-1,-1,-1,-1,-1,-1,-1,-1,-1,-1,-1,-1,-1,-1,-1,-1,-1,-1,-1,-1,-1,-1,-1,-1,-1,-1,-1,-1,-1,-1],"split_conditions":[6.9E1,1E1,1.74E1,4.7244096E-1,7E0,5.0733334E1,1.79E1,7E0,6.1225E1,6.315789E-1,1E1,6.2E0,7.05E1,2.53E1,1.92E1,2.8E0,1E1,3E0,7.6E0,1.16E1,1E0,2.2E0,4.9725E1,2.2E0,-6.2784344E-2,5.7E0,1.51E1,5.98E1,-6.7801975E-2,-7.0111774E-2,6.52E1,4.9583332E1,1E0,1.2E1,6.8E0,2E0,9E0,7E0,1E0,5.063291E-1,3E0,1.2631578E0,1.18E1,3.5190615E-1,-6.581142E-2,-1.0957538E-2,-6.817834E-2,1.49E1,1.53E1,3.9E0,6.465E1,6.715833E1,-7.049796E-2,1.33E1,1.3631302E-1,5.775E1,1.3750301E-1,-3.1467848E-2,7.9473235E-2,-4.08418E-2,6.124124E-3,1.330488E-1,-5.3769886E-2,1.3423197E-2,-6.678781E-2,6.746146E-2,1.1933869E-1,-7.027165E-2,-6.187197E-3,5.9800697E-3,8.505901E-2,-5.6385912E-2,7.0860945E-3,-5.6161877E-2,-2.3723545E-2,-2.902776E-2,-6.762132E-2,-5.592152E-2,-1.4746845E-2,9.1101564E-2,-9.03546E-3,-5.9980985E-2,1.3444413E-1,-4.773138E-2,4.273727E-2,1.05918065E-1,1.4215045E-1,-4.073819E-2,1.3130638E-1,-7.045899E-2,3.7032243E-2,4.53819E-2,-6.718232E-2,9.851534E-2,-4.0666717E-3,9.3431145E-2,-6.326043E-2],"split_indices":[4,15,14,12,5,0,14,5,0,12,5,14,1,3,14,15,5,12,15,15,7,14,0,14,0,14,3,1,0,0,1,0,10,7,15,7,7,5,10,12,6,12,15,12,0,0,0,3,3,14,0,0,0,3,0,0,0,0,0,0,0,0,0,0,0,0,0,0,0,0,0,0,0,0,0,0,0,0,0,0,0,0,0,0,0,0,0,0,0,0,0,0,0,0,0,0,0],"split_type":[0,0,0,0,0,0,0,0,0,0,0,0,0,0,0,0,0,0,0,0,0,0,0,0,0,0,0,0,0,0,0,0,0,0,0,0,0,0,0,0,0,0,0,0,0,0,0,0,0,0,0,0,0,0,0,0,0,0,0,0,0,0,0,0,0,0,0,0,0,0,0,0,0,0,0,0,0,0,0,0,0,0,0,0,0,0,0,0,0,0,0,0,0,0,0,0,0],"sum_hessian":[1.3664788E4,7.6863228E3,5.9784653E3,5.4749404E3,2.2113823E3,5.090564E3,8.8790106E2,1.2640514E3,4.210889E3,1.9213499E3,2.9003262E2,7.277923E1,5.017785E3,2.4419632E2,6.437047E2,1.0708118E3,1.932396E2,3.7123198E3,4.985691E2,1.048114E3,8.732357E2,1.7756708E2,1.1246555E2,6.490361E1,7.8756175E0,9.87848E2,4.029937E3,2.1903816E2,2.5158161E1,4.0484692E2,2.3885779E2,1.0495001E2,9.6586176E2,1.6193822E2,3.1301388E1,3.600733E3,1.11587036E2,2.0628041E2,2.9228867E2,4.140013E2,6.3411273E2,6.073533E2,2.658825E2,1.6431853E2,1.3248539E1,1.7510706E0,1.10714485E2,3.095638E0,6.1807976E1,1.305208E2,8.573272E2,1.12514114E2,3.9174229E3,3.674481E0,2.1536368E2,1.4490388E2,9.395391E1,3.195425E1,7.299576E1,6.9043384E2,2.7542792E2,1.5897563E2,2.962581E0,1.3548382E1,1.7753006E1,8.043554E2,2.7963774E3,8.714235E1,2.4444687E1,1.5301474E2,5.3265667E1,1.8017119E2,1.12117485E2,3.0350928E2,1.1049202E2,1.0324914E1,6.2378784E2,4.635433E2,1.4380995E2,1.9784091E2,6.804159E1,5.060005E0,1.5925853E2,1.7653728E0,1.3302653E0,3.496261E1,2.6845366E1,7.608086E1,5.443995E1,7.7599963E2,8.132757E1,1.7465767E1,9.504835E1,2.2826087E0,1.3918722E0,3.6931393E1,1.0797249E2],"tree_param":{"num_deleted":"0","num_feature":"17","num_nodes":"97","size_leaf_vector":"1"}},{"base_weights":[-2.1639885E-3,-6.772222E-1,1.431797E-1,-6.774362E-1,-2.0084757E-1,-6.4179206E-1,-6.808381E-1,5.1802356E-2,-5.305785E-2,-6.558348E-1,-6.310777E-2,-6.820579E-2,-6.0544336E-1,-6.642197E-2,-2.426369E-1,1.1435786E0,-6.41463E-2,-6.739046E-1,-3.2279867E-1,-4.8560765E-2,4.3255977E-2,1.3701667E-1,6.0125194E-3,-6.823859E-2,-2.636589E-2,1.15242206E-1,-5.4894578E-2],"categories":[],"categories_nodes":[],"categories_segments":[],"categories_sizes":[],"default_left":[0,0,0,0,0,0,0,0,0,0,0,0,0,0,0,0,0,0,0,0,0,0,0,0,0,0,0],"id":5,"left_children":[1,3,-1,5,7,9,11,-1,-1,13,15,-1,17,-1,19,21,-1,23,25,-1,-1,-1,-1,-1,-1,-1,-1],"loss_changes":[1.2764745E4,7.7783203E-1,0E0,6.4941406E-1,1.5659398E0,6.445099E0,3.3789062E-1,0E0,0E0,2.5384521E0,1.470356E1,0E0,2.469799E0,0E0,3.01093E0,1.5980492E0,0E0,2.0588303E-1,1.0307179E1,0E0,0E0,0E0,0E0,0E0,0E0,0E0,0E0],"parents":[2147483647,0,0,1,1,3,3,4,4,5,5,6,6,9,9,10,10,12,12,14,14,15,15,17,17,18,18],"right_children":[2,4,-1,6,8,10,12,-1,-1,14,16,-1,18,-1,20,22,-1,24,26,-1,-1,-1,-1,-1,-1,-1,-1],"split_conditions":[1.6E1,1.7683332E1,1.431797E-1,2.2E0,8E0,6.2E0,3.982E1,5.1802356E-2,-5.305785E-2,8E1,4.45E1,-6.820579E-2,8E0,-6.642197E-2,1.073E2,1.9E0,-6.41463E-2,2.25E1,9E0,-4.8560765E-2,4.3255977E-2,1.3701667E-1,6.0125194E-3,-6.823859E-2,-2.636589E-2,1.15242206E-1,-5.4894578E-2],"split_indices":[5,2,0,15,7,14,6,0,0,4,13,0,5,0,11,15,0,3,5,0,0,0,0,0,0,0,0],"split_type":[0,0,0,0,0,0,0,0,0,0,0,0,0,0,0,0,0,0,0,0,0,0,0,0,0,0,0],"sum_hessian":[1.3184621E4,8.964825E3,4.2197954E3,8.960378E3,4.4468436E0,7.972089E2,8.1631694E3,1.2187363E0,3.2281075E0,7.781915E2,1.9017378E1,8.0252905E3,1.3787894E2,7.621185E2,1.6072994E1,5.8450046E0,1.3172374E1,1.0987993E2,2.7999012E1,1.2026152E1,4.0468416E0,4.6151805E0,1.2298241E0,1.0700439E2,2.875543E0,3.177221E0,2.482179E1],"tree_param":{"num_deleted":"0","num_feature":"17","num_nodes":"27","size_leaf_vector":"1"}},{"base_weights":[-8.111742E-4,3.750429E-1,-6.8955255E-1,1.7438251E-1,8.3807975E-1,-2.3797415E-1,-7.471291E-2,-8.117117E-3,6.608123E-1,6.9124365E-1,9.450766E-1,4.6681815E-1,-4.777705E-1,2.0791405E-1,-6.870035E-1,3.5915795E-1,9.601272E-1,8.980345E-1,5.3870296E-1,1.003076E0,7.8982294E-1,9.1388667E-1,1.4573994E-1,8.011994E-1,-5.807335E-1,6.3394856E-1,-7.127093E-2,1.0423076E-1,-7.030042E-1,4.8557994E-1,-5.151166E-1,1.0294067E0,6.266185E-1,9.443802E-1,-6.211065E-1,-5.1542455E-1,6.956924E-1,1.0119104E0,6.91191E-1,9.0153414E-1,-1.07872635E-1,9.8067313E-1,-3.641049E-1,-2.9425508E-1,7.076707E-1,1.18677214E-1,1.0145118E0,-2.149176E-1,-6.863006E-1,-5.999871E-3,7.029175E-2,3.2680944E-2,-4.545204E-2,-7.131727E-2,9.0328835E-2,1.7274952E-3,1.0548426E-1,-7.245158E-3,-7.7367954E-2,1.0329137E-1,4.9978223E-2,9.7805575E-2,-7.584236E-2,8.3323784E-2,1.04401566E-1,1.2268355E-2,-7.955076E-2,3.8340103E-2,-6.557999E-2,7.795402E-2,3.505665E-3,9.5428705E-2,1.0346818E-1,8.579316E-2,-6.254291E-2,9.328235E-2,3.8497698E-2,-3.3428617E-2,9.494823E-2,1.0364526E-1,7.300239E-2,-4.9288556E-2,-8.640458E-3,9.228593E-2,-5.892845E-2,-4.50098E-2,9.523906E-2,8.9728475E-2,-6.444474E-2,-6.7691803E-3,1.0812365E-1,-3.5459794E-2,5.8222055E-2,-7.380514E-2,-2.5597122E-3],"categories":[],"categories_nodes":[],"categories_segments":[],"categories_sizes":[],"default_left":[0,0,0,0,0,0,0,0,0,0,0,0,0,0,0,0,0,0,0,0,0,0,0,0,0,0,0,0,0,0,0,0,0,0,0,0,0,0,0,0,0,0,0,0,0,0,0,0,0,0,0,0,0,0,0,0,0,0,0,0,0,0,0,0,0,0,0,0,0,0,0,0,0,0,0,0,0,0,0,0,0,0,0,0,0,0,0,0,0,0,0,0,0,0,0],"id":6,"left_children":[1,3,5,7,9,11,-1,13,15,17,19,21,23,25,27,29,31,33,35,37,39,41,43,45,47,49,51,-1,53,55,57,59,61,63,65,67,69,71,73,75,77,79,81,83,85,87,89,91,93,-1,-1,-1,-1,-1,-1,-1,-1,-1,-1,-1,-1,-1,-1,-1,-1,-1,-1,-1,-1,-1,-1,-1,-1,-1,-1,-1,-1,-1,-1,-1,-1,-1,-1,-1,-1,-1,-1,-1,-1,-1,-1,-1,-1,-1,-1],"loss_changes":[3.8683433E3,8.981063E2,1.3699316E2,5.9887213E2,4.526416E1,1.01299515E2,0E0,7.19739E2,1.6583197E2,3.849463E1,1.44071045E1,2.1733128E1,5.9293648E1,4.4285352E2,3.3512634E1,1.0174295E2,2.0686401E1,3.7413177E1,1.1845326E2,2.6763916E0,4.6606537E1,5.775551E0,2.2422928E1,4.7866592E0,1.5841415E1,7.058563E1,3.4341025E2,0E0,1.9826233E1,2.1398988E2,1.3277294E1,9.0075684E-1,7.928009E1,4.755249E0,2.184544E0,1.1995157E1,3.4401672E1,5.731201E-1,8.638037E0,6.309021E0,1.2818829E1,9.063721E-2,9.6244514E-2,1.8892242E1,1.1691135E1,6.019741E0,1.9178925E0,1.06926365E1,1.0951492E1,0E0,0E0,0E0,0E0,0E0,0E0,0E0,0E0,0E0,0E0,0E0,0E0,0E0,0E0,0E0,0E0,0E0,0E0,0E0,0E0,0E0,0E0,0E0,0E0,0E0,0E0,0E0,0E0,0E0,0E0,0E0,0E0,0E0,0E0,0E0,0E0,0E0,0E0,0E0,0E0,0E0,0E0,0E0,0E0,0E0,0E0],"parents":[2147483647,0,0,1,1,2,2,3,3,4,4,5,5,7,7,8,8,9,9,10,10,11,11,12,12,13,13,14,14,15,15,16,16,17,17,18,18,19,19,20,20,21,21,22,22,23,23,24,24,25,25,26,26,28,28,29,29,30,30,31,31,32,32,33,33,34,34,35,35,36,36,37,37,38,38,39,39,40,40,41,41,42,42,43,43,44,44,45,45,46,46,47,47,48,48],"right_children":[2,4,6,8,10,12,-1,14,16,18,20,22,24,26,28,30,32,34,36,38,40,42,44,46,48,50,52,-1,54,56,58,60,62,64,66,68,70,72,74,76,78,80,82,84,86,88,90,92,94,-1,-1,-1,-1,-1,-1,-1,-1,-1,-1,-1,-1,-1,-1,-1,-1,-1,-1,-1,-1,-1,-1,-1,-1,-1,-1,-1,-1,-1,-1,-1,-1,-1,-1,-1,-1,-1,-1,-1,-1,-1,-1,-1,-1,-1,-1],"split_conditions":[2.23E1,1.04E1,7E0,5.7E0,1.19E1,5.063291E-1,-7.471291E-2,7E0,6.8E0,1E0,6.2791668E1,3E0,1E0,5.405405E-1,1.7673048E-1,1.92E1,1.92E1,6.5308334E1,6.17E1,2.04E1,1.12E1,2.66E1,3.6E1,6.0941666E1,1.3E1,2.8E0,2E0,1.0423076E-1,6.3658333E1,1.79E1,6.52E1,3E0,6.52E1,2E1,3.4285715E0,4.7244096E-1,1.3333334E0,5.2341667E1,7E0,1.579E2,1.54E1,2.48E1,4.8516666E1,2.5104603E-1,2.5E0,5.7108334E1,2.26E1,5.18E1,5.8525E1,-5.999871E-3,7.029175E-2,3.2680944E-2,-4.545204E-2,-7.131727E-2,9.0328835E-2,1.7274952E-3,1.0548426E-1,-7.245158E-3,-7.7367954E-2,1.0329137E-1,4.9978223E-2,9.7805575E-2,-7.584236E-2,8.3323784E-2,1.04401566E-1,1.2268355E-2,-7.955076E-2,3.8340103E-2,-6.557999E-2,7.795402E-2,3.505665E-3,9.5428705E-2,1.0346818E-1,8.579316E-2,-6.254291E-2,9.328235E-2,3.8497698E-2,-3.3428617E-2,9.494823E-2,1.0364526E-1,7.300239E-2,-4.9288556E-2,-8.640458E-3,9.228593E-2,-5.892845E-2,-4.50098E-2,9.523906E-2,8.9728475E-2,-6.444474E-2,-6.7691803E-3,1.0812365E-1,-3.5459794E-2,5.8222055E-2,-7.380514E-2,-2.5597122E-3],"split_indices":[3,15,5,14,15,12,0,5,15,8,0,5,7,12,12,14,14,0,1,3,14,3,4,0,4,15,7,0,0,14,1,10,1,4,12,12,12,0,5,11,3,3,0,12,15,0,3,11,0,0,0,0,0,0,0,0,0,0,0,0,0,0,0,0,0,0,0,0,0,0,0,0,0,0,0,0,0,0,0,0,0,0,0,0,0,0,0,0,0,0,0,0,0,0,0],"split_type":[0,0,0,0,0,0,0,0,0,0,0,0,0,0,0,0,0,0,0,0,0,0,0,0,0,0,0,0,0,0,0,0,0,0,0,0,0,0,0,0,0,0,0,0,0,0,0,0,0,0,0,0,0,0,0,0,0,0,0,0,0,0,0,0,0,0,0,0,0,0,0,0,0,0,0,0,0,0,0,0,0,0,0,0,0,0,0,0,0,0,0,0,0,0,0],"sum_hessian":[1.4941405E4,9.666656E3,5.2747495E3,6.745027E3,2.9216294E3,5.9706226E2,4.677687E3,4.9055405E3,1.8394862E3,1.2346833E3,1.686946E3,1.5133183E2,4.457304E2,3.72188E3,1.1836606E3,9.172583E2,9.222279E2,5.2206366E2,7.126196E2,1.224164E3,4.627821E2,6.248356E1,8.884827E1,3.270454E1,4.1302585E2,1.472929E3,2.248951E3,1.0263563E1,1.1733971E3,8.017658E2,1.1549246E2,7.618772E2,1.6035071E2,5.069753E2,1.5088373E1,9.207642E1,6.205432E2,1.188261E3,3.5902977E1,4.1156213E2,5.1219955E1,5.9601494E1,2.8820655E0,5.009777E1,3.8750496E1,8.158062E0,2.4546478E1,9.3177795E1,3.1984805E2,1.3316707E2,1.3397618E3,1.1032034E3,1.1457476E3,1.1665682E3,6.828823E0,4.4045502E2,3.6131082E2,4.305745E1,7.243501E1,7.559214E2,5.955823E0,1.281325E2,3.221819E1,2.4407503E2,2.629003E2,2.922208E0,1.2166165E1,1.220383E1,7.98726E1,5.5049457E2,7.004867E1,3.487221E2,8.395389E2,3.217644E1,3.7265363E0,3.8729663E2,2.4265522E1,4.274972E1,8.470236E0,4.6187813E1,1.3413681E1,1.4395883E0,1.4424772E0,9.359219E0,4.0738552E1,6.615127E0,3.2135372E1,3.9510481E0,4.207014E0,1.4247086E0,2.312177E1,7.97573E1,1.3420493E1,2.965066E2,2.3341478E1],"tree_param":{"num_deleted":"0","num_feature":"17","num_nodes":"95","size_leaf_vector":"1"}},{"base_weights":[4.450749E-4,3.7506914E-1,-5.0377834E-1,-2.31655E-1,5.962106E-1,-6.1438966E-1,1.0235514E-1,-3.031405E-1,1.2524242E0,-1.350161E-1,8.486667E-1,8.4438324E-1,-6.3658285E-1,1.0220985E0,-2.6188913E-1,-4.8327893E-1,-1.7195682E-1,1.2992768E0,-4.6602424E-2,-2.90331E-1,7.354218E-1,8.998584E-1,-4.4326478E-1,1.0405473E0,-6.1540645E-2,-4.6507046E-1,-6.7893803E-1,1.22040115E-1,-6.595697E-2,-6.8239145E-2,4.155095E-1,-3.76497E-1,-6.620943E-1,-1.1758916E-1,-6.979986E-2,1.3340864E-1,7.0622486E-1,-5.809681E-1,-1.1399582E-1,1.0948535E0,-4.4465804E-1,9.357552E-1,-1.4420712E-1,-6.2701255E-1,2.4119754E-1,-8.893987E-2,1.0985435E0,2.9343298E-1,-5.821588E-1,-3.515997E-1,-6.808938E-1,-1.9910851E-1,1.2531106E-1,-6.1450746E-2,-2.1332756E-2,-4.8079324E-5,-6.682252E-2,1.2908168E-2,-3.2090563E-2,-4.6125036E-2,1.1486435E-1,-5.927323E-2,5.212843E-2,-3.8634457E-2,1.2962552E-2,-5.9933394E-2,1.1612096E-1,3.9644097E-3,-6.474576E-2,5.801664E-2,1.02389924E-1,2.2216497E-2,-5.025434E-2,-3.1907E-2,-6.699943E-2,1.2547545E-1,-4.1531097E-2,3.9862197E-2,-4.740499E-2,1.2011774E-1,5.697934E-2,-3.9670423E-2,1.2038904E-1,-6.841645E-2,3.170061E-2,3.9724726E-2,-6.045903E-2,-5.970187E-2,-6.8397924E-2,7.709538E-2,-6.444609E-2],"categories":[],"categories_nodes":[],"categories_segments":[],"categories_sizes":[],"default_left":[0,0,0,0,0,0,0,0,0,0,0,0,0,0,0,0,0,0,0,0,0,0,0,0,0,0,0,0,0,0,0,0,0,0,0,0,0,0,0,0,0,0,0,0,0,0,0,0,0,0,0,0,0,0,0,0,0,0,0,0,0,0,0,0,0,0,0,0,0,0,0,0,0,0,0,0,0,0,0,0,0,0,0,0,0,0,0,0,0,0,0],"id":7,"left_children":[1,3,5,7,9,11,13,15,17,19,21,23,25,27,29,31,33,35,-1,37,39,41,43,45,-1,47,49,-1,-1,-1,51,53,55,57,-1,-1,59,61,63,65,67,69,71,73,75,77,79,81,83,85,87,89,-1,-1,-1,-1,-1,-1,-1,-1,-1,-1,-1,-1,-1,-1,-1,-1,-1,-1,-1,-1,-1,-1,-1,-1,-1,-1,-1,-1,-1,-1,-1,-1,-1,-1,-1,-1,-1,-1,-1],"loss_changes":[2.5612773E3,1.0439177E3,3.8757727E2,2.2091745E2,1.0526536E3,1.5878784E2,2.9937827E2,4.6802505E1,8.312637E0,1.9815549E2,2.8071606E2,2.1739365E1,3.466516E1,8.533728E1,1.8268622E2,1.5703598E1,3.279533E1,9.8695374E-1,0E0,6.3645966E1,9.4640945E1,1.5294556E2,2.0552805E1,4.376808E0,0E0,8.51488E1,2.2314453E0,0E0,0E0,0E0,1.2682962E2,2.0274162E1,1.2614594E0,5.2354927E1,0E0,0E0,4.303294E0,6.393112E0,5.1469955E1,1.985698E1,5.1856394E0,1.2295679E2,1.8017628E1,1.4825668E0,2.3845959E1,9.6171314E-1,2.6914825E0,8.12928E1,7.627234E1,4.974622E0,5.843506E-1,6.213733E1,0E0,0E0,0E0,0E0,0E0,0E0,0E0,0E0,0E0,0E0,0E0,0E0,0E0,0E0,0E0,0E0,0E0,0E0,0E0,0E0,0E0,0E0,0E0,0E0,0E0,0E0,0E0,0E0,0E0,0E0,0E0,0E0,0E0,0E0,0E0,0E0,0E0,0E0,0E0],"parents":[2147483647,0,0,1,1,2,2,3,3,4,4,5,5,6,6,7,7,8,8,9,9,10,10,11,11,12,12,13,13,14,14,15,15,16,16,17,17,19,19,20,20,21,21,22,22,23,23,25,25,26,26,30,30,31,31,32,32,33,33,36,36,37,37,38,38,39,39,40,40,41,41,42,42,43,43,44,44,45,45,46,46,47,47,48,48,49,49,50,50,51,51],"right_children":[2,4,6,8,10,12,14,16,18,20,22,24,26,28,30,32,34,36,-1,38,40,42,44,46,-1,48,50,-1,-1,-1,52,54,56,58,-1,-1,60,62,64,66,68,70,72,74,76,78,80,82,84,86,88,90,-1,-1,-1,-1,-1,-1,-1,-1,-1,-1,-1,-1,-1,-1,-1,-1,-1,-1,-1,-1,-1,-1,-1,-1,-1,-1,-1,-1,-1,-1,-1,-1,-1,-1,-1,-1,-1,-1,-1],"split_conditions":[6.9E1,1E0,1.74E1,7E0,4.7244096E-1,5.0733334E1,1.79E1,6.185567E-1,1E1,7E0,2.857143E0,6.2E0,7.05E1,1.6E1,1.92E1,6.2091667E1,2.7272727E0,3.982E1,-4.6602424E-2,2.8301886E-1,1E1,6.1716667E1,1.74E1,2.2E0,-6.1540645E-2,5.7E0,9.508333E0,1.22040115E-1,-6.595697E-2,-6.8239145E-2,6.52E1,1E1,6.54E1,6.67E1,-6.979986E-2,1.3340864E-1,1E1,6.1791668E1,5.26E1,1E0,5.1391666E1,1E0,6.2791668E1,3.8E1,1.79E1,1.2E1,1.206E2,3.9E0,6.465E1,6.67E1,1.0633333E1,6.12E1,1.2531106E-1,-6.1450746E-2,-2.1332756E-2,-4.8079324E-5,-6.682252E-2,1.2908168E-2,-3.2090563E-2,-4.6125036E-2,1.1486435E-1,-5.927323E-2,5.212843E-2,-3.8634457E-2,1.2962552E-2,-5.9933394E-2,1.1612096E-1,3.9644097E-3,-6.474576E-2,5.801664E-2,1.02389924E-1,2.2216497E-2,-5.025434E-2,-3.1907E-2,-6.699943E-2,1.2547545E-1,-4.1531097E-2,3.9862197E-2,-4.740499E-2,1.2011774E-1,5.697934E-2,-3.9670423E-2,1.2038904E-1,-6.841645E-2,3.170061E-2,3.9724726E-2,-6.045903E-2,-5.970187E-2,-6.8397924E-2,7.709538E-2,-6.444609E-2],"split_indices":[4,7,14,5,12,0,14,12,5,5,12,14,1,5,14,0,12,6,0,12,5,0,14,14,0,14,2,0,0,0,1,8,1,1,0,0,8,0,11,8,0,8,0,13,14,7,11,14,0,0,2,1,0,0,0,0,0,0,0,0,0,0,0,0,0,0,0,0,0,0,0,0,0,0,0,0,0,0,0,0,0,0,0,0,0,0,0,0,0,0,0],"split_type":[0,0,0,0,0,0,0,0,0,0,0,0,0,0,0,0,0,0,0,0,0,0,0,0,0,0,0,0,0,0,0,0,0,0,0,0,0,0,0,0,0,0,0,0,0,0,0,0,0,0,0,0,0,0,0,0,0,0,0,0,0,0,0,0,0,0,0,0,0,0,0,0,0,0,0,0,0,0,0,0,0,0,0,0,0,0,0,0,0,0,0],"sum_hessian":[1.355732E4,7.778423E3,5.7788975E3,2.077778E3,5.7006445E3,4.88706E3,8.918376E2,1.9830536E3,9.4724464E1,1.4631548E3,4.2374897E3,7.268046E1,4.8143794E3,2.5248598E2,6.393516E2,8.344803E2,1.1485732E3,9.2447845E1,2.2766137E0,1.242176E3,2.2097882E2,4.0762744E3,1.6121536E2,6.432391E1,8.356541E0,9.5583105E2,3.8585483E3,2.2609866E2,2.6387314E1,3.9447174E2,2.4487985E2,5.2442096E2,3.1005933E2,1.042094E3,1.0647932E2,8.614216E1,6.305689E0,4.6819632E2,7.739797E2,1.6944197E2,5.1536846E1,3.9408835E3,1.3539078E2,1.2716196E2,3.405341E1,3.115498E0,6.1208416E1,1.2761692E2,8.282141E2,2.3990335E1,3.834558E3,1.4167982E2,1.03200035E2,2.1216951E2,3.1225146E2,2.8567524E0,3.0720255E2,4.7101126E2,5.710827E2,1.7211833E0,4.5845056E0,4.6370944E2,4.48687E0,3.65167E2,4.0881268E2,6.083653E0,1.6335832E2,1.54486685E1,3.6088177E1,7.8433136E2,3.1565522E3,6.713266E1,6.8258125E1,1.6606678E1,1.10555275E2,1.3028296E1,2.1025114E1,1.3593856E0,1.7561125E0,5.0193745E1,1.1014669E1,7.29126E1,5.4704315E1,7.440451E2,8.4169E1,5.914205E0,1.807613E1,1.4295523E2,3.6916028E3,4.4348732E1,9.7331085E1],"tree_param":{"num_deleted":"0","num_feature":"17","num_nodes":"91","size_leaf_vector":"1"}},{"base_weights":[1.6206669E-4,-6.463354E-1,1.2462039E0,-6.5553415E-1,1.0450152E0,-5.861279E-2,1.2491621E0,-6.565009E-1,1.0158862E-1,-5.5353213E-2,1.23252176E-1,1.2501556E-1,5.905022E-1,-6.570395E-1,8.884274E-2,-4.722088E-2,1.0576975E-1,-6.5776324E-1,-4.719992E-1,-6.5798394E-2,-1.8584026E-2,-6.490435E-2,1.0221062E-1],"categories":[],"categories_nodes":[],"categories_segments":[],"categories_sizes":[],"default_left":[0,0,0,0,0,0,0,0,0,0,0,0,0,0,0,0,0,0,0,0,0,0,0],"id":8,"left_children":[1,3,5,7,9,-1,11,13,-1,-1,-1,-1,15,17,-1,-1,-1,19,21,-1,-1,-1,-1],"loss_changes":[1.0482633E4,1.3398145E2,2.482666E1,1.4436768E1,1.4688946E1,0E0,2.1660156E0,7.672119E0,0E0,0E0,0E0,0E0,4.758979E0,8.29834E-1,0E0,0E0,0E0,7.607422E-1,1.0375286E1,0E0,0E0,0E0,0E0],"parents":[2147483647,0,0,1,1,2,2,3,3,4,4,6,6,7,7,12,12,13,13,17,17,18,18],"right_children":[2,4,6,8,10,-1,12,14,-1,-1,-1,-1,16,18,-1,-1,-1,20,22,-1,-1,-1,-1],"split_conditions":[1.728E2,3.39E1,1.74E1,7.96E1,2.9E1,-5.861279E-2,1.1E1,1.8875E1,1.0158862E-1,-5.5353213E-2,1.23252176E-1,1.2501556E-1,6.96E1,1.67E2,8.884274E-2,-4.722088E-2,1.0576975E-1,1.7683332E1,5.5E1,-6.5798394E-2,-1.8584026E-2,-6.490435E-2,1.0221062E-1],"split_indices":[11,3,3,1,4,0,8,2,0,0,0,0,1,11,0,0,0,2,4,0,0,0,0],"split_type":[0,0,0,0,0,0,0,0,0,0,0,0,0,0,0,0,0,0,0,0,0,0,0],"sum_hessian":[1.3010804E4,8.566588E3,4.444215E3,8.520858E3,4.5729813E1,6.845615E0,4.4373696E3,8.51654E3,4.3187056E0,4.59595E0,4.113386E1,4.42979E3,7.579213E0,8.5141455E3,2.3938367E0,2.3112264E0,5.267987E0,8.478431E3,3.5714787E1,8.474074E3,4.3566794E0,3.2436783E1,3.2780037E0],"tree_param":{"num_deleted":"0","num_feature":"17","num_nodes":"23","size_leaf_vector":"1"}},{"base_weights":[3.1440984E-3,3.5147297E-1,-6.6079634E-1,1.6580355E-1,7.7907383E-1,-2.246983E-1,-7.1814746E-2,-7.9441833E-4,6.088374E-1,6.599557E-1,8.910178E-1,4.0317196E-1,-4.626106E-1,1.9837593E-1,-6.5102375E-1,3.140259E-1,8.8501877E-1,8.4241086E-1,5.2102643E-1,9.451461E-1,7.552858E-1,8.271505E-1,1.1506434E-1,6.8569595E-1,-5.615863E-1,5.8366E-1,-6.583456E-2,9.885313E-2,-6.6820437E-1,4.2814708E-1,-5.114617E-1,9.464245E-1,5.8656806E-1,8.7576425E-1,-3.8125324E-1,-7.5025134E-2,6.4556766E-1,8.868647E-1,9.682252E-2,8.608154E-1,-1.3508198E-1,8.9803493E-1,-2.4995863E-1,-7.473054E-2,4.59847E-1,5.964495E-2,8.9244425E-1,-1.9114889E-1,-6.666385E-1,-7.9003675E-3,6.470708E-2,3.1079603E-2,-4.35238E-2,-6.796843E-2,8.549185E-2,3.5616508E-4,9.672401E-2,-1.7639995E-2,-7.387244E-2,9.4960615E-2,4.890062E-2,9.023291E-2,-7.267658E-2,7.838968E-2,9.610575E-2,-5.2046366E-2,4.582215E-2,7.295264E-2,6.715206E-3,9.245804E-2,-1.8784365E-2,9.294744E-2,6.6919506E-2,-3.4738623E-2,8.626965E-2,3.0443534E-2,9.2262946E-2,-5.862823E-2,3.18855E-2,-7.437727E-2,6.271839E-2,8.451951E-2,-6.470876E-2,-4.9221333E-2,9.945106E-2,-3.1028057E-2,1.1048772E-1,-7.2038285E-2,-7.298498E-3],"categories":[],"categories_nodes":[],"categories_segments":[],"categories_sizes":[],"default_left":[0,0,0,0,0,0,0,0,0,0,0,0,0,0,0,0,0,0,0,0,0,0,0,0,0,0,0,0,0,0,0,0,0,0,0,0,0,0,0,0,0,0,0,0,0,0,0,0,0,0,0,0,0,0,0,0,0,0,0,0,0,0,0,0,0,0,0,0,0,0,0,0,0,0,0,0,0,0,0,0,0,0,0,0,0,0,0,0,0],"id":9,"left_children":[1,3,5,7,9,11,-1,13,15,17,19,21,23,25,27,29,31,33,35,37,39,41,43,45,47,49,51,-1,53,55,57,59,61,63,65,-1,67,69,-1,71,73,75,77,-1,79,81,83,85,87,-1,-1,-1,-1,-1,-1,-1,-1,-1,-1,-1,-1,-1,-1,-1,-1,-1,-1,-1,-1,-1,-1,-1,-1,-1,-1,-1,-1,-1,-1,-1,-1,-1,-1,-1,-1,-1,-1,-1,-1],"loss_changes":[3.401555E3,7.657683E2,1.2642261E2,4.96555E2,3.8354126E1,8.827346E1,0E0,6.3342914E2,1.494151E2,3.552301E1,1.032605E1,1.9763994E1,4.9042046E1,3.8118567E2,3.2966705E1,8.4137794E1,1.6831116E1,2.5297974E1,1.2841946E2,5.809326E-1,4.0837036E1,5.2343483E0,2.9470472E1,4.4022293E0,1.5232056E1,6.405719E1,3.0927826E2,0E0,2.0437195E1,1.792539E2,8.143011E0,6.7840576E-1,6.8879715E1,3.9146729E0,2.216574E0,0E0,3.5717102E1,1.2962112E1,0E0,4.4773865E0,1.0210814E1,6.21109E-1,1.1116858E0,0E0,1.468622E1,5.886139E0,4.136471E0,1.402291E1,9.745224E0,0E0,0E0,0E0,0E0,0E0,0E0,0E0,0E0,0E0,0E0,0E0,0E0,0E0,0E0,0E0,0E0,0E0,0E0,0E0,0E0,0E0,0E0,0E0,0E0,0E0,0E0,0E0,0E0,0E0,0E0,0E0,0E0,0E0,0E0,0E0,0E0,0E0,0E0,0E0,0E0],"parents":[2147483647,0,0,1,1,2,2,3,3,4,4,5,5,7,7,8,8,9,9,10,10,11,11,12,12,13,13,14,14,15,15,16,16,17,17,18,18,19,19,20,20,21,21,22,22,23,23,24,24,25,25,26,26,28,28,29,29,30,30,31,31,32,32,33,33,34,34,36,36,37,37,39,39,40,40,41,41,42,42,44,44,45,45,46,46,47,47,48,48],"right_children":[2,4,6,8,10,12,-1,14,16,18,20,22,24,26,28,30,32,34,36,38,40,42,44,46,48,50,52,-1,54,56,58,60,62,64,66,-1,68,70,-1,72,74,76,78,-1,80,82,84,86,88,-1,-1,-1,-1,-1,-1,-1,-1,-1,-1,-1,-1,-1,-1,-1,-1,-1,-1,-1,-1,-1,-1,-1,-1,-1,-1,-1,-1,-1,-1,-1,-1,-1,-1,-1,-1,-1,-1,-1,-1],"split_conditions":[2.23E1,1.04E1,7E0,5.7E0,1.21E1,5.3333336E-1,-7.1814746E-2,7E0,6.7E0,1E0,6.2458332E1,3E0,1E0,5.405405E-1,1.7673048E-1,1.92E1,1.92E1,6.5308334E1,4.03E0,5.2341667E1,1.12E1,2.66E1,3.52E0,6.86E1,1.3E1,2.8E0,2E0,9.885313E-2,6.3658333E1,1.79E1,6.52E1,3E0,6.52E1,2E1,1.2E1,-7.5025134E-2,1.2631578E0,7E0,9.682252E-2,3.799E1,1.54E1,1E1,2.3E0,-7.473054E-2,2.25E1,5.7108334E1,2.25E1,3.74E0,4.61E1,-7.9003675E-3,6.470708E-2,3.1079603E-2,-4.35238E-2,-6.796843E-2,8.549185E-2,3.5616508E-4,9.672401E-2,-1.7639995E-2,-7.387244E-2,9.4960615E-2,4.890062E-2,9.023291E-2,-7.267658E-2,7.838968E-2,9.610575E-2,-5.2046366E-2,4.582215E-2,7.295264E-2,6.715206E-3,9.245804E-2,-1.8784365E-2,9.294744E-2,6.6919506E-2,-3.4738623E-2,8.626965E-2,3.0443534E-2,9.2262946E-2,-5.862823E-2,3.18855E-2,-7.437727E-2,6.271839E-2,8.451951E-2,-6.470876E-2,-4.9221333E-2,9.945106E-2,-3.1028057E-2,1.1048772E-1,-7.2038285E-2,-7.298498E-3],"split_indices":[3,15,5,14,15,12,0,5,15,8,0,5,7,12,12,14,14,0,6,0,14,3,6,1,4,15,7,0,0,14,1,10,1,4,15,0,12,5,0,6,3,7,15,0,3,0,3,6,13,0,0,0,0,0,0,0,0,0,0,0,0,0,0,0,0,0,0,0,0,0,0,0,0,0,0,0,0,0,0,0,0,0,0,0,0,0,0,0,0],"split_type":[0,0,0,0,0,0,0,0,0,0,0,0,0,0,0,0,0,0,0,0,0,0,0,0,0,0,0,0,0,0,0,0,0,0,0,0,0,0,0,0,0,0,0,0,0,0,0,0,0,0,0,0,0,0,0,0,0,0,0,0,0,0,0,0,0,0,0,0,0,0,0,0,0,0,0,0,0,0,0,0,0,0,0,0,0,0,0,0,0],"sum_hessian":[1.4706173E4,9.645986E3,5.0601875E3,6.726602E3,2.9193838E3,5.8869135E2,4.471496E3,4.8891064E3,1.8374961E3,1.4177107E3,1.501673E3,1.6157826E2,4.2711304E2,3.7432227E3,1.1458835E3,8.898051E2,9.476909E2,6.1066437E2,8.070464E2,1.0692897E3,4.3238333E2,6.461702E1,9.696125E1,3.342235E1,3.936907E2,1.5222286E3,2.220994E3,1.1296713E1,1.1345868E3,7.821558E2,1.07649315E2,7.841768E2,1.635141E2,5.947379E2,1.59264555E1,7.156001E1,7.354864E2,3.1450342E2,7.5478625E2,3.865958E2,4.5787537E1,6.0783142E1,3.8338737E0,2.7360287E1,6.960096E1,8.61721E0,2.480514E1,8.760288E1,3.0608783E2,1.3292035E2,1.3893083E3,1.0998177E3,1.1211763E3,1.1266489E3,7.9378777E0,4.3811023E2,3.4404556E2,4.4224182E1,6.3425133E1,7.776914E2,6.4853945E0,1.3207309E2,3.1441E1,2.9124005E2,3.0349783E2,1.3986999E1,1.9394565E0,6.4203217E2,9.345417E1,3.0397543E2,1.0527973E1,2.8178104E2,1.0481475E2,3.829177E1,7.4957647E0,2.9504745E0,5.783267E1,2.3900142E0,1.4438596E0,8.074926E0,6.1526035E1,3.9882529E0,4.6289577E0,1.4404972E0,2.3364641E1,8.0924805E1,6.678077E0,2.8048187E2,2.560594E1],"tree_param":{"num_deleted":"0","num_feature":"17","num_nodes":"89","size_leaf_vector":"1"}},{"base_weights":[4.3774922E-3,3.4071246E-1,-4.9797773E-1,5.3986496E-1,-3.5713053E-1,-6.0499847E-1,8.939524E-2,4.2280767E-2,7.176894E-1,-3.9909872E-1,7.524534E-1,8.6597615E-1,-6.201298E-1,9.370633E-1,-2.6500756E-1,-1.3172787E-1,8.524775E-1,8.33036E-1,-5.4772977E-2,-2.087507E-1,-5.739358E-1,1.12797E-1,-6.515393E-2,9.881078E-1,1.9118847E-1,-4.747574E-1,-6.65131E-2,1.1159769E0,-6.4001545E-2,-6.6170275E-2,3.6123398E-1,5.2513725E-1,-2.1019557E-1,1.0434549E0,-4.0930718E-1,8.8490254E-1,-5.270738E-1,3.123577E-1,-3.12029E-1,-5.3143424E-1,7.813007E-3,-6.396461E-1,-4.0051416E-1,1.0394228E0,-3.651629E-2,-6.621321E-2,9.133229E-2,5.5446625E-2,-5.5517316E-1,6.2925905E-1,1.1228994E-1,-1.6861148E-1,1.1160916E-1,-1.2563703E-2,7.8296594E-2,-3.4435574E-2,4.8649255E-3,-5.3571966E-2,1.06639914E-1,3.4240757E-3,-6.268257E-2,9.665128E-2,4.1589525E-2,-6.343405E-2,3.3226951E-3,-5.765893E-2,3.859929E-2,3.9767724E-2,-4.0993027E-2,-5.671767E-2,-8.886209E-3,-3.351852E-2,3.420184E-2,-1.7865168E-2,-6.491948E-2,-2.4179064E-2,-6.385947E-2,1.1439959E-1,6.261826E-2,-4.4791374E-2,9.464159E-2,-6.659333E-2,-2.489666E-2,9.138752E-2,-8.270144E-3,8.5847996E-2,-5.8649074E-2],"categories":[],"categories_nodes":[],"categories_segments":[],"categories_sizes":[],"default_left":[0,0,0,0,0,0,0,0,0,0,0,0,0,0,0,0,0,0,0,0,0,0,0,0,0,0,0,0,0,0,0,0,0,0,0,0,0,0,0,0,0,0,0,0,0,0,0,0,0,0,0,0,0,0,0,0,0,0,0,0,0,0,0,0,0,0,0,0,0,0,0,0,0,0,0,0,0,0,0,0,0,0,0,0,0,0,0],"id":10,"left_children":[1,3,5,7,9,11,13,15,17,19,21,23,25,27,29,31,33,35,37,39,41,-1,-1,43,45,47,-1,49,-1,-1,51,53,55,57,59,61,63,65,67,69,71,73,75,77,-1,-1,-1,79,81,83,-1,85,-1,-1,-1,-1,-1,-1,-1,-1,-1,-1,-1,-1,-1,-1,-1,-1,-1,-1,-1,-1,-1,-1,-1,-1,-1,-1,-1,-1,-1,-1,-1,-1,-1,-1,-1],"loss_changes":[2.2445208E3,1.1060349E3,3.3493713E2,5.4774585E2,8.259531E1,1.00840454E2,2.4716876E2,2.3005217E2,4.0641528E2,5.6571716E1,3.4874195E1,3.6269073E0,2.8868652E1,6.915155E1,1.4442146E2,6.935801E1,6.9946655E1,2.8040576E2,5.6150314E1,5.710666E1,9.855621E0,0E0,0E0,3.0854416E0,5.7413583E0,4.5141663E1,0E0,2.859497E-2,0E0,0E0,9.0466286E1,2.4201382E1,4.1718227E1,9.660431E0,3.749774E0,1.4592236E2,8.819656E0,1.626134E1,2.4444065E1,5.140938E0,5.6279076E1,2.7092896E0,9.160778E0,9.1721344E-1,0E0,0E0,0E0,6.332149E1,3.0995148E1,1.1565585E0,0E0,5.779969E1,0E0,0E0,0E0,0E0,0E0,0E0,0E0,0E0,0E0,0E0,0E0,0E0,0E0,0E0,0E0,0E0,0E0,0E0,0E0,0E0,0E0,0E0,0E0,0E0,0E0,0E0,0E0,0E0,0E0,0E0,0E0,0E0,0E0,0E0,0E0],"parents":[2147483647,0,0,1,1,2,2,3,3,4,4,5,5,6,6,7,7,8,8,9,9,10,10,11,11,12,12,13,13,14,14,15,15,16,16,17,17,18,18,19,19,20,20,23,23,24,24,25,25,27,27,30,30,31,31,32,32,33,33,34,34,35,35,36,36,37,37,38,38,39,39,40,40,41,41,42,42,43,43,47,47,48,48,49,49,51,51],"right_children":[2,4,6,8,10,12,14,16,18,20,22,24,26,28,30,32,34,36,38,40,42,-1,-1,44,46,48,-1,50,-1,-1,52,54,56,58,60,62,64,66,68,70,72,74,76,78,-1,-1,-1,80,82,84,-1,86,-1,-1,-1,-1,-1,-1,-1,-1,-1,-1,-1,-1,-1,-1,-1,-1,-1,-1,-1,-1,-1,-1,-1,-1,-1,-1,-1,-1,-1,-1,-1,-1,-1,-1,-1],"split_conditions":[7.4E1,1.06E1,1.74E1,5.194805E-1,2.22E1,5.035E1,1.79E1,7E0,6.1225E1,1.21E1,6.95E1,1.206E2,7.38E1,2.53E1,1.92E1,2.8E0,1E1,3E0,7.6E0,5.769231E-1,8.333333E-1,1.12797E-1,-6.515393E-2,3.2432432E0,1.21E2,5.7E0,-6.65131E-2,5.98E1,-6.4001545E-2,-6.6170275E-2,6.52E1,3.69E1,1E0,1E0,5.1391666E1,1.1E1,1.62E1,6.54E1,6.165E1,7E0,1E0,3E0,4.5E1,1E0,-3.651629E-2,-6.621321E-2,9.133229E-2,3.9E0,6.4975E1,5.6641666E1,1.1228994E-1,5.775E1,1.1160916E-1,-1.2563703E-2,7.8296594E-2,-3.4435574E-2,4.8649255E-3,-5.3571966E-2,1.06639914E-1,3.4240757E-3,-6.268257E-2,9.665128E-2,4.1589525E-2,-6.343405E-2,3.3226951E-3,-5.765893E-2,3.859929E-2,3.9767724E-2,-4.0993027E-2,-5.671767E-2,-8.886209E-3,-3.351852E-2,3.420184E-2,-1.7865168E-2,-6.491948E-2,-2.4179064E-2,-6.385947E-2,1.1439959E-1,6.261826E-2,-4.4791374E-2,9.464159E-2,-6.659333E-2,-2.489666E-2,9.138752E-2,-8.270144E-3,8.5847996E-2,-5.8649074E-2],"split_indices":[4,15,14,12,3,0,14,5,0,15,1,11,1,3,14,15,5,12,15,12,12,0,0,12,11,14,0,1,0,0,1,13,10,8,0,8,14,1,0,5,7,6,4,10,0,0,0,14,0,0,0,0,0,0,0,0,0,0,0,0,0,0,0,0,0,0,0,0,0,0,0,0,0,0,0,0,0,0,0,0,0,0,0,0,0,0,0],"split_type":[0,0,0,0,0,0,0,0,0,0,0,0,0,0,0,0,0,0,0,0,0,0,0,0,0,0,0,0,0,0,0,0,0,0,0,0,0,0,0,0,0,0,0,0,0,0,0,0,0,0,0,0,0,0,0,0,0,0,0,0,0,0,0,0,0,0,0,0,0,0,0,0,0,0,0,0,0,0,0,0,0,0,0,0,0,0,0],"sum_hessian":[1.3282357E4,7.956005E3,5.326352E3,6.189775E3,1.7662299E3,4.505424E3,8.2092865E2,1.6299963E3,4.559779E3,1.7024768E3,6.3753067E1,4.5301254E1,4.4601226E3,2.415471E2,5.7938153E2,1.3425005E3,2.8749588E2,3.9672915E3,5.924873E2,8.1613306E2,8.8634375E2,5.0454845E1,1.3298224E1,3.796546E1,7.335795E0,1.0570286E3,3.4030938E3,2.1719907E2,2.4348042E1,3.546625E2,2.24719E2,1.4265138E2,1.1998491E3,2.498525E2,3.76434E1,3.8218965E3,1.4539502E2,2.440248E2,3.4846252E2,3.2717816E2,4.889549E2,6.4083844E2,2.4550531E2,3.680188E1,1.1635808E0,3.400562E0,3.935233E0,1.3924655E2,9.17782E2,4.334603E0,2.1286446E2,1.3249529E2,9.222372E1,4.062479E1,1.02026596E2,7.900389E2,4.0981018E2,3.2581193E0,2.4659436E2,1.2663497E1,2.4979902E1,3.2545276E3,5.6736896E2,1.2192161E2,2.3473408E1,1.8144798E1,2.2588E2,4.1870758E1,3.0659177E2,3.0246896E2,2.470918E1,2.4130173E2,2.4765317E2,1.3404364E1,6.274341E2,1.4851137E2,9.699394E1,2.7958458E1,8.843422E0,8.929556E1,4.995099E1,6.7312604E2,2.4465591E2,2.8940585E0,1.4405441E0,3.801214E1,9.448315E1],"tree_param":{"num_deleted":"0","num_feature":"17","num_nodes":"87","size_leaf_vector":"1"}},{"base_weights":[-5.206456E-3,-6.4183474E-1,1.1172024E-1,-6.038097E-1,-6.454853E-1,-6.139941E-1,1.01296864E-1,-6.466713E-2,-5.706319E-1,-6.2405485E-1,-1.4007974E-1,-3.436217E-1,1.04693785E-1,-6.372386E-1,-3.061385E-1,-6.291549E-2,-3.4782198E-1,1.0488128E-1,-6.0322713E-2,3.8066693E-2,-5.6154817E-2,-6.4690106E-2,-1.612192E-1,1.1202159E-1,-5.497262E-1,-5.3426888E-2,7.735003E-2,-3.6009353E-2,1.1507896E-2,3.6723997E-2,-6.313699E-2],"categories":[],"categories_nodes":[],"categories_segments":[],"categories_sizes":[],"default_left":[0,0,0,0,0,0,0,0,0,0,0,0,0,0,0,0,0,0,0,0,0,0,0,0,0,0,0,0,0,0,0],"id":11,"left_children":[1,3,-1,5,7,9,11,-1,13,15,17,19,-1,21,23,-1,25,-1,-1,-1,-1,-1,27,-1,29,-1,-1,-1,-1,-1,-1],"loss_changes":[9.075538E3,7.351074E-1,0E0,5.2712097E0,2.861328E-1,3.3225708E0,5.0662565E0,0E0,1.9824181E0,7.67334E-1,9.529038E0,1.5333433E0,0E0,3.455963E-1,9.923569E0,0E0,3.533896E0,0E0,0E0,0E0,0E0,0E0,2.2155449E-1,0E0,1.99511E0,0E0,0E0,0E0,0E0,0E0,0E0],"parents":[2147483647,0,0,1,1,3,3,4,4,5,5,6,6,8,8,9,9,10,10,11,11,13,13,14,14,16,16,22,22,24,24],"right_children":[2,4,-1,6,8,10,12,-1,14,16,18,20,-1,22,24,-1,26,-1,-1,-1,-1,-1,28,-1,30,-1,-1,-1,-1,-1,-1],"split_conditions":[1.6E1,2.2E0,1.1172024E-1,9E1,3.982E1,6.2E0,1.168E2,-6.466713E-2,8E0,7.8E1,5.4075E1,4.78E1,1.04693785E-1,2.25E1,9E0,-6.291549E-2,1E0,1.0488128E-1,-6.0322713E-2,3.8066693E-2,-5.6154817E-2,-6.4690106E-2,2E0,1.1202159E-1,5.5408333E1,-5.3426888E-2,7.735003E-2,-3.6009353E-2,1.1507896E-2,3.6723997E-2,-6.313699E-2],"split_indices":[5,15,0,4,6,14,11,0,5,4,0,11,0,3,5,0,10,0,0,0,0,0,7,0,0,0,0,0,0,0,0],"split_type":[0,0,0,0,0,0,0,0,0,0,0,0,0,0,0,0,0,0,0,0,0,0,0,0,0,0,0,0,0,0,0],"sum_hessian":[1.2698924E4,8.10322E3,4.5957036E3,7.2437836E2,7.378842E3,7.1419196E2,1.0186436E1,7.2562397E3,1.2260203E2,6.990353E2,1.5156633E1,7.3601527E0,2.826283E0,9.6812675E1,2.5789356E1,6.851088E2,1.3926499E1,3.8946335E0,1.1262E1,1.5296209E0,5.8305316E0,9.453479E1,2.2778869E0,3.2368436E0,2.2552513E1,1.23899145E1,1.5365852E0,1.1481739E0,1.129713E0,1.5578387E0,2.0994675E1],"tree_param":{"num_deleted":"0","num_feature":"17","num_nodes":"31","size_leaf_vector":"1"}},{"base_weights":[2.6688285E-3,3.2977718E-1,-6.304534E-1,-3.2412883E-2,5.1323634E-1,-1.9794402E-1,-6.92669E-2,-4.7876567E-1,1.2661588E-1,3.5444868E-1,7.518284E-1,6.788403E-1,-2.9655036E-1,-5.63302E-1,8.889511E-2,4.231768E-1,8.327482E-4,2.0003848E-2,6.7764145E-1,6.4130867E-1,8.25516E-1,1.4506753E-1,8.880486E-1,2.331051E-1,-5.075428E-1,-7.059566E-1,-4.648251E-1,4.7037235E-1,-2.7349004E-1,-6.8197244E-1,1.8316938E-1,1.5921023E-1,-6.2950844E-1,-6.3943213E-1,6.9761765E-1,6.696739E-1,-3.0930114E-1,8.7953144E-1,6.880261E-1,8.866672E-2,-7.058083E-2,9.459325E-2,2.2604632E-1,4.5349625E-1,-2.8940752E-1,-6.963064E-1,-3.914926E-2,-7.143841E-2,-3.447469E-2,1.6830403E-2,-5.068436E-2,3.6279224E-2,8.886525E-2,-3.9243355E-2,9.039032E-2,-7.337606E-2,-6.263481E-3,3.521382E-2,-5.7536536E-3,6.620798E-2,5.7219644E-3,-6.823147E-2,5.6159925E-2,1.4610593E-3,-6.707225E-2,8.555949E-2,5.890671E-2,8.1962675E-2,5.466326E-2,-6.2237967E-2,8.101668E-2,8.8530086E-2,6.9922335E-2,7.73825E-2,-7.998229E-3,6.550892E-2,-4.8211236E-2,6.349058E-2,5.455356E-3,-7.05431E-2,6.5491586E-3,-4.718187E-2,-7.0479445E-2,-1.9879302E-2,6.3526206E-2],"categories":[],"categories_nodes":[],"categories_segments":[],"categories_sizes":[],"default_left":[0,0,0,0,0,0,0,0,0,0,0,0,0,0,0,0,0,0,0,0,0,0,0,0,0,0,0,0,0,0,0,0,0,0,0,0,0,0,0,0,0,0,0,0,0,0,0,0,0,0,0,0,0,0,0,0,0,0,0,0,0,0,0,0,0,0,0,0,0,0,0,0,0,0,0,0,0,0,0,0,0,0,0,0,0],"id":12,"left_children":[1,3,5,7,9,11,-1,13,15,17,19,21,23,25,-1,27,29,31,33,35,37,39,41,43,45,47,49,51,53,55,57,59,61,63,65,67,69,71,73,-1,-1,-1,75,77,79,81,83,-1,-1,-1,-1,-1,-1,-1,-1,-1,-1,-1,-1,-1,-1,-1,-1,-1,-1,-1,-1,-1,-1,-1,-1,-1,-1,-1,-1,-1,-1,-1,-1,-1,-1,-1,-1,-1,-1],"loss_changes":[2.9664146E3,6.275553E2,1.311626E2,2.2552237E2,2.3723389E2,5.3374348E1,0E0,9.699773E1,8.738748E1,4.0703485E2,1.9863525E1,6.848255E0,6.1978996E1,1.0722458E1,0E0,2.3068771E1,2.0505107E2,1.6752637E2,5.083258E1,2.7337982E1,1.0526611E1,1.2481376E1,1.4987183E0,1.8369513E1,3.5000343E1,7.2576904E-1,1.254348E1,2.9097809E1,6.6425457E0,1.1087662E1,5.288826E1,7.821217E1,2.0952423E1,6.0603905E-1,3.1854614E1,1.7584259E1,1.0961694E1,4.967041E-1,2.8223038E1,0E0,0E0,0E0,1.8068767E0,8.055271E0,7.073414E0,2.0541382E-1,1.2492369E1,0E0,0E0,0E0,0E0,0E0,0E0,0E0,0E0,0E0,0E0,0E0,0E0,0E0,0E0,0E0,0E0,0E0,0E0,0E0,0E0,0E0,0E0,0E0,0E0,0E0,0E0,0E0,0E0,0E0,0E0,0E0,0E0,0E0,0E0,0E0,0E0,0E0,0E0],"parents":[2147483647,0,0,1,1,2,2,3,3,4,4,5,5,7,7,8,8,9,9,10,10,11,11,12,12,13,13,15,15,16,16,17,17,18,18,19,19,20,20,21,21,22,22,23,23,24,24,25,25,26,26,27,27,28,28,29,29,30,30,31,31,32,32,33,33,34,34,35,35,36,36,37,37,38,38,42,42,43,43,44,44,45,45,46,46],"right_children":[2,4,6,8,10,12,-1,14,16,18,20,22,24,26,-1,28,30,32,34,36,38,40,42,44,46,48,50,52,54,56,58,60,62,64,66,68,70,72,74,-1,-1,-1,76,78,80,82,84,-1,-1,-1,-1,-1,-1,-1,-1,-1,-1,-1,-1,-1,-1,-1,-1,-1,-1,-1,-1,-1,-1,-1,-1,-1,-1,-1,-1,-1,-1,-1,-1,-1,-1,-1,-1,-1,-1],"split_conditions":[2.22E1,6.6E0,7E0,2.7E0,1.09E1,1E0,-6.92669E-2,1.79E1,5.33E1,4.3E1,1.21E1,6.86E1,1.3E1,1.1E0,8.889511E-2,1.92E1,5.7E0,7E0,5.02E1,5.56E1,6.2458332E1,6.55E1,5.2E1,2.5E1,3.98E0,2.2E1,3.46E1,1.79E1,1.55E1,1.2E1,7E0,1.3E1,1E1,9.3E-1,1.118E2,1E0,1.54E1,1.98E1,1.12E1,8.866672E-2,-7.058083E-2,9.459325E-2,1.3658334E1,5.8E0,2.57E1,5.06E1,1.485E2,-7.143841E-2,-3.447469E-2,1.6830403E-2,-5.068436E-2,3.6279224E-2,8.886525E-2,-3.9243355E-2,9.039032E-2,-7.337606E-2,-6.263481E-3,3.521382E-2,-5.7536536E-3,6.620798E-2,5.7219644E-3,-6.823147E-2,5.6159925E-2,1.4610593E-3,-6.707225E-2,8.555949E-2,5.890671E-2,8.1962675E-2,5.466326E-2,-6.2237967E-2,8.101668E-2,8.8530086E-2,6.9922335E-2,7.73825E-2,-7.998229E-3,6.550892E-2,-4.8211236E-2,6.349058E-2,5.455356E-3,-7.05431E-2,6.5491586E-3,-4.718187E-2,-7.0479445E-2,-1.9879302E-2,6.3526206E-2],"split_indices":[3,15,5,15,15,7,0,14,11,4,15,1,4,15,0,14,6,5,0,13,0,1,4,3,6,3,13,14,3,7,5,4,5,6,11,8,3,3,14,0,0,0,2,15,3,11,11,0,0,0,0,0,0,0,0,0,0,0,0,0,0,0,0,0,0,0,0,0,0,0,0,0,0,0,0,0,0,0,0,0,0,0,0,0,0],"split_type":[0,0,0,0,0,0,0,0,0,0,0,0,0,0,0,0,0,0,0,0,0,0,0,0,0,0,0,0,0,0,0,0,0,0,0,0,0,0,0,0,0,0,0,0,0,0,0,0,0,0,0,0,0,0,0,0,0,0,0,0,0,0,0,0,0,0,0,0,0,0,0,0,0,0,0,0,0,0,0,0,0,0,0,0,0],"sum_hessian":[1.4321612E4,9.443185E3,4.8784277E3,3.1752812E3,6.267903E3,6.140265E2,4.264401E3,8.335922E2,2.3416892E3,3.764824E3,2.5030789E3,6.147966E1,5.525469E2,7.856223E2,4.796986E1,6.9670123E2,1.6449879E3,1.8507261E3,1.9140979E3,1.0051768E3,1.4979021E3,1.778825E1,4.3691414E1,1.573772E2,3.9516965E2,3.1832486E2,4.672975E2,6.5280206E2,4.389914E1,3.461189E2,1.298869E3,1.5247004E3,3.2602573E2,2.8134285E1,1.8859635E3,9.7633936E2,2.8837427E1,1.0715333E3,4.2636877E2,9.481967E0,8.306282E0,3.9783905E1,3.9075084E0,1.10782295E2,4.65949E1,2.8131323E2,1.1385644E2,3.101118E2,8.213055E0,2.889567E1,4.3840182E2,5.207376E2,1.3206447E2,4.0476757E1,3.4223816E0,3.1923975E2,2.6879152E1,7.6288336E2,5.359857E2,2.5616666E2,1.2685337E3,3.1259442E2,1.3431315E1,1.3088682E0,2.6825417E1,7.653061E2,1.1206575E3,4.374947E2,5.3884467E2,2.2882093E1,5.9553328E0,1.0345214E3,3.7011963E1,3.8351627E2,4.285249E1,2.4799523E0,1.427556E0,7.57468E1,3.5035492E1,2.0995564E1,2.5599335E1,1.2310691E1,2.6900253E2,9.263379E1,2.1222641E1],"tree_param":{"num_deleted":"0","num_feature":"17","num_nodes":"85","size_leaf_vector":"1"}},{"base_weights":[3.6739174E-3,3.1208345E-1,-4.7842523E-1,4.7824156E-1,-3.85411E-1,-5.861847E-1,9.731439E-2,1.8208763E-2,6.4098334E-1,-4.1887158E-1,6.018197E-1,7.520682E-1,-6.0205656E-1,8.759495E-1,-2.4473865E-1,-1.4421229E-1,7.62276E-1,7.467488E-1,-9.973474E-2,-5.906845E-1,-2.8317168E-1,9.009027E-1,-4.751424E-1,8.188139E-1,-4.6513613E-2,-4.5391613E-1,-6.482205E-2,1.03183866E-1,-6.2226444E-2,-6.437497E-2,3.448755E-1,-4.7308612E-1,-9.825762E-3,9.509572E-1,-3.575989E-1,7.956897E-1,-5.0774634E-1,2.2655462E-1,-3.8064316E-1,-1.21183164E-1,-6.057181E-1,-4.657452E-2,-4.8058107E-1,9.953733E-2,3.1195685E-1,3.2989755E-2,-6.158299E-2,9.3309754E-1,1.6113728E-1,4.0520695E-1,-5.380976E-1,-1.1676045E-1,1.0123172E-1,-6.279688E-2,-3.7372217E-2,1.3071232E-2,-5.049037E-2,-5.5669393E-2,9.770135E-2,1.4521131E-2,-6.512114E-2,8.683599E-2,3.825129E-2,-6.669598E-2,-8.64237E-3,1.6512796E-2,1.08788244E-1,-1.03440285E-2,-5.473072E-2,-4.018965E-2,8.9612156E-2,-6.377463E-2,-5.155891E-2,-3.254782E-2,2.449532E-2,-5.0978255E-2,1.1011406E-2,9.2522494E-2,-5.298507E-2,1.0407907E-1,6.0095567E-2,-6.492325E-2,8.383483E-2,9.791639E-2,-5.1457126E-2,-6.498919E-2,-3.0580927E-2,6.981535E-2,-5.2609384E-2],"categories":[],"categories_nodes":[],"categories_segments":[],"categories_sizes":[],"default_left":[0,0,0,0,0,0,0,0,0,0,0,0,0,0,0,0,0,0,0,0,0,0,0,0,0,0,0,0,0,0,0,0,0,0,0,0,0,0,0,0,0,0,0,0,0,0,0,0,0,0,0,0,0,0,0,0,0,0,0,0,0,0,0,0,0,0,0,0,0,0,0,0,0,0,0,0,0,0,0,0,0,0,0,0,0,0,0,0,0],"id":13,"left_children":[1,3,5,7,9,11,13,15,17,19,21,23,25,27,29,31,33,35,37,39,41,43,45,47,-1,49,-1,-1,-1,-1,51,53,55,57,59,61,63,65,67,69,71,73,75,-1,77,-1,-1,79,81,83,85,87,-1,-1,-1,-1,-1,-1,-1,-1,-1,-1,-1,-1,-1,-1,-1,-1,-1,-1,-1,-1,-1,-1,-1,-1,-1,-1,-1,-1,-1,-1,-1,-1,-1,-1,-1,-1,-1],"loss_changes":[1.9350536E3,9.2004156E2,3.1507227E2,4.799182E2,5.071245E1,9.1301636E1,2.1364668E2,2.0268192E2,3.7104712E2,3.4293976E1,1.6690063E1,4.489935E0,2.8616943E1,5.781871E1,1.3139487E2,6.0840416E1,6.3834137E1,2.5481348E2,5.4396927E1,4.5238495E0,3.863874E1,1.9071732E0,1.5201485E0,3.4807396E0,0E0,7.3100266E1,0E0,0E0,0E0,0E0,6.96546E1,5.911133E0,6.8137535E1,1.0657089E1,6.5984592E0,1.19426025E2,1.0420143E1,1.4357188E1,1.4671207E1,6.488143E0,1.4922943E0,3.0782532E1,7.8378296E0,0E0,4.0866156E0,0E0,0E0,8.392792E-1,5.1326103E0,4.828128E1,2.3646545E1,4.5168182E1,0E0,0E0,0E0,0E0,0E0,0E0,0E0,0E0,0E0,0E0,0E0,0E0,0E0,0E0,0E0,0E0,0E0,0E0,0E0,0E0,0E0,0E0,0E0,0E0,0E0,0E0,0E0,0E0,0E0,0E0,0E0,0E0,0E0,0E0,0E0,0E0,0E0],"parents":[2147483647,0,0,1,1,2,2,3,3,4,4,5,5,6,6,7,7,8,8,9,9,10,10,11,11,12,12,13,13,14,14,15,15,16,16,17,17,18,18,19,19,20,20,21,21,22,22,23,23,25,25,30,30,31,31,32,32,33,33,34,34,35,35,36,36,37,37,38,38,39,39,40,40,41,41,42,42,44,44,47,47,48,48,49,49,50,50,51,51],"right_children":[2,4,6,8,10,12,14,16,18,20,22,24,26,28,30,32,34,36,38,40,42,44,46,48,-1,50,-1,-1,-1,-1,52,54,56,58,60,62,64,66,68,70,72,74,76,-1,78,-1,-1,80,82,84,86,88,-1,-1,-1,-1,-1,-1,-1,-1,-1,-1,-1,-1,-1,-1,-1,-1,-1,-1,-1,-1,-1,-1,-1,-1,-1,-1,-1,-1,-1,-1,-1,-1,-1,-1,-1,-1,-1],"split_conditions":[7.4E1,1.09E1,1.74E1,5.194805E-1,2.22E1,5.0483334E1,1.79E1,7E0,6.1283333E1,5.769231E-1,1.351E2,3.2432432E0,1.568E2,2.53E1,1.92E1,3.0226701E-1,1E1,2.857143E0,8.1E0,2.75E0,1.21E1,4.51E1,3.96E1,1.206E2,-4.6513613E-2,5.7E0,-6.482205E-2,1.03183866E-1,-6.2226444E-2,-6.437497E-2,6.0108334E1,1.9512194E-1,6.1141666E1,1E0,6.8E0,1.1E1,1E1,1.88E1,6.2458332E1,1E0,4E0,1E0,1.579E2,9.953733E-2,2.36E1,3.2989755E-2,-6.158299E-2,1.84E0,1.21E2,7E0,6.4975E1,6.7E0,1.0123172E-1,-6.279688E-2,-3.7372217E-2,1.3071232E-2,-5.049037E-2,-5.5669393E-2,9.770135E-2,1.4521131E-2,-6.512114E-2,8.683599E-2,3.825129E-2,-6.669598E-2,-8.64237E-3,1.6512796E-2,1.08788244E-1,-1.03440285E-2,-5.473072E-2,-4.018965E-2,8.9612156E-2,-6.377463E-2,-5.155891E-2,-3.254782E-2,2.449532E-2,-5.0978255E-2,1.1011406E-2,9.2522494E-2,-5.298507E-2,1.0407907E-1,6.0095567E-2,-6.492325E-2,8.383483E-2,9.791639E-2,-5.1457126E-2,-6.498919E-2,-3.0580927E-2,6.981535E-2,-5.2609384E-2],"split_indices":[4,15,14,12,3,0,14,5,0,12,11,12,11,3,14,12,5,12,15,6,15,13,13,11,0,14,0,0,0,0,0,12,0,8,15,8,7,14,0,8,7,7,11,0,3,0,0,6,11,15,0,15,0,0,0,0,0,0,0,0,0,0,0,0,0,0,0,0,0,0,0,0,0,0,0,0,0,0,0,0,0,0,0,0,0,0,0,0,0],"split_type":[0,0,0,0,0,0,0,0,0,0,0,0,0,0,0,0,0,0,0,0,0,0,0,0,0,0,0,0,0,0,0,0,0,0,0,0,0,0,0,0,0,0,0,0,0,0,0,0,0,0,0,0,0,0,0,0,0,0,0,0,0,0,0,0,0,0,0,0,0,0,0,0,0,0,0,0,0,0,0,0,0,0,0,0,0,0,0,0,0],"sum_hessian":[1.3012534E4,7.9360312E3,5.076503E3,6.409472E3,1.5265591E3,4.276134E3,8.003693E2,1.6751965E3,4.734276E3,1.4770719E3,4.948728E1,4.957748E1,4.226556E3,2.438099E2,5.5655945E2,1.375703E3,2.994935E2,4.142736E3,5.9154E2,6.503259E2,8.267459E2,3.885918E1,1.06281E1,4.7310497E1,2.2669835E0,1.0067422E3,3.219814E3,2.2111426E2,2.2695646E1,3.3187622E2,2.2468321E2,3.983446E2,9.7735846E2,2.564385E2,4.305499E1,3.987538E3,1.5519785E2,2.7375415E2,3.1778583E2,2.0458748E1,6.298672E2,3.766104E2,4.501355E2,3.2892868E1,5.9663124E0,1.3809803E0,9.247121E0,3.994971E1,7.360788E0,8.950244E1,9.1723975E2,1.333067E2,9.13765E1,1.536008E2,2.4474379E2,7.618325E2,2.1552591E2,4.0106773E0,2.5242783E2,1.6059162E1,2.6995829E1,3.3901685E3,5.9736945E2,1.1221134E2,4.29865E1,2.5664304E2,1.7111105E1,1.1993139E2,1.9785445E2,1.650839E1,3.9503567E0,4.6024042E2,1.6962675E2,1.9241302E2,1.841974E2,4.2906152E2,2.107399E1,3.394373E0,2.5719395E0,2.8556898E1,1.1392812E1,3.3697565E0,3.9910312E0,5.5072018E1,3.4430424E1,6.180102E2,2.992296E2,4.4335865E1,8.897084E1],"tree_param":{"num_deleted":"0","num_feature":"17","num_nodes":"89","size_leaf_vector":"1"}},{"base_weights":[-5.5845827E-3,-6.262728E-1,1.01557605E-1,-5.847141E-1,-6.302902E-1,-6.091641E-1,-1.923595E-1,-6.305645E-1,1.5196994E-1,-6.148345E-2,5.0682455E-1,-3.1172606E-1,1.1256857E-1,-6.315077E-2,-5.7026285E-1,-3.477071E-2,5.717602E-2,8.214422E-2,-7.991358E-5,-5.311576E-1,4.450192E-3,1.0822702E-2,-5.7781583E-1,5.432677E-2,-6.1339017E-2,1.2720974E-1,-5.273051E-2,-6.0506996E-2,-4.22312E-2],"categories":[],"categories_nodes":[],"categories_segments":[],"categories_sizes":[],"default_left":[0,0,0,0,0,0,0,0,0,0,0,0,0,0,0,0,0,0,0,0,0,0,0,0,0,0,0,0,0],"id":14,"left_children":[1,3,-1,5,7,9,11,13,15,-1,17,19,-1,-1,21,-1,-1,-1,-1,23,25,-1,27,-1,-1,-1,-1,-1,-1],"loss_changes":[7.8218945E3,9.128418E-1,0E0,6.50589E0,1.5947266E0,4.421295E0,6.9526196E0,3.7109375E-2,8.814402E-1,0E0,6.125394E-1,2.7261436E0,0E0,0E0,6.665726E-1,0E0,0E0,0E0,0E0,2.3815722E0,1.2181175E1,0E0,2.3918915E-1,0E0,0E0,0E0,0E0,0E0,0E0],"parents":[2147483647,0,0,1,1,3,3,4,4,5,5,6,6,7,7,8,8,10,10,11,11,14,14,19,19,20,20,22,22],"right_children":[2,4,-1,6,8,10,12,14,16,-1,18,20,-1,-1,22,-1,-1,-1,-1,24,26,-1,28,-1,-1,-1,-1,-1,-1],"split_conditions":[1E0,2.2E0,1.01557605E-1,7.4E1,1.7683332E1,3.5294118E0,1E0,3.982E1,5.3075E1,-6.148345E-2,1.3E0,1.086E2,1.1256857E-1,-6.315077E-2,5.88E1,-3.477071E-2,5.717602E-2,8.214422E-2,-7.991358E-5,8.525E0,1.35E0,1.0822702E-2,3E0,5.432677E-2,-6.1339017E-2,1.2720974E-1,-5.273051E-2,-6.0506996E-2,-4.22312E-2],"split_indices":[9,15,0,4,2,12,10,6,0,0,15,11,0,0,1,0,0,0,0,2,6,0,10,0,0,0,0,0,0],"split_type":[0,0,0,0,0,0,0,0,0,0,0,0,0,0,0,0,0,0,0,0,0,0,0,0,0,0,0,0,0],"sum_hessian":[1.2338826E4,7.674469E3,4.664357E3,6.893994E2,6.98507E3,6.484386E2,4.09608E1,6.9828154E3,2.2543705E0,6.4560736E2,2.8312752E0,3.8259396E1,2.7014043E0,6.865946E3,1.1686943E2,1.1076478E0,1.1467227E0,1.3662701E0,1.4650052E0,2.218364E1,1.6075756E1,1.1399299E0,1.1572951E2,1.178552E0,2.1005089E1,4.3392324E0,1.1736524E1,9.601126E1,1.9718243E1],"tree_param":{"num_deleted":"0","num_feature":"17","num_nodes":"29","size_leaf_vector":"1"}},{"base_weights":[5.756536E-3,2.3399624E-1,-6.702524E-2,5.263442E-2,6.107511E-1,-1.0333782E-1,5.2552664E-1,4.8024526E-1,7.4768215E-1,9.651397E-2,-6.401571E-1,2.7795887E-1,7.7292836E-1,2.8986317E-1,6.81133E-1,8.286745E-1,6.6734004E-1,4.2972085E-1,-1.7702757E-1,8.441406E-2,-6.493755E-1,-1.377838E-2,5.6524664E-1,8.3429176E-1,4.8613757E-1,7.375604E-1,-3.3223677E-2,7.155306E-1,1.9484332E-1,8.357509E-1,6.0859764E-1,1.8495509E-1,6.966033E-1,-1.4370153E-2,4.9501404E-2,2.122978E-2,-4.5864858E-2,-6.563346E-2,8.585727E-2,6.5929905E-2,-7.269832E-2,8.614654E-2,-4.4452064E-2,8.368611E-2,-5.9935236E-3,7.768595E-2,-7.003198E-2,7.772668E-2,-9.671594E-3,6.1832923E-2,-2.8012795E-2,8.15559E-2,5.637738E-2,7.055142E-2,-1.0115485E-2,2.5479285E-2,8.36872E-2,-3.645939E-2,8.348442E-2,7.029381E-2,-7.409481E-2,8.19431E-2,5.145523E-2],"categories":[],"categories_nodes":[],"categories_segments":[],"categories_sizes":[],"default_left":[0,0,0,0,0,0,0,0,0,0,0,0,0,0,0,0,0,0,0,0,0,0,0,0,0,0,0,0,0,0,0,0,0,0,0,0,0,0,0,0,0,0,0,0,0,0,0,0,0,0,0,0,0,0,0,0,0,0,0,0,0,0,0],"id":15,"left_children":[1,3,-1,5,7,9,11,13,15,17,19,21,23,25,27,29,31,33,35,-1,37,39,41,43,45,47,49,51,53,55,57,59,61,-1,-1,-1,-1,-1,-1,-1,-1,-1,-1,-1,-1,-1,-1,-1,-1,-1,-1,-1,-1,-1,-1,-1,-1,-1,-1,-1,-1,-1,-1],"loss_changes":[2.1456707E3,7.103431E2,0E0,5.1777344E2,6.0011353E1,5.664246E2,1.0642334E2,6.60629E1,1.0162476E1,3.5078632E2,2.0146118E1,7.307592E1,1.490979E1,1.289396E2,1.3949097E1,7.620239E-1,1.1613403E1,6.5030396E1,2.3185803E2,0E0,1.550708E1,2.0859126E2,1.317755E2,1.6940002E0,5.4278393E1,1.2451935E1,8.36051E1,1.1475281E1,8.689614E0,2.9986572E-1,6.71099E0,2.3991192E1,1.7106903E1,0E0,0E0,0E0,0E0,0E0,0E0,0E0,0E0,0E0,0E0,0E0,0E0,0E0,0E0,0E0,0E0,0E0,0E0,0E0,0E0,0E0,0E0,0E0,0E0,0E0,0E0,0E0,0E0,0E0,0E0],"parents":[2147483647,0,0,1,1,3,3,4,4,5,5,6,6,7,7,8,8,9,9,10,10,11,11,12,12,13,13,14,14,15,15,16,16,17,17,18,18,20,20,21,21,22,22,23,23,24,24,25,25,26,26,27,27,28,28,29,29,30,30,31,31,32,32],"right_children":[2,4,-1,6,8,10,12,14,16,18,20,22,24,26,28,30,32,34,36,-1,38,40,42,44,46,48,50,52,54,56,58,60,62,-1,-1,-1,-1,-1,-1,-1,-1,-1,-1,-1,-1,-1,-1,-1,-1,-1,-1,-1,-1,-1,-1,-1,-1,-1,-1,-1,-1,-1,-1],"split_conditions":[1.6E1,9.8E0,-6.702524E-2,5.7E0,1.19E1,7E0,6.7E0,3.9E1,7.2727275E-1,5.882353E-1,1.7673048E-1,1.79E1,1.92E1,5.263158E-1,1.62E1,7E0,5.2341667E1,2.6E0,2E0,8.441406E-2,6.409167E1,1.74E1,1.92E1,3E0,6.52E1,7E0,1E0,2E0,1.09E1,3.6E1,3E1,1.8E1,6.2458332E1,-1.4370153E-2,4.9501404E-2,2.122978E-2,-4.5864858E-2,-6.563346E-2,8.585727E-2,6.5929905E-2,-7.269832E-2,8.614654E-2,-4.4452064E-2,8.368611E-2,-5.9935236E-3,7.768595E-2,-7.003198E-2,7.772668E-2,-9.671594E-3,6.1832923E-2,-2.8012795E-2,8.15559E-2,5.637738E-2,7.055142E-2,-1.0115485E-2,2.5479285E-2,8.36872E-2,-3.645939E-2,8.348442E-2,7.029381E-2,-7.409481E-2,8.19431E-2,5.145523E-2],"split_indices":[5,15,0,14,15,5,15,4,12,12,12,14,14,12,14,5,0,15,7,0,0,14,14,10,1,5,7,10,15,13,4,4,0,0,0,0,0,0,0,0,0,0,0,0,0,0,0,0,0,0,0,0,0,0,0,0,0,0,0,0,0,0,0],"split_type":[0,0,0,0,0,0,0,0,0,0,0,0,0,0,0,0,0,0,0,0,0,0,0,0,0,0,0,0,0,0,0,0,0,0,0,0,0,0,0,0,0,0,0,0,0,0,0,0,0,0,0,0,0,0,0,0,0,0,0,0,0,0,0],"sum_hessian":[1.3904533E4,1.0395404E4,3.5091282E3,7.018154E3,3.377251E3,5.2780845E3,1.7400691E3,1.7315028E3,1.645748E3,3.8467886E3,1.431296E3,8.708041E2,8.692651E2,8.9025116E2,8.4125165E2,8.149192E2,8.3082886E2,1.7339977E3,2.112791E3,8.275364E0,1.4230206E3,4.325286E2,4.3827545E2,7.144814E2,1.5478366E2,3.7262573E2,5.176254E2,7.852367E2,5.6014973E1,7.868222E2,2.8096987E1,4.7937134E1,7.828917E2,1.7713646E2,1.5568612E3,8.869198E2,1.2258712E3,1.4170459E3,5.974812E0,2.2256317E2,2.0996542E2,3.3898105E2,9.9294395E1,7.1249835E2,1.9830508E0,1.24598145E2,3.0185513E1,3.5576202E2,1.686372E1,1.4183481E2,3.7579065E2,4.7064392E2,3.1459274E2,2.0046404E1,3.5968567E1,1.9551513E0,7.8486707E2,5.18451E0,2.2912477E1,3.0894476E1,1.7042656E1,4.6539432E2,3.174974E2],"tree_param":{"num_deleted":"0","num_feature":"17","num_nodes":"63","size_leaf_vector":"1"}},{"base_weights":[4.8299255E-3,2.9513565E-1,-4.6284088E-1,4.457967E-1,-3.544714E-1,-5.691886E-1,9.4517656E-2,-1.11578755E-1,5.655357E-1,-5.361373E-1,-1.8431704E-1,7.335648E-1,-5.8457947E-1,8.264607E-1,-2.4183902E-1,-2.3901497E-1,6.2602067E-1,6.6621727E-1,-1.17035754E-1,-5.761667E-1,3.1658662E-3,-3.958154E-1,1.1710278E-1,8.389683E-1,2.9308684E-2,-4.0701517E-1,-6.280716E-1,9.703906E-1,-6.0714778E-2,-6.3149884E-2,3.2474804E-1,-5.2472806E-1,-1.2146154E-1,8.343063E-1,-3.023879E-1,7.050709E-1,-5.0040686E-1,1.7978702E-1,-3.1589493E-1,-6.185565E-1,-4.6812665E-1,-3.5185683E-1,9.128841E-2,-5.4740965E-1,9.799757E-2,4.699693E-1,-6.377192E-1,8.7966657E-1,-3.477096E-2,-6.2793136E-2,7.3052905E-2,2.852468E-1,-5.2032816E-1,-4.2913902E-1,-6.334742E-2,5.3172535E-1,9.768807E-2,-1.7155088E-1,9.592268E-2,-6.2187392E-2,-4.12032E-2,3.7310112E-2,-2.0548612E-2,-5.5358715E-2,8.8031314E-2,-6.0998082E-2,3.8141116E-2,7.788155E-2,3.0867532E-2,-6.0924977E-2,8.77292E-3,8.287116E-3,9.9942885E-2,-5.5039484E-2,-3.7008822E-3,-6.234625E-2,-1.9262964E-2,-5.9002664E-2,-2.2086605E-2,-5.880474E-2,2.3209438E-2,-5.7601113E-2,1.1154133E-1,-5.78159E-2,6.9279335E-2,6.510433E-2,-2.8284702E-2,-6.570111E-2,-3.820538E-2,5.000014E-2,9.6356936E-2,7.272159E-2,-4.9639083E-2,-6.367648E-2,3.5961103E-2,3.6128864E-2,-6.1189182E-2,8.1554055E-2,-1.3709365E-2,7.820663E-2,-5.426994E-2],"categories":[],"categories_nodes":[],"categories_segments":[],"categories_sizes":[],"default_left":[0,0,0,0,0,0,0,0,0,0,0,0,0,0,0,0,0,0,0,0,0,0,0,0,0,0,0,0,0,0,0,0,0,0,0,0,0,0,0,0,0,0,0,0,0,0,0,0,0,0,0,0,0,0,0,0,0,0,0,0,0,0,0,0,0,0,0,0,0,0,0,0,0,0,0,0,0,0,0,0,0,0,0,0,0,0,0,0,0,0,0,0,0,0,0,0,0,0,0,0,0],"id":16,"left_children":[1,3,5,7,9,11,13,15,17,19,21,23,25,27,29,31,33,35,37,39,41,43,45,47,49,51,53,55,-1,-1,57,59,61,63,65,67,69,71,73,75,77,79,-1,81,83,85,87,89,-1,-1,-1,91,93,95,-1,97,-1,99,-1,-1,-1,-1,-1,-1,-1,-1,-1,-1,-1,-1,-1,-1,-1,-1,-1,-1,-1,-1,-1,-1,-1,-1,-1,-1,-1,-1,-1,-1,-1,-1,-1,-1,-1,-1,-1,-1,-1,-1,-1,-1,-1],"loss_changes":[1.7254442E3,7.675914E2,2.8856848E2,4.2489612E2,4.5550568E1,8.2389404E1,1.9242581E2,1.06036896E2,3.6018506E2,1.5409363E1,4.8756203E1,3.5512905E0,3.0947998E1,5.1361008E1,1.1848163E2,3.2221897E1,3.2397026E1,2.0734644E2,3.9864983E1,2.7532501E0,1.656947E1,3.368371E1,8.442263E1,2.3277645E0,3.8264768E0,6.2729797E1,3.2143555E0,1.18270874E-1,0E0,0E0,6.911454E1,2.8082275E0,2.8432247E1,9.17366E0,6.7936993E0,1.289607E2,9.512917E0,2.1460508E1,2.6414871E1,8.705139E-1,5.6367073E0,5.227043E0,0E0,1.6996979E1,4.3178833E1,2.9600677E1,2.473259E-1,8.166218E-1,0E0,0E0,0E0,3.9351475E1,7.050807E1,1.3057869E1,0E0,1.1482564E0,0E0,4.4209267E1,0E0,0E0,0E0,0E0,0E0,0E0,0E0,0E0,0E0,0E0,0E0,0E0,0E0,0E0,0E0,0E0,0E0,0E0,0E0,0E0,0E0,0E0,0E0,0E0,0E0,0E0,0E0,0E0,0E0,0E0,0E0,0E0,0E0,0E0,0E0,0E0,0E0,0E0,0E0,0E0,0E0,0E0,0E0],"parents":[2147483647,0,0,1,1,2,2,3,3,4,4,5,5,6,6,7,7,8,8,9,9,10,10,11,11,12,12,13,13,14,14,15,15,16,16,17,17,18,18,19,19,20,20,21,21,22,22,23,23,24,24,25,25,26,26,27,27,30,30,31,31,32,32,33,33,34,34,35,35,36,36,37,37,38,38,39,39,40,40,41,41,43,43,44,44,45,45,46,46,47,47,51,51,52,52,53,53,55,55,57,57],"right_children":[2,4,6,8,10,12,14,16,18,20,22,24,26,28,30,32,34,36,38,40,42,44,46,48,50,52,54,56,-1,-1,58,60,62,64,66,68,70,72,74,76,78,80,-1,82,84,86,88,90,-1,-1,-1,92,94,96,-1,98,-1,100,-1,-1,-1,-1,-1,-1,-1,-1,-1,-1,-1,-1,-1,-1,-1,-1,-1,-1,-1,-1,-1,-1,-1,-1,-1,-1,-1,-1,-1,-1,-1,-1,-1,-1,-1,-1,-1,-1,-1,-1,-1,-1,-1],"split_conditions":[7.3E1,1.09E1,1.74E1,4.33213E-1,6.185567E-1,5.035E1,1.79E1,7E0,6.1225E1,2.03E1,1E0,1.206E2,7.05E1,2.53E1,1.92E1,2.6200873E-1,1E1,3E0,7.8E0,4E0,7E0,1.2631578E0,2.2E0,3.2432432E0,1.21E2,5.7E0,1.51E1,5.98E1,-6.0714778E-2,-6.3149884E-2,6.52E1,1.9512194E-1,3.2E0,1E0,1.84E1,1.1E1,1.62E1,1E0,1E0,7E0,4.4609666E-1,5.194805E-1,9.128841E-2,7E0,6.23E1,1.28E1,6.6416664E1,4.7E1,-3.477096E-2,-6.2793136E-2,7.3052905E-2,7.2E0,6.465E1,6.715833E1,-6.334742E-2,1.0283334E1,9.768807E-2,5.7675E1,9.592268E-2,-6.2187392E-2,-4.12032E-2,3.7310112E-2,-2.0548612E-2,-5.5358715E-2,8.8031314E-2,-6.0998082E-2,3.8141116E-2,7.788155E-2,3.0867532E-2,-6.0924977E-2,8.77292E-3,8.287116E-3,9.9942885E-2,-5.5039484E-2,-3.7008822E-3,-6.234625E-2,-1.9262964E-2,-5.9002664E-2,-2.2086605E-2,-5.880474E-2,2.3209438E-2,-5.7601113E-2,1.1154133E-1,-5.78159E-2,6.9279335E-2,6.510433E-2,-2.8284702E-2,-6.570111E-2,-3.820538E-2,5.000014E-2,9.6356936E-2,7.272159E-2,-4.9639083E-2,-6.367648E-2,3.5961103E-2,3.6128864E-2,-6.1189182E-2,8.1554055E-2,-1.3709365E-2,7.820663E-2,-5.426994E-2],"split_indices":[4,15,14,12,12,0,14,5,0,3,7,11,1,3,14,12,5,12,15,7,5,12,14,12,11,14,3,1,0,0,1,12,15,8,3,8,14,10,10,5,12,12,0,5,0,15,0,11,0,0,0,15,0,0,0,2,0,0,0,0,0,0,0,0,0,0,0,0,0,0,0,0,0,0,0,0,0,0,0,0,0,0,0,0,0,0,0,0,0,0,0,0,0,0,0,0,0,0,0,0,0],"split_type":[0,0,0,0,0,0,0,0,0,0,0,0,0,0,0,0,0,0,0,0,0,0,0,0,0,0,0,0,0,0,0,0,0,0,0,0,0,0,0,0,0,0,0,0,0,0,0,0,0,0,0,0,0,0,0,0,0,0,0,0,0,0,0,0,0,0,0,0,0,0,0,0,0,0,0,0,0,0,0,0,0,0,0,0,0,0,0,0,0,0,0,0,0,0,0,0,0,0,0,0,0],"sum_hessian":[1.2706809E4,7.840317E3,4.8664917E3,6.3645283E3,1.4757886E3,4.0867012E3,7.797907E2,1.1254977E3,5.2390303E3,7.127101E2,7.6307855E2,4.717227E1,4.0395288E3,2.4506017E2,5.347306E2,9.602668E2,1.6523085E2,4.565612E3,6.734187E2,6.634013E2,4.93088E1,4.482442E2,3.1483432E2,4.0864887E1,6.3073835E0,7.968018E2,3.242727E3,2.2299524E2,2.2064926E1,3.1676602E2,2.1796455E2,2.7891104E2,6.813558E2,1.3503706E2,3.0193792E1,4.418841E3,1.4677083E2,2.702026E2,4.032161E2,4.7306686E2,1.9033444E2,3.590852E1,1.3400279E1,3.4287686E2,1.0536733E2,2.147975E2,1.0003683E2,3.9759995E1,1.1048937E0,3.3097432E0,2.9976406E0,1.11865524E2,6.849363E2,8.7864975E1,3.154862E3,4.460149E0,2.185351E2,1.2270918E2,9.525537E1,1.4736328E2,1.3154776E2,9.844939E1,5.829064E2,3.9786925E0,1.3105836E2,2.0900213E1,9.293579E0,3.7249028E3,6.9393805E2,1.23820244E2,2.2950584E1,2.4261633E2,2.758627E1,2.1850975E2,1.8470633E2,4.672214E2,5.845456E0,1.2655589E2,6.377854E1,2.5562323E1,1.0346197E1,3.3772147E2,5.1553974E0,4.932418E1,5.604315E1,1.7325894E2,4.153857E1,9.155825E1,8.47858E0,8.455889E0,3.1304106E1,7.150395E1,4.036157E1,6.051386E2,7.979769E1,1.6316639E1,7.154834E1,2.9773345E0,1.4828143E0,3.4068222E1,8.864096E1],"tree_param":{"num_deleted":"0","num_feature":"17","num_nodes":"101","size_leaf_vector":"1"}},{"base_weights":[-1.2259741E-2,-6.1349905E-1,9.361088E-2,-6.137513E-1,-1.1985204E-1,-5.7611465E-1,-6.173518E-1,-4.781885E-2,5.738888E-2,-5.9898555E-2,-3.50319E-1,-6.1878275E-2,-5.309489E-1,-1.3664556E-1,-6.083106E-2,4.6860537E-1,-5.548875E-1,4.3089975E-2,-6.0407396E-2,-3.3177096E-2,1.00728154E-1,-5.7048183E-2,-1.0925455E-3],"categories":[],"categories_nodes":[],"categories_segments":[],"categories_sizes":[],"default_left":[0,0,0,0,0,0,0,0,0,0,0,0,0,0,0,0,0,0,0,0,0,0,0],"id":17,"left_children":[1,3,-1,5,7,9,11,-1,-1,-1,13,-1,15,17,-1,19,21,-1,-1,-1,-1,-1,-1],"loss_changes":[6.7778716E3,8.3203125E-1,0E0,6.298828E-1,1.50683E0,3.1458588E0,4.8999023E-1,0E0,0E0,0E0,3.344296E0,0E0,3.0100365E0,9.62435E0,0E0,1.7268834E0,9.4976044E-1,0E0,0E0,0E0,0E0,0E0,0E0],"parents":[2147483647,0,0,1,1,3,3,4,4,5,5,6,6,10,10,12,12,13,13,15,15,16,16],"right_children":[2,4,-1,6,8,10,12,-1,-1,-1,14,-1,16,18,-1,20,22,-1,-1,-1,-1,-1,-1],"split_conditions":[1.6E1,1.7683332E1,9.361088E-2,2.2E0,2.26E0,1.1E1,3.982E1,-4.781885E-2,5.738888E-2,-5.9898555E-2,1.2E1,-6.1878275E-2,5.88E1,2.09E0,-6.083106E-2,4.45E1,2.25E1,4.3089975E-2,-6.0407396E-2,-3.3177096E-2,1.00728154E-1,-5.7048183E-2,-1.0925455E-3],"split_indices":[5,2,0,15,6,5,6,0,0,0,7,0,1,6,0,13,3,0,0,0,0,0,0],"split_type":[0,0,0,0,0,0,0,0,0,0,0,0,0,0,0,0,0,0,0,0,0,0,0],"sum_hessian":[1.1884898E4,7.27384E3,4.611059E3,7.2698823E3,3.9575195E0,6.4880774E2,6.621074E3,2.8144748E0,1.1430447E0,5.876334E2,6.1174335E1,6.5071455E3,1.1392902E2,3.4297855E1,2.687648E1,2.2302377E0,1.11698784E2,1.5525342E1,1.8772516E1,1.0516999E0,1.178538E0,1.0853844E2,3.1603527E0],"tree_param":{"num_deleted":"0","num_feature":"17","num_nodes":"23","size_leaf_vector":"1"}},{"base_weights":[7.0968117E-3,2.2246945E-1,-6.511598E-2,5.182964E-2,5.733603E-1,-2.1144761E-1,2.8926772E-1,4.0020105E-1,6.7007786E-1,3.923485E-1,-4.065092E-1,-4.210181E-1,3.8264194E-1,1.8920477E-1,6.5947074E-1,7.5142235E-1,5.914095E-1,7.4511015E-1,1.4161007E-1,-4.74825E-1,9.1660714E-1,-5.6085753E-1,5.688501E-1,4.5345196E-1,-2.9112354E-1,5.482219E-1,-2.5717592E-1,7.4169886E-1,4.7425148E-1,7.718906E-1,3.4543586E-1,1.7343336E-1,6.2583715E-1,8.326178E-2,5.5463225E-2,-3.87742E-2,3.8160514E-2,-6.0654273E-3,-5.505689E-2,1.2430127E-2,9.322001E-2,1.0054705E-1,-5.9689697E-2,-7.003968E-2,7.3719874E-2,2.1949768E-2,6.569003E-2,-6.569201E-2,2.1411713E-2,6.231601E-2,-3.9736845E-2,-4.545113E-2,8.821217E-2,7.737779E-2,4.0814985E-2,7.974404E-2,3.2480966E-2,4.3480184E-2,7.81114E-2,-3.2003563E-2,8.0075525E-2,6.2269013E-2,-6.2563024E-2,7.453825E-2,4.4560373E-2],"categories":[],"categories_nodes":[],"categories_segments":[],"categories_sizes":[],"default_left":[0,0,0,0,0,0,0,0,0,0,0,0,0,0,0,0,0,0,0,0,0,0,0,0,0,0,0,0,0,0,0,0,0,0,0,0,0,0,0,0,0,0,0,0,0,0,0,0,0,0,0,0,0,0,0,0,0,0,0,0,0,0,0,0,0],"id":18,"left_children":[1,3,-1,5,7,9,11,13,15,17,19,21,23,25,27,29,31,33,35,37,39,41,43,45,47,49,51,53,55,57,59,61,63,-1,-1,-1,-1,-1,-1,-1,-1,-1,-1,-1,-1,-1,-1,-1,-1,-1,-1,-1,-1,-1,-1,-1,-1,-1,-1,-1,-1,-1,-1,-1,-1],"loss_changes":[1.9061974E3,6.065691E2,0E0,4.2622354E2,5.524402E1,3.809714E2,2.3792468E2,6.499454E1,1.3155762E1,6.977127E1,2.2137607E2,5.804126E1,1.5132129E2,1.0554058E2,7.776428E0,8.385193E0,1.55060425E1,5.0052643E0,5.8970154E1,7.290271E1,1.3709946E0,2.125425E1,1.16518955E1,1.3636505E2,5.5951443E1,2.6099976E1,6.646608E1,3.619934E0,7.7999E0,2.739624E0,1.5946356E1,3.0529558E1,2.1260101E1,0E0,0E0,0E0,0E0,0E0,0E0,0E0,0E0,0E0,0E0,0E0,0E0,0E0,0E0,0E0,0E0,0E0,0E0,0E0,0E0,0E0,0E0,0E0,0E0,0E0,0E0,0E0,0E0,0E0,0E0,0E0,0E0],"parents":[2147483647,0,0,1,1,3,3,4,4,5,5,6,6,7,7,8,8,9,9,10,10,11,11,12,12,13,13,14,14,15,15,16,16,17,17,18,18,19,19,20,20,21,21,22,22,23,23,24,24,25,25,26,26,27,27,28,28,29,29,30,30,31,31,32,32],"right_children":[2,4,-1,6,8,10,12,14,16,18,20,22,24,26,28,30,32,34,36,38,40,42,44,46,48,50,52,54,56,58,60,62,64,-1,-1,-1,-1,-1,-1,-1,-1,-1,-1,-1,-1,-1,-1,-1,-1,-1,-1,-1,-1,-1,-1,-1,-1,-1,-1,-1,-1,-1,-1,-1,-1],"split_conditions":[1.6E1,9.8E0,-6.511598E-2,4.1E1,1.13E1,4.33213E-1,2.7E0,4E1,7.3619634E-1,1.3E1,2.9268293E0,2.857143E0,1E0,6.896552E-1,2E0,7E0,5.2875E1,3.5190615E-1,3.43E0,1.3E1,3.1E0,3.0226701E-1,5.4075E1,6.4E0,8.3E0,7E0,2.7906976E0,6.5183334E1,5.882353E-1,3.15E0,1E1,4.74E1,6.215E1,8.326178E-2,5.5463225E-2,-3.87742E-2,3.8160514E-2,-6.0654273E-3,-5.505689E-2,1.2430127E-2,9.322001E-2,1.0054705E-1,-5.9689697E-2,-7.003968E-2,7.3719874E-2,2.1949768E-2,6.569003E-2,-6.569201E-2,2.1411713E-2,6.231601E-2,-3.9736845E-2,-4.545113E-2,8.821217E-2,7.737779E-2,4.0814985E-2,7.974404E-2,3.2480966E-2,4.3480184E-2,7.81114E-2,-3.2003563E-2,8.0075525E-2,6.2269013E-2,-6.2563024E-2,7.453825E-2,4.4560373E-2],"split_indices":[5,15,0,4,15,12,15,4,12,4,12,12,10,12,10,5,0,12,6,4,15,12,0,15,15,5,12,0,12,6,5,11,0,0,0,0,0,0,0,0,0,0,0,0,0,0,0,0,0,0,0,0,0,0,0,0,0,0,0,0,0,0,0,0,0],"split_type":[0,0,0,0,0,0,0,0,0,0,0,0,0,0,0,0,0,0,0,0,0,0,0,0,0,0,0,0,0,0,0,0,0,0,0,0,0,0,0,0,0,0,0,0,0,0,0,0,0,0,0,0,0,0,0,0,0,0,0,0,0,0,0,0,0],"sum_hessian":[1.3443641E4,1.0129927E4,3.3137131E3,6.816285E3,3.3136423E3,3.2323188E3,3.5839663E3,1.1893733E3,2.124269E3,7.890065E2,2.4433123E3,4.1599988E2,3.1679663E3,6.5668567E2,5.326876E2,1.0401665E3,1.0841024E3,3.2699228E2,4.6201416E2,2.3239614E3,1.1935083E2,3.6488562E2,5.111427E1,2.8669849E3,3.009814E2,3.6383258E2,2.9285306E2,3.6682925E2,1.6585838E2,9.8938446E2,5.0782112E1,8.2958954E1,1.00114343E3,2.2174776E2,1.0524454E2,1.4393161E2,3.1808255E2,3.595776E2,1.9643839E3,2.476702E0,1.1687413E2,7.601775E0,3.5728384E2,5.6156044E0,4.5498665E1,1.3344829E3,1.532502E3,1.744086E2,1.2657282E2,3.37432E2,2.6400572E1,2.5012968E2,4.2723385E1,3.3344083E2,3.3388416E1,5.1071957E1,1.1478642E2,2.7632683E1,9.617518E2,2.075085E1,3.0031261E1,5.324423E1,2.9714725E1,6.000236E2,4.0111984E2],"tree_param":{"num_deleted":"0","num_feature":"17","num_nodes":"65","size_leaf_vector":"1"}},{"base_weights":[6.1138966E-3,2.7023295E-1,-4.5965523E-1,-1.9359556E-1,4.1898635E-1,-5.8308166E-1,-3.15851E-2,-2.563088E-1,9.129082E-1,-1.6721931E-1,5.583037E-1,6.0965014E-1,-6.004145E-1,-2.9013878E-1,1.6471131E-1,-4.356587E-1,-1.4347574E-1,1.0002408E0,-5.4270096E-2,-4.4297922E-1,1.087817E-1,6.1537325E-1,-2.6004934E-1,7.546827E-1,-5.3076923E-2,-5.057661E-1,-6.1945777E-2,-3.6779928E-1,3.3754024E-1,5.0997943E-2,8.8560365E-2,-3.283996E-1,-5.924696E-1,-9.657753E-2,-6.538351E-2,1.03389695E-1,4.794058E-1,-5.275938E-1,-2.4983013E-1,1.0366966E0,-1.7482157E-1,7.68985E-1,4.5790696E-1,-6.163418E-1,3.4294966E-1,8.5712975E-1,-8.3428465E-2,3.4269035E-1,-6.236569E-2,2.5194941E-2,-5.20112E-1,8.463077E-1,-5.8609664E-2,2.78077E-1,-6.191782E-2,-5.694121E-2,-1.825223E-2,-5.086855E-2,-6.2000643E-2,-1.6402168E-2,4.0101286E-2,-5.0769318E-2,8.68155E-2,-4.3842044E-2,-6.1548162E-2,-3.770238E-2,3.4499906E-3,1.4695226E-1,8.335354E-2,-5.2534666E-2,2.162093E-3,4.923849E-2,8.806258E-2,-1.2575596E-2,5.1566776E-2,-6.521808E-2,-5.032323E-2,1.01858296E-1,-1.5614963E-2,-1.2974269E-2,8.968898E-2,-5.9877403E-2,6.0442854E-2,-2.9795269E-2,8.7134995E-2,-1.7405631E-2,9.543531E-2,-3.853028E-2,-6.075576E-2,-5.49807E-3,9.782864E-2,-1.707683E-2,9.006274E-2],"categories":[],"categories_nodes":[],"categories_segments":[],"categories_sizes":[],"default_left":[0,0,0,0,0,0,0,0,0,0,0,0,0,0,0,0,0,0,0,0,0,0,0,0,0,0,0,0,0,0,0,0,0,0,0,0,0,0,0,0,0,0,0,0,0,0,0,0,0,0,0,0,0,0,0,0,0,0,0,0,0,0,0,0,0,0,0,0,0,0,0,0,0,0,0,0,0,0,0,0,0,0,0,0,0,0,0,0,0,0,0,0,0],"id":19,"left_children":[1,3,5,7,9,11,13,15,17,19,21,23,25,27,29,31,33,35,-1,37,39,41,43,45,-1,47,-1,49,51,53,-1,55,57,59,-1,-1,61,63,65,67,69,71,73,75,77,79,81,83,-1,85,87,89,-1,91,-1,-1,-1,-1,-1,-1,-1,-1,-1,-1,-1,-1,-1,-1,-1,-1,-1,-1,-1,-1,-1,-1,-1,-1,-1,-1,-1,-1,-1,-1,-1,-1,-1,-1,-1,-1,-1,-1,-1],"loss_changes":[1.5161517E3,5.427191E2,2.3561621E2,1.3280725E2,4.86453E2,7.1930176E1,5.075904E1,3.654135E1,1.3597237E1,8.714257E1,2.2489282E2,8.683762E0,5.8375244E0,2.1161343E1,4.656634E1,1.1545639E1,2.6547218E1,1.2087479E0,0E0,9.226448E0,1.5089644E2,1.08462036E2,6.7758026E1,3.9218197E0,0E0,5.793306E1,0E0,2.3030304E1,2.3070227E1,7.5075935E1,0E0,1.4547985E1,3.3586884E-1,3.4275925E1,0E0,0E0,3.420937E0,2.843727E0,6.39005E0,1.0576691E1,3.02747E1,6.983899E1,7.5038055E1,4.7437286E-1,3.9751987E1,1.6877422E0,2.4163864E0,2.4320637E1,0E0,2.0227247E1,3.0333252E0,3.7870998E0,0E0,1.0307294E2,0E0,0E0,0E0,0E0,0E0,0E0,0E0,0E0,0E0,0E0,0E0,0E0,0E0,0E0,0E0,0E0,0E0,0E0,0E0,0E0,0E0,0E0,0E0,0E0,0E0,0E0,0E0,0E0,0E0,0E0,0E0,0E0,0E0,0E0,0E0,0E0,0E0,0E0,0E0],"parents":[2147483647,0,0,1,1,2,2,3,3,4,4,5,5,6,6,7,7,8,8,9,9,10,10,11,11,12,12,13,13,14,14,15,15,16,16,17,17,19,19,20,20,21,21,22,22,23,23,25,25,27,27,28,28,29,29,31,31,32,32,33,33,36,36,37,37,38,38,39,39,40,40,41,41,42,42,43,43,44,44,45,45,46,46,47,47,49,49,50,50,51,51,53,53],"right_children":[2,4,6,8,10,12,14,16,18,20,22,24,26,28,30,32,34,36,-1,38,40,42,44,46,-1,48,-1,50,52,54,-1,56,58,60,-1,-1,62,64,66,68,70,72,74,76,78,80,82,84,-1,86,88,90,-1,92,-1,-1,-1,-1,-1,-1,-1,-1,-1,-1,-1,-1,-1,-1,-1,-1,-1,-1,-1,-1,-1,-1,-1,-1,-1,-1,-1,-1,-1,-1,-1,-1,-1,-1,-1,-1,-1,-1,-1],"split_conditions":[7.6E1,1E0,1.62E1,7E0,4.33213E-1,5.0658333E1,6.4541664E1,6E-1,1E1,1E0,6.2E0,6.2E0,1.568E2,1E0,1.88E1,6.1716667E1,2.7272727E0,3.982E1,-5.4270096E-2,3.5190615E-1,4.03E0,3.52E0,1.74E1,1.206E2,-5.3076923E-2,5.7E0,-6.1945777E-2,5.7183334E1,1.73E1,1.79E1,8.8560365E-2,1E1,6.2458332E1,1.3186814E0,-6.538351E-2,1.03389695E-1,1E1,4.9308334E1,1.1616667E1,7E0,2.8301886E-1,1E0,4.86E1,5.59E1,1.79E1,2.2E0,1.21E2,3.9E0,-6.236569E-2,1.92E1,5.7891666E1,9.97E1,-5.8609664E-2,1.74E1,-6.191782E-2,-5.694121E-2,-1.825223E-2,-5.086855E-2,-6.2000643E-2,-1.6402168E-2,4.0101286E-2,-5.0769318E-2,8.68155E-2,-4.3842044E-2,-6.1548162E-2,-3.770238E-2,3.4499906E-3,1.4695226E-1,8.335354E-2,-5.2534666E-2,2.162093E-3,4.923849E-2,8.806258E-2,-1.2575596E-2,5.1566776E-2,-6.521808E-2,-5.032323E-2,1.01858296E-1,-1.5614963E-2,-1.2974269E-2,8.968898E-2,-5.9877403E-2,6.0442854E-2,-2.9795269E-2,8.7134995E-2,-1.7405631E-2,9.543531E-2,-3.853028E-2,-6.075576E-2,-5.49807E-3,9.782864E-2,-1.707683E-2,9.006274E-2],"split_indices":[4,7,14,5,12,0,0,12,5,8,14,14,11,8,14,0,12,6,0,12,6,6,14,11,0,14,0,0,3,14,0,8,0,12,0,0,8,0,2,5,12,8,11,13,14,14,11,14,0,14,0,11,0,14,0,0,0,0,0,0,0,0,0,0,0,0,0,0,0,0,0,0,0,0,0,0,0,0,0,0,0,0,0,0,0,0,0,0,0,0,0,0,0],"split_type":[0,0,0,0,0,0,0,0,0,0,0,0,0,0,0,0,0,0,0,0,0,0,0,0,0,0,0,0,0,0,0,0,0,0,0,0,0,0,0,0,0,0,0,0,0,0,0,0,0,0,0,0,0,0,0,0,0,0,0,0,0,0,0,0,0,0,0,0,0,0,0,0,0,0,0,0,0,0,0,0,0,0,0,0,0,0,0,0,0,0,0,0,0],"sum_hessian":[1.2322574E4,7.863766E3,4.4588076E3,1.9094868E3,5.9542793E3,3.4606333E3,9.981744E2,1.8077949E3,1.0169188E2,1.1433223E3,4.810957E3,4.9080444E1,3.411553E3,4.305687E2,5.676057E2,6.970159E2,1.110779E3,9.623111E1,5.460767E0,5.716083E2,5.717139E2,4.4975586E3,3.1339862E2,4.3842968E1,5.2374773E0,5.76048E2,2.835505E3,3.835299E2,4.7038773E1,4.911954E2,7.641029E1,4.1574164E2,2.812743E2,1.01838617E3,9.2392845E1,8.946484E1,6.766268E0,3.9627637E2,1.7533194E2,1.3321043E2,4.385035E2,2.2746785E3,2.2228801E3,1.9698465E2,1.16413956E2,3.9047302E1,4.795664E0,7.0043076E1,5.0600488E2,1.0735898E2,2.7617093E2,3.0385326E1,1.6653446E1,3.6731973E2,1.2387567E2,1.556612E2,2.6008044E2,7.4394165E1,2.0688011E2,8.97419E2,1.2096716E2,1.8253738E0,4.9408937E0,1.9967206E2,1.966043E2,1.2091512E2,5.4416813E1,4.0561855E1,9.2648575E1,1.5688649E2,2.81617E2,6.55652E2,1.6190265E3,2.0006633E2,2.0228137E3,1.4596832E2,5.101634E1,4.9017654E1,6.73963E1,1.4245969E0,3.7622704E1,2.815664E0,1.9800001E0,3.1864847E1,3.8178226E1,8.9071014E1,1.8287962E1,1.1078581E2,1.6538512E2,3.9556208E0,2.6429705E1,2.1385826E2,1.5346147E2],"tree_param":{"num_deleted":"0","num_feature":"17","num_nodes":"93","size_leaf_vector":"1"}},{"base_weights":[-1.2367691E-2,-6.0193604E-1,8.728715E-1,-5.656282E-1,-6.054971E-1,1.0438501E-1,8.704916E-2,-5.8042294E-1,-3.9622363E-2,-6.0699797E-1,-5.156165E-1,-5.9189517E-2,-1.8445095E-1,8.9695877E-1,-5.660189E-2,-6.071469E-2,-6.4597526E-3,3.3575982E-1,-5.398854E-1,-3.6079818E-1,8.3163194E-2,1.0745986E-1,4.1836505E-3,-3.2186445E-2,7.1361095E-2,-5.568339E-1,1.4016365E-1,-5.6719303E-2,1.0190915E-2,-6.092998E-2,-3.2909174E-2,-3.716489E-2,6.753101E-2],"categories":[],"categories_nodes":[],"categories_segments":[],"categories_sizes":[],"default_left":[0,0,0,0,0,0,0,0,0,0,0,0,0,0,0,0,0,0,0,0,0,0,0,0,0,0,0,0,0,0,0,0,0],"id":20,"left_children":[1,3,5,7,9,-1,-1,11,13,15,17,-1,19,21,-1,-1,-1,23,25,27,-1,-1,-1,-1,-1,29,31,-1,-1,-1,-1,-1,-1],"loss_changes":[5.9643877E3,5.449219E-1,9.501953E-1,4.8632507E0,5.275879E-1,0E0,0E0,2.6647186E0,9.505309E0,4.555664E-1,2.433569E0,0E0,3.6410995E0,1.0113134E0,0E0,0E0,0E0,1.133604E0,1.304039E0,1.6417592E0,0E0,0E0,0E0,0E0,0E0,1.041954E0,1.1782284E0,0E0,0E0,0E0,0E0,0E0,0E0],"parents":[2147483647,0,0,1,1,2,2,3,3,4,4,7,7,8,8,9,9,10,10,12,12,13,13,17,17,18,18,19,19,25,25,26,26],"right_children":[2,4,6,8,10,-1,-1,12,14,16,18,-1,20,22,-1,-1,-1,24,26,28,-1,-1,-1,-1,-1,30,32,-1,-1,-1,-1,-1,-1],"split_conditions":[1.6E1,2.2E0,7.1E1,6.2E0,3.982E1,1.0438501E-1,8.704916E-2,7.8E1,5.4075E1,1.7683332E1,5.88E1,-5.9189517E-2,1E0,1.9E0,-5.660189E-2,-6.071469E-2,-6.4597526E-3,5.5058334E1,2.25E1,9E1,8.3163194E-2,1.0745986E-1,4.1836505E-3,-3.2186445E-2,7.1361095E-2,8E0,5.9908333E1,-5.6719303E-2,1.0190915E-2,-6.092998E-2,-3.2909174E-2,-3.716489E-2,6.753101E-2],"split_indices":[5,15,4,14,6,0,0,4,0,2,1,0,10,15,0,0,0,0,3,4,0,0,0,0,0,5,0,0,0,0,0,0,0],"split_type":[0,0,0,0,0,0,0,0,0,0,0,0,0,0,0,0,0,0,0,0,0,0,0,0,0,0,0,0,0,0,0,0,0],"sum_hessian":[1.1426016E4,6.8585493E3,4.5674663E3,6.268803E2,6.231669E3,5.6697674E1,4.510769E3,6.0963007E2,1.7250252E1,6.123662E3,1.0800681E2,5.919841E2,1.7645971E1,5.95355E0,1.1296702E1,6.1218623E3,1.7997805E0,2.6377304E0,1.0536909E2,1.5585864E1,2.0601065E0,4.716998E0,1.2365516E0,1.016592E0,1.6211383E0,1.0298366E2,2.3854263E0,1.0622006E1,4.963858E0,8.233942E1,2.0644241E1,1.3754597E0,1.0099665E0],"tree_param":{"num_deleted":"0","num_feature":"17","num_nodes":"33","size_leaf_vector":"1"}},{"base_weights":[7.1922103E-3,2.712477E-1,-5.768974E-1,-3.614699E-1,3.4860268E-1,2.2523184E-1,-6.062756E-1,-4.5951122E-1,7.74823E-2,2.2793502E-1,6.029766E-1,4.0370932E-1,-2.0145087E-1,-6.220508E-1,1.7846516E-1,-6.1304975E-1,-3.3455232E-1,4.0330496E-1,-1.5021007E-1,5.1416385E-1,6.9744813E-1,5.767398E-1,3.5459917E-2,-6.555058E-2,1.5943632E-1,-4.72562E-1,-6.357079E-2,-6.602742E-2,3.235472E-1,-3.4148175E-1,-6.3458735E-1,3.545701E-1,-3.77676E-1,1.8974082E-1,6.120416E-1,-3.7040108E-1,1.7991374E-1,5.3812027E-1,-2.661235E-1,7.482213E-1,5.7560414E-1,6.7056334E-1,-5.9551448E-2,-2.2776097E-1,8.301329E-2,1.2521625E-1,-2.3286651E-1,-5.6376654E-1,3.160357E-1,-7.1665406E-2,4.8146018E-1,-6.244147E-2,2.5783587E-2,-6.756904E-2,-5.4677583E-2,7.0371024E-2,-5.150211E-2,-4.2122312E-2,4.0825613E-2,3.5601772E-2,2.0411927E-3,4.3619625E-2,6.715947E-2,2.9340325E-2,-4.5647398E-2,5.454122E-2,-1.5171271E-4,4.3526318E-2,6.9686726E-2,-6.437608E-2,7.536324E-2,3.3239905E-2,7.498773E-2,6.579112E-2,-1.7601945E-2,5.4704744E-2,1.194006E-1,-4.872916E-2,5.8936663E-2,-6.80205E-2,7.630418E-2,-5.9912033E-2,6.7760646E-3,-4.1770216E-2,6.189781E-2,5.9935283E-2,-4.499505E-2],"categories":[],"categories_nodes":[],"categories_segments":[],"categories_sizes":[],"default_left":[0,0,0,0,0,0,0,0,0,0,0,0,0,0,0,0,0,0,0,0,0,0,0,0,0,0,0,0,0,0,0,0,0,0,0,0,0,0,0,0,0,0,0,0,0,0,0,0,0,0,0,0,0,0,0,0,0,0,0,0,0,0,0,0,0,0,0,0,0,0,0,0,0,0,0,0,0,0,0,0,0,0,0,0,0,0,0],"id":21,"left_children":[1,3,5,7,9,11,13,15,-1,17,19,21,23,25,27,29,31,33,35,37,39,41,43,-1,45,47,-1,-1,49,51,53,55,57,59,61,63,65,67,69,71,73,75,-1,77,-1,-1,79,81,83,-1,85,-1,-1,-1,-1,-1,-1,-1,-1,-1,-1,-1,-1,-1,-1,-1,-1,-1,-1,-1,-1,-1,-1,-1,-1,-1,-1,-1,-1,-1,-1,-1,-1,-1,-1,-1,-1],"loss_changes":[2.0186102E3,4.412738E2,9.615906E1,1.0979907E2,2.4640094E2,1.1100401E1,4.8775635E1,1.7158188E1,0E0,3.614337E2,2.1318787E1,6.501398E0,7.206601E0,7.567383E0,9.734827E0,2.151291E0,1.5026432E1,1.6585406E2,1.2561981E2,2.5107666E1,7.296875E0,8.050913E0,7.256037E0,0E0,1.0988313E1,2.3661606E1,0E0,0E0,1.1412408E1,5.5726395E0,9.802551E-1,9.479463E0,1.632985E1,5.1847E1,1.9419434E1,5.9352844E1,4.587403E1,2.0858978E1,1.6062563E1,3.5559082E-1,2.311367E1,3.5418072E0,0E0,5.8356714E0,0E0,0E0,9.074613E0,6.5827484E0,7.9245176E0,0E0,6.7586355E0,0E0,0E0,0E0,0E0,0E0,0E0,0E0,0E0,0E0,0E0,0E0,0E0,0E0,0E0,0E0,0E0,0E0,0E0,0E0,0E0,0E0,0E0,0E0,0E0,0E0,0E0,0E0,0E0,0E0,0E0,0E0,0E0,0E0,0E0,0E0,0E0],"parents":[2147483647,0,0,1,1,2,2,3,3,4,4,5,5,6,6,7,7,9,9,10,10,11,11,12,12,13,13,14,14,15,15,16,16,17,17,18,18,19,19,20,20,21,21,22,22,24,24,25,25,28,28,29,29,30,30,31,31,32,32,33,33,34,34,35,35,36,36,37,37,38,38,39,39,40,40,41,41,43,43,46,46,47,47,48,48,50,50],"right_children":[2,4,6,8,10,12,14,16,-1,18,20,22,24,26,28,30,32,34,36,38,40,42,44,-1,46,48,-1,-1,50,52,54,56,58,60,62,64,66,68,70,72,74,76,-1,78,-1,-1,80,82,84,-1,86,-1,-1,-1,-1,-1,-1,-1,-1,-1,-1,-1,-1,-1,-1,-1,-1,-1,-1,-1,-1,-1,-1,-1,-1,-1,-1,-1,-1,-1,-1,-1,-1,-1,-1,-1,-1],"split_conditions":[2.23E1,3.1E0,1.3E1,1.79E1,1.06E1,2.5E1,1.1E1,1.5E0,7.74823E-2,1E0,1.23E1,5.8E0,2.57E1,7E0,1.7E0,4.6E1,4.7291668E1,6.6E0,9.3E0,5.56E1,6.2458332E1,6.08E1,3.71E1,-6.555058E-2,2.59E1,4.7E1,-6.357079E-2,-6.602742E-2,2.25E1,1.2541667E1,9E-1,1.5E1,5.7E0,7E0,5.7183334E1,1.3E1,1E0,4.3E1,1.54E1,2E0,1.12E1,5.18E1,-5.9551448E-2,5.86E1,8.301329E-2,1.2521625E-1,6.12E1,1.485E2,6E0,-7.1665406E-2,7E0,-6.244147E-2,2.5783587E-2,-6.756904E-2,-5.4677583E-2,7.0371024E-2,-5.150211E-2,-4.2122312E-2,4.0825613E-2,3.5601772E-2,2.0411927E-3,4.3619625E-2,6.715947E-2,2.9340325E-2,-4.5647398E-2,5.454122E-2,-1.5171271E-4,4.3526318E-2,6.9686726E-2,-6.437608E-2,7.536324E-2,3.3239905E-2,7.498773E-2,6.579112E-2,-1.7601945E-2,5.4704744E-2,1.194006E-1,-4.872916E-2,5.8936663E-2,-6.80205E-2,7.630418E-2,-5.9912033E-2,6.7760646E-3,-4.1770216E-2,6.189781E-2,5.9935283E-2,-4.499505E-2],"split_indices":[3,15,4,14,15,3,8,15,0,10,15,15,3,5,15,11,0,15,15,13,0,1,13,0,3,13,0,0,3,2,15,4,14,5,0,4,8,4,3,5,14,11,0,1,0,0,1,11,5,0,5,0,0,0,0,0,0,0,0,0,0,0,0,0,0,0,0,0,0,0,0,0,0,0,0,0,0,0,0,0,0,0,0,0,0,0,0],"split_type":[0,0,0,0,0,0,0,0,0,0,0,0,0,0,0,0,0,0,0,0,0,0,0,0,0,0,0,0,0,0,0,0,0,0,0,0,0,0,0,0,0,0,0,0,0,0,0,0,0,0,0,0,0,0,0,0,0,0,0,0,0,0,0,0,0,0,0,0,0,0,0,0,0,0,0,0,0,0,0,0,0,0,0,0,0,0,0],"sum_hessian":[1.308612E4,9.012349E3,4.0737717E3,9.814007E2,8.030948E3,1.4369603E2,3.9300757E3,9.039978E2,7.740289E1,5.448319E3,2.5826294E3,1.01354294E2,4.2341736E1,3.8528315E3,7.724396E1,4.0386176E2,5.0013602E2,3.7220847E3,1.7262341E3,1.3345039E3,1.2481256E3,6.8569275E1,3.2785023E1,1.8389002E1,2.3952734E1,3.2550485E2,3.527327E3,1.0867339E1,6.637662E1,3.0914543E1,3.7294724E2,2.9028864E1,4.7110715E2,1.8407113E3,1.8813733E3,1.0354631E3,6.90771E2,1.2950535E3,3.9450516E1,8.773765E2,3.7074905E2,6.3884155E1,4.6851153E0,2.5163473E1,7.6215506E0,5.748619E0,1.8204115E1,2.92017E2,3.348785E1,8.282171E0,5.8094448E1,2.0971972E1,9.942571E0,2.4947672E2,1.2347051E2,2.0848833E1,8.180032E0,4.4681406E2,2.429311E1,9.2816907E2,9.1254224E2,4.7807172E2,1.4033016E3,1.1857672E2,9.168864E2,2.2848146E2,4.6228955E2,7.8813684E2,5.0691656E2,2.9058317E1,1.03921995E1,4.2803426E0,8.730962E2,3.3426932E2,3.6479733E1,5.3342182E1,1.0541974E1,1.9404118E1,5.7593536E0,1.2780443E1,5.423672E0,2.765847E2,1.5432297E1,9.67524E0,2.381261E1,5.18838E1,6.2106476E0],"tree_param":{"num_deleted":"0","num_feature":"17","num_nodes":"87","size_leaf_vector":"1"}},{"base_weights":[8.244429E-3,1.9171323E-1,-6.101138E-1,4.917594E-1,1.476251E-2,-7.305973E-2,-6.0729295E-2,5.7055194E-2,7.6210606E-1,-3.4707972E-1,1.2175007E-1,-3.0278328E-1,4.341578E-1,8.4725267E-1,2.3874597E-1,-4.3343893E-1,1.0085882E-1,-1.5066962E-1,2.9723158E-1,-4.6672517E-1,-1.4960517E-1,5.796879E-1,-4.4447163E-1,9.749049E-1,8.280013E-1,-2.2993247E-1,7.088948E-1,-3.4993675E-1,-5.887327E-1,2.0677023E-1,-6.0041767E-2,-2.1341977E-1,9.4574434E-1,4.2856246E-1,-1.4144077E-2,-4.0707603E-2,-6.151789E-2,-5.292442E-2,-1.0683319E-2,2.9016038E-2,7.031783E-2,-1.3687541E-2,-6.185622E-2,1.2237936E-1,8.154446E-2,8.2915895E-2,-3.466856E-2,-3.374457E-2,5.1194485E-2,7.638285E-2,-1.6061937E-2,-4.564892E-2,4.725312E-3,-5.9646275E-2,-2.2845626E-2,1.1796834E-2,8.1263684E-2,-9.15125E-3,-4.03877E-2,9.77225E-2,3.432018E-2,1.3123457E-2,5.563414E-2,-2.9587453E-2,3.804469E-2],"categories":[],"categories_nodes":[],"categories_segments":[],"categories_sizes":[],"default_left":[0,0,0,0,0,0,0,0,0,0,0,0,0,0,0,0,0,0,0,0,0,0,0,0,0,0,0,0,0,0,0,0,0,0,0,0,0,0,0,0,0,0,0,0,0,0,0,0,0,0,0,0,0,0,0,0,0,0,0,0,0,0,0,0,0],"id":22,"left_children":[1,3,5,7,9,-1,-1,11,13,15,17,19,21,23,25,27,29,31,33,35,37,39,41,43,45,47,49,51,53,55,-1,57,59,61,63,-1,-1,-1,-1,-1,-1,-1,-1,-1,-1,-1,-1,-1,-1,-1,-1,-1,-1,-1,-1,-1,-1,-1,-1,-1,-1,-1,-1,-1,-1],"loss_changes":[1.3528279E3,4.882384E2,4.837036E-1,4.0086554E2,2.2401773E2,0E0,0E0,1.7777821E2,9.352283E1,5.112697E1,2.1354279E2,1.6767979E1,8.20481E1,3.637085E0,6.531828E1,1.4152588E1,1.6037304E1,1.20629715E2,1.11098755E2,2.6133118E0,5.59589E0,1.9431763E1,4.812914E0,8.18457E0,2.4334717E0,1.2043879E1,7.185295E0,3.0601288E1,9.379883E-1,9.95886E0,0E0,3.8422974E1,