{"learner":{"attributes":{},"feature_names":["amp_mean","amp_max","snr_mean","snr_max","hit_sum","hit_max","dur_max","n_low","n_med","n_high","n_lhf","fhigh_max","rate","noise","rain","wind","crane"],"feature_types":[],"gradient_booster":{"model":{"cats":{"enc":[],"feature_segments":[],"sorted_idx":[]},"gbtree_model_param":{"num_parallel_tree":"1","num_trees":"900"},"iteration_indptr":[0,3,6,9,12,15,18,21,24,27,30,33,36,39,42,45,48,51,54,57,60,63,66,69,72,75,78,81,84,87,90,93,96,99,102,105,108,111,114,117,120,123,126,129,132,135,138,141,144,147,150,153,156,159,162,165,168,171,174,177,180,183,186,189,192,195,198,201,204,207,210,213,216,219,222,225,228,231,234,237,240,243,246,249,252,255,258,261,264,267,270,273,276,279,282,285,288,291,294,297,300,303,306,309,312,315,318,321,324,327,330,333,336,339,342,345,348,351,354,357,360,363,366,369,372,375,378,381,384,387,390,393,396,399,402,405,408,411,414,417,420,423,426,429,432,435,438,441,444,447,450,453,456,459,462,465,468,471,474,477,480,483,486,489,492,495,498,501,504,507,510,513,516,519,522,525,528,531,534,537,540,543,546,549,552,555,558,561,564,567,570,573,576,579,582,585,588,591,594,597,600,603,606,609,612,615,618,621,624,627,630,633,636,639,642,645,648,651,654,657,660,663,666,669,672,675,678,681,684,687,690,693,696,699,702,705,708,711,714,717,720,723,726,729,732,735,738,741,744,747,750,753,756,759,762,765,768,771,774,777,780,783,786,789,792,795,798,801,804,807,810,813,816,819,822,825,828,831,834,837,840,843,846,849,852,855,858,861,864,867,870,873,876,879,882,885,888,891,894,897,900],"tree_info":[0,1,2,0,1,2,0,1,2,0,1,2,0,1,2,0,1,2,0,1,2,0,1,2,0,1,2,0,1,2,0,1,2,0,1,2,0,1,2,0,1,2,0,1,2,0,1,2,0,1,2,0,1,2,0,1,2,0,1,2,0,1,2,0,1,2,0,1,2,0,1,2,0,1,2,0,1,2,0,1,2,0,1,2,0,1,2,0,1,2,0,1,2,0,1,2,0,1,2,0,1,2,0,1,2,0,1,2,0,1,2,0,1,2,0,1,2,0,1,2,0,1,2,0,1,2,0,1,2,0,1,2,0,1,2,0,1,2,0,1,2,0,1,2,0,1,2,0,1,2,0,1,2,0,1,2,0,1,2,0,1,2,0,1,2,0,1,2,0,1,2,0,1,2,0,1,2,0,1,2,0,1,2,0,1,2,0,1,2,0,1,2,0,1,2,0,1,2,0,1,2,0,1,2,0,1,2,0,1,2,0,1,2,0,1,2,0,1,2,0,1,2,0,1,2,0,1,2,0,1,2,0,1,2,0,1,2,0,1,2,0,1,2,0,1,2,0,1,2,0,1,2,0,1,2,0,1,2,0,1,2,0,1,2,0,1,2,0,1,2,0,1,2,0,1,2,0,1,2,0,1,2,0,1,2,0,1,2,0,1,2,0,1,2,0,1,2,0,1,2,0,1,2,0,1,2,0,1,2,0,1,2,0,1,2,0,1,2,0,1,2,0,1,2,0,1,2,0,1,2,0,1,2,0,1,2,0,1,2,0,1,2,0,1,2,0,1,2,0,1,2,0,1,2,0,1,2,0,1,2,0,1,2,0,1,2,0,1,2,0,1,2,0,1,2,0,1,2,0,1,2,0,1,2,0,1,2,0,1,2,0,1,2,0,1,2,0,1,2,0,1,2,0,1,2,0,1,2,0,1,2,0,1,2,0,1,2,0,1,2,0,1,2,0,1,2,0,1,2,0,1,2,0,1,2,0,1,2,0,1,2,0,1,2,0,1,2,0,1,2,0,1,2,0,1,2,0,1,2,0,1,2,0,1,2,0,1,2,0,1,2,0,1,2,0,1,2,0,1,2,0,1,2,0,1,2,0,1,2,0,1,2,0,1,2,0,1,2,0,1,2,0,1,2,0,1,2,0,1,2,0,1,2,0,1,2,0,1,2,0,1,2,0,1,2,0,1,2,0,1,2,0,1,2,0,1,2,0,1,2,0,1,2,0,1,2,0,1,2,0,1,2,0,1,2,0,1,2,0,1,2,0,1,2,0,1,2,0,1,2,0,1,2,0,1,2,0,1,2,0,1,2,0,1,2,0,1,2,0,1,2,0,1,2,0,1,2,0,1,2,0,1,2,0,1,2,0,1,2,0,1,2,0,1,2,0,1,2,0,1,2,0,1,2,0,1,2,0,1,2,0,1,2,0,1,2,0,1,2,0,1,2,0,1,2,0,1,2,0,1,2,0,1,2,0,1,2,0,1,2,0,1,2,0,1,2,0,1,2,0,1,2,0,1,2,0,1,2,0,1,2,0,1,2,0,1,2,0,1,2,0,1,2,0,1,2,0,1,2,0,1,2,0,1,2,0,1,2,0,1,2,0,1,2,0,1,2,0,1,2,0,1,2,0,1,2,0,1,2,0,1,2,0,1,2,0,1,2,0,1,2,0,1,2,0,1,2,0,1,2,0,1,2,0,1,2,0,1,2,0,1,2,0,1,2,0,1,2,0,1,2,0,1,2,0,1,2,0,1,2,0,1,2,0,1,2,0,1,2,0,1,2,0,1,2,0,1,2,0,1,2,0,1,2,0,1,2,0,1,2,0,1,2,0,1,2,0,1,2,0,1,2,0,1,2,0,1,2,0,1,2,0,1,2,0,1,2,0,1,2,0,1,2,0,1,2,0,1,2,0,1,2,0,1,2,0,1,2,0,1,2,0,1,2,0,1,2,0,1,2,0,1,2,0,1,2,0,1,2,0,1,2,0,1,2,0,1,2,0,1,2,0,1,2,0,1,2,0,1,2],"trees":[{"base_weights":[6.87274E-4,4.7859848E-1,-7.2210586E-1,2.1275629E-1,1.1589891E0,1.9616038E-1,-7.666347E-1,8.759519E-1,1.0738008E-2,8.9165026E-1,1.3231512E0,8.3635336E-1,-4.0013734E-1,1.2672403E-1,-7.706688E-1,1.00462E0,-4.0186176E-1,-3.0619657E-1,3.947933E-1,1.0549996E0,-4.1351017E-1,1.1475356E0,1.3628012E0,4.0757498E-1,1.0760132E0,1.1163919E0,-5.410833E-1,-7.7259433E-1,2.332577E-1,-2.7347565E-1,1.0469681E0,-6.903003E-1,1.1442052E0,-3.851646E-1,1.2612294E0,-5.2589685E-1,5.496148E-1,1.1787364E0,2.1425016E-1,-7.727277E-2,8.718089E-1,1.3195221E0,9.5048684E-1,3.8530674E-2,1.3635634E-1,1.2038822E0,-6.76473E-2,-1.0792995E-1,1.145334E0,-3.4272426E-3,1.2622964E-1,-6.036816E-1,1.11746155E-1,8.992081E-2,-7.732994E-1,1.1395895E-1,-5.271721E-1,-7.0334025E-2,1.596422E-2,1.0941571E-1,3.9256204E-2,1.0185716E-1,-7.403153E-2,-2.4286443E-2,1.317063E-1,-4.8144754E-2,3.240053E-2,1.3334909E-1,4.0558815E-2,-1.0239419E-2,-6.8861134E-2,7.590616E-2,-3.2890156E-2,9.555966E-2,1.347939E-1,-7.68495E-2,1.2685168E-1,1.0011333E-1,-2.4286443E-2,1.3379137E-1,3.4913555E-2,7.346086E-2,1.3026647E-1,1.3058172E-1,-3.4272426E-3,1.0185716E-1,-2.0578941E-2,8.0488585E-2,-5.969842E-2,1.2054735E-1,3.9596424E-2,-1.2738967E-2,-7.632819E-2,-2.3017025E-2,-7.755738E-2,-3.4272426E-3,-6.425811E-2],"categories":[],"categories_nodes":[],"categories_segments":[],"categories_sizes":[],"default_left":[0,0,0,0,0,0,0,0,0,0,0,0,0,0,0,0,0,0,0,0,0,0,0,0,0,0,0,0,0,0,0,0,0,0,0,0,0,0,0,0,0,0,0,0,0,0,0,0,0,0,0,0,0,0,0,0,0,0,0,0,0,0,0,0,0,0,0,0,0,0,0,0,0,0,0,0,0,0,0,0,0,0,0,0,0,0,0,0,0,0,0,0,0,0,0,0,0],"id":0,"left_children":[1,3,5,7,9,11,13,15,17,19,21,23,25,-1,27,29,31,33,35,37,39,41,43,45,47,49,51,53,55,57,59,61,63,65,67,69,71,73,75,-1,77,79,81,-1,-1,83,85,87,89,-1,-1,91,-1,-1,93,-1,95,-1,-1,-1,-1,-1,-1,-1,-1,-1,-1,-1,-1,-1,-1,-1,-1,-1,-1,-1,-1,-1,-1,-1,-1,-1,-1,-1,-1,-1,-1,-1,-1,-1,-1,-1,-1,-1,-1,-1,-1],"loss_changes":[5.1608193E3,1.6264907E3,2.4330273E2,8.665737E2,1.09701416E2,1.0562912E2,4.7512695E1,2.4870532E2,6.0371924E2,2.0601501E2,9.321289E0,1.3263557E1,3.1273584E1,0E0,1.1123535E1,7.456482E1,6.2719585E1,3.3683856E2,3.199371E2,8.8932556E1,5.052826E1,8.718445E0,4.206543E-1,1.8781933E1,7.093361E0,2.1465273E0,1.4374577E1,7.3564453E0,8.599366E0,8.454313E0,4.0597046E1,1.081052E1,5.645359E0,1.7685669E2,7.5324554E0,2.2209358E1,3.5356274E2,2.691858E1,1.1619277E2,0E0,3.7108707E0,2.2911987E0,9.74144E0,0E0,0E0,2.3824806E0,4.9954786E0,2.9854074E0,3.142067E0,0E0,0E0,9.618126E0,0E0,0E0,6.7993164E0,0E0,3.7585855E-1,0E0,0E0,0E0,0E0,0E0,0E0,0E0,0E0,0E0,0E0,0E0,0E0,0E0,0E0,0E0,0E0,0E0,0E0,0E0,0E0,0E0,0E0,0E0,0E0,0E0,0E0,0E0,0E0,0E0,0E0,0E0,0E0,0E0,0E0,0E0,0E0,0E0,0E0,0E0,0E0],"parents":[2147483647,0,0,1,1,2,2,3,3,4,4,5,5,6,6,7,7,8,8,9,9,10,10,11,11,12,12,14,14,15,15,16,16,17,17,18,18,19,19,20,20,21,21,22,22,23,23,24,24,25,25,26,26,27,27,28,28,29,29,30,30,31,31,32,32,33,33,34,34,35,35,36,36,37,37,38,38,40,40,41,41,42,42,45,45,46,46,47,47,48,48,51,51,54,54,56,56],"right_children":[2,4,6,8,10,12,14,16,18,20,22,24,26,-1,28,30,32,34,36,38,40,42,44,46,48,50,52,54,56,58,60,62,64,66,68,70,72,74,76,-1,78,80,82,-1,-1,84,86,88,90,-1,-1,92,-1,-1,94,-1,96,-1,-1,-1,-1,-1,-1,-1,-1,-1,-1,-1,-1,-1,-1,-1,-1,-1,-1,-1,-1,-1,-1,-1,-1,-1,-1,-1,-1,-1,-1,-1,-1,-1,-1,-1,-1,-1,-1,-1,-1],"split_conditions":[2.35E1,1E1,5.25E1,5.2863437E-1,5.4441666E1,7.1005917E-1,2.2018349E-1,7E0,4.1E1,8E0,1.07E1,2.47E1,2.36E1,1.2672403E-1,1.1E1,2.4E0,1E1,3E0,3.6E0,1E0,1.11E1,1E0,5.72E1,1.16E0,1.1E1,5.82E1,1.4E1,1.2E1,1.336E2,1.5E0,3E0,2.5104603E-1,3.1E0,9E0,1E1,7E0,1E0,1.14E1,4E0,-7.727277E-2,5.4545455E0,6.5833336E1,6.2016666E1,3.8530674E-2,1.3635634E-1,6.4171124E-1,4.37E1,5.607477E-1,3.61E0,-3.4272426E-3,1.2622964E-1,8.888889E-1,1.11746155E-1,8.992081E-2,3.960396E-1,1.1395895E-1,1.2966666E1,-7.0334025E-2,1.596422E-2,1.0941571E-1,3.9256204E-2,1.0185716E-1,-7.403153E-2,-2.4286443E-2,1.317063E-1,-4.8144754E-2,3.240053E-2,1.3334909E-1,4.0558815E-2,-1.0239419E-2,-6.8861134E-2,7.590616E-2,-3.2890156E-2,9.555966E-2,1.347939E-1,-7.68495E-2,1.2685168E-1,1.0011333E-1,-2.4286443E-2,1.3379137E-1,3.4913555E-2,7.346086E-2,1.3026647E-1,1.3058172E-1,-3.4272426E-3,1.0185716E-1,-2.0578941E-2,8.0488585E-2,-5.969842E-2,1.2054735E-1,3.9596424E-2,-1.2738967E-2,-7.632819E-2,-2.3017025E-2,-7.755738E-2,-3.4272426E-3,-6.425811E-2],"split_indices":[3,15,11,12,0,12,12,5,4,14,15,3,3,0,8,15,5,12,15,8,14,10,1,6,7,1,4,4,11,15,10,12,15,8,7,5,10,15,6,0,12,0,0,0,0,12,11,12,6,0,0,12,0,0,12,0,2,0,0,0,0,0,0,0,0,0,0,0,0,0,0,0,0,0,0,0,0,0,0,0,0,0,0,0,0,0,0,0,0,0,0,0,0,0,0,0,0],"split_type":[0,0,0,0,0,0,0,0,0,0,0,0,0,0,0,0,0,0,0,0,0,0,0,0,0,0,0,0,0,0,0,0,0,0,0,0,0,0,0,0,0,0,0,0,0,0,0,0,0,0,0,0,0,0,0,0,0,0,0,0,0,0,0,0,0,0,0,0,0,0,0,0,0,0,0,0,0,0,0,0,0,0,0,0,0,0,0,0,0,0,0,0,0,0,0,0,0],"sum_hessian":[1.4938233E4,8.992636E3,5.9455977E3,6.467117E3,2.5255188E3,2.7482364E2,5.670774E3,1.5092245E3,4.9578926E3,9.632661E2,1.5622526E3,1.3233958E2,1.4248407E2,1.0605611E1,5.6601685E3,1.3713516E3,1.3787294E2,2.7164197E3,2.241473E3,8.562878E2,1.0697833E2,2.932682E2,1.2689844E3,4.841692E1,8.392266E1,1.1527838E1,1.3095624E2,5.649563E3,1.0605611E1,4.3805782E1,1.3275458E3,1.1666172E2,2.1211222E1,2.586847E3,1.2957289E2,3.2231836E2,1.9191544E3,7.4608167E2,1.1020613E2,8.392266E1,2.3055676E1,1.535508E2,1.3971739E2,1.3833406E0,1.2676011E3,1.7522314E1,3.0894606E1,4.611135E0,7.931152E1,1.3833406E0,1.0144497E1,1.2680621E2,4.1500216E0,1.844454E0,5.6477183E3,4.611135E0,5.994476E0,2.1672335E1,2.213345E1,1.2376287E3,8.991714E1,2.7666812E0,1.13895035E2,2.3055675E0,1.8905655E1,2.2779006E3,3.0894604E2,1.18967285E2,1.0605611E1,8.991714E1,2.3240121E2,1.5498025E3,3.6935193E2,3.246239E2,4.2145776E2,5.7178074E1,5.3028053E1,2.0750109E1,2.3055675E0,1.50323E2,3.2277946E0,8.85338E1,5.11836E1,1.6138973E1,1.3833406E0,2.7666812E0,2.8127924E1,1.3833406E0,3.2277946E0,7.2855934E1,6.4555893E0,3.2277946E1,9.452827E1,2.3977903E1,5.62374E3,1.3833406E0,4.611135E0],"tree_param":{"num_deleted":"0","num_feature":"17","num_nodes":"97","size_leaf_vector":"1"}},{"base_weights":[-3.4261445E-4,3.837677E-1,-6.6883373E-1,5.9092677E-1,-4.2882186E-1,-2.8416955E-1,-7.5005665E-2,-1.4585254E-1,7.921683E-1,-1.2837832E-1,-6.127986E-1,6.294834E-1,-6.8053395E-1,-3.0861405E-1,1.1530404E0,9.4647074E-1,-1.0439214E-1,2.4456951E-1,-5.31087E-1,-7.0102805E-1,-4.0633386E-1,8.6324656E-1,-4.7221783E-1,-2.827205E-1,-7.399252E-1,9.183131E-1,-3.5473508E-1,1.4164553E0,-5.161255E-1,1.0944334E0,-7.51524E-2,-7.464307E-2,9.176666E-2,-3.3239353E-1,7.438436E-1,-6.666218E-1,-1.6726676E-1,-7.101808E-1,-2.07267E-1,2.3623762E-1,-7.050528E-1,1.0693153E0,-3.2622692E-1,-7.105633E-2,1.2624474E-1,3.7875623E-1,-6.14301E-1,2.396599E-2,-7.4348755E-2,1.2416122E-1,3.0125422E-2,-4.227036E-2,2.0449426E-2,-5.4566663E-2,1.4553487E-1,-7.166466E-2,1.033949E-1,1.1421114E-1,-6.2323213E-2,-3.0762622E-2,1.4099541E-1,1.4748691E-1,-5.4489793E-3,-7.204611E-2,-1.2919562E-2,8.579859E-2,-6.385443E-2,-4.2574894E-2,-7.170957E-2,-6.436474E-2,2.5775185E-2,-6.3012466E-2,-7.385788E-2,6.310308E-2,-6.806396E-2,-1.79503E-2,1.3508064E-1,-7.215407E-2,5.4500025E-2,-6.577599E-2,1.1376151E-1,-5.9367444E-2,1.2238107E-1,-4.7219243E-2,7.783442E-2,-3.3320266E-5,-6.444284E-2],"categories":[],"categories_nodes":[],"categories_segments":[],"categories_sizes":[],"default_left":[0,0,0,0,0,0,0,0,0,0,0,0,0,0,0,0,0,0,0,0,0,0,0,0,0,0,0,0,0,0,0,0,0,0,0,0,0,0,0,0,0,0,0,0,0,0,0,0,0,0,0,0,0,0,0,0,0,0,0,0,0,0,0,0,0,0,0,0,0,0,0,0,0,0,0,0,0,0,0,0,0,0,0,0,0,0,0],"id":1,"left_children":[1,3,5,7,9,11,-1,13,15,17,19,21,23,25,27,29,31,33,35,37,39,41,43,45,47,49,51,53,55,57,59,-1,61,63,65,67,69,71,73,75,77,79,81,-1,-1,83,85,-1,-1,-1,-1,-1,-1,-1,-1,-1,-1,-1,-1,-1,-1,-1,-1,-1,-1,-1,-1,-1,-1,-1,-1,-1,-1,-1,-1,-1,-1,-1,-1,-1,-1,-1,-1,-1,-1,-1,-1],"loss_changes":[3.706499E3,1.5434426E3,1.6436206E2,1.0832998E3,1.0289249E2,3.3357758E2,0E0,3.3187708E2,7.9394434E2,1.06579834E2,2.0757355E1,7.2225136E1,1.496109E1,7.922597E1,7.760124E1,7.40146E2,1.0629756E2,1.0644667E2,1.6708427E1,3.5039673E0,6.700624E1,5.682376E1,2.1345947E1,1.8881584E1,2.1256409E0,9.758884E0,5.1191666E1,1.2337982E1,8.375635E0,3.5093652E2,2.1459135E2,0E0,1.3095543E2,1.344772E1,3.1782051E1,2.7120895E0,1.9181387E1,1.3369446E0,6.8246627E0,5.179528E1,5.297783E0,2.3940796E1,1.5148079E1,0E0,0E0,1.0231272E1,1.0544472E0,0E0,0E0,0E0,0E0,0E0,0E0,0E0,0E0,0E0,0E0,0E0,0E0,0E0,0E0,0E0,0E0,0E0,0E0,0E0,0E0,0E0,0E0,0E0,0E0,0E0,0E0,0E0,0E0,0E0,0E0,0E0,0E0,0E0,0E0,0E0,0E0,0E0,0E0,0E0,0E0],"parents":[2147483647,0,0,1,1,2,2,3,3,4,4,5,5,7,7,8,8,9,9,10,10,11,11,12,12,13,13,14,14,15,15,16,16,17,17,18,18,19,19,20,20,21,21,22,22,23,23,24,24,25,25,26,26,27,27,28,28,29,29,30,30,32,32,33,33,34,34,35,35,36,36,37,37,38,38,39,39,40,40,41,41,42,42,45,45,46,46],"right_children":[2,4,6,8,10,12,-1,14,16,18,20,22,24,26,28,30,32,34,36,38,40,42,44,46,48,50,52,54,56,58,60,-1,62,64,66,68,70,72,74,76,78,80,82,-1,-1,84,86,-1,-1,-1,-1,-1,-1,-1,-1,-1,-1,-1,-1,-1,-1,-1,-1,-1,-1,-1,-1,-1,-1,-1,-1,-1,-1,-1,-1,-1,-1,-1,-1,-1,-1,-1,-1,-1,-1,-1,-1],"split_conditions":[6.91E1,1E1,1.575E2,5.2863437E-1,1.1E1,9.2E0,-7.5005665E-2,7E0,8E0,5.4341667E1,7E0,8E0,1.03E1,2.5E0,1E1,1.1E1,1.08E1,3E0,2E0,2.07E1,5.4116665E1,1.1E1,3.68E1,6.2766666E1,5.4575E1,3.547E1,2E0,2.5104603E-1,4.63E1,4E0,7E0,-7.464307E-2,1.11E1,3.7151703E-1,1.367E1,5.7225E1,6.486486E-1,1.16E1,1.1591666E1,7.5E0,1.75E1,3.6363637E-1,7E0,-7.105633E-2,1.2624474E-1,5.106383E-1,4.9E1,2.396599E-2,-7.4348755E-2,1.2416122E-1,3.0125422E-2,-4.227036E-2,2.0449426E-2,-5.4566663E-2,1.4553487E-1,-7.166466E-2,1.033949E-1,1.1421114E-1,-6.2323213E-2,-3.0762622E-2,1.4099541E-1,1.4748691E-1,-5.4489793E-3,-7.204611E-2,-1.2919562E-2,8.579859E-2,-6.385443E-2,-4.2574894E-2,-7.170957E-2,-6.436474E-2,2.5775185E-2,-6.3012466E-2,-7.385788E-2,6.310308E-2,-6.806396E-2,-1.79503E-2,1.3508064E-1,-7.215407E-2,5.4500025E-2,-6.577599E-2,1.1376151E-1,-5.9367444E-2,1.2238107E-1,-4.7219243E-2,7.783442E-2,-3.3320266E-5,-6.444284E-2],"split_indices":[1,15,11,12,15,15,0,5,14,0,5,14,15,15,5,8,14,5,10,3,0,8,6,0,0,6,10,12,13,12,5,0,14,12,6,0,12,15,2,14,3,12,5,0,0,12,13,0,0,0,0,0,0,0,0,0,0,0,0,0,0,0,0,0,0,0,0,0,0,0,0,0,0,0,0,0,0,0,0,0,0,0,0,0,0,0,0],"split_type":[0,0,0,0,0,0,0,0,0,0,0,0,0,0,0,0,0,0,0,0,0,0,0,0,0,0,0,0,0,0,0,0,0,0,0,0,0,0,0,0,0,0,0,0,0,0,0,0,0,0,0,0,0,0,0,0,0,0,0,0,0,0,0,0,0,0,0,0,0,0,0,0,0,0,0,0,0,0,0,0,0,0,0,0,0,0,0],"sum_hessian":[1.4432851E4,9.166354E3,5.2664966E3,7.304452E3,1.8619017E3,9.189472E2,4.3475493E3,1.5671451E3,5.737307E3,7.077716E2,1.1541301E3,2.778626E2,6.410846E2,1.3933142E3,1.7383084E2,4.8948276E3,8.4247943E2,3.676678E2,3.4010382E2,8.06913E2,3.472171E2,2.2940337E2,4.845924E1,8.402565E1,5.5705896E2,4.979298E1,1.3435212E3,1.502681E2,2.3562748E1,4.2755273E3,6.193002E2,1.9650444E2,6.45975E2,1.7071878E2,1.9694902E2,2.4718657E2,9.291725E1,7.917973E2,1.51157255E1,1.1025588E2,2.3696123E2,1.9561528E2,3.3788094E1,4.3124275E1,5.334962E0,2.800855E1,5.60171E1,1.7783207E0,5.5528064E2,3.2009773E1,1.7783207E1,1.1981436E3,1.4537772E2,2.667481E0,1.4760062E2,2.1339848E1,2.2229009E0,4.1603813E3,1.1514626E2,5.361637E2,8.313649E1,6.0907482E1,5.850675E2,5.779542E1,1.1292336E2,1.8227786E2,1.4671145E1,4.4458015E1,2.0272856E2,4.3568855E1,4.93484E1,2.1339848E2,5.783988E2,5.334962E0,9.780764E0,8.091359E1,2.934229E1,2.3429375E2,2.667481E0,7.1132827E0,1.8850198E2,2.934229E1,4.4458017E0,8.891603E0,1.9116947E1,2.667481E0,5.334962E1],"tree_param":{"num_deleted":"0","num_feature":"17","num_nodes":"87","size_leaf_vector":"1"}},{"base_weights":[9.552355E-4,-7.01055E-1,1.634115E-1,-5.00553E-1,-7.0944905E-1,-6.658763E-1,1.5782003E-1,-7.0976865E-1,-6.4346895E-2,-6.8158877E-1,2.071609E-2,-6.4523506E-1,-7.130902E-2,9.1571435E-2,-5.565377E-2,3.6189766E-3,-6.842847E-1,-3.512358E-1,1.0288238E-1,-6.814095E-1,1.4356425E-1,-6.9666706E-2,-5.1424313E-2,-5.709651E-2,4.6390067E-3,-6.8735674E-2,-3.4523588E-2],"categories":[],"categories_nodes":[],"categories_segments":[],"categories_sizes":[],"default_left":[0,0,0,0,0,0,0,0,0,0,0,0,0,0,0,0,0,0,0,0,0,0,0,0,0,0,0],"id":2,"left_children":[1,3,-1,5,7,9,-1,11,13,15,17,19,-1,-1,-1,-1,21,23,-1,25,-1,-1,-1,-1,-1,-1,-1],"loss_changes":[1.5771243E4,1.5836914E1,0E0,1.3507434E2,1.8574219E0,3.9188843E0,0E0,1.5180664E0,3.2452729E0,7.095642E-1,3.761711E0,3.5768066E1,0E0,0E0,0E0,0E0,3.8417053E-1,6.703851E-1,0E0,6.72287E-1,0E0,0E0,0E0,0E0,0E0,0E0,0E0],"parents":[2147483647,0,0,1,1,3,3,4,4,5,5,7,7,8,8,9,9,10,10,11,11,16,16,17,17,19,19],"right_children":[2,4,-1,6,8,10,-1,12,14,16,18,20,-1,-1,-1,-1,22,24,-1,26,-1,-1,-1,-1,-1,-1,-1],"split_conditions":[1.3E1,1.4E0,1.634115E-1,1.33E1,3.91E1,1.521E2,1.5782003E-1,2.5E0,4.9275E1,7.8E-1,1.5016666E1,1.33E1,-7.130902E-2,9.1571435E-2,-5.565377E-2,3.6189766E-3,3.776E1,1.0084034E0,1.0288238E-1,6.95E1,1.4356425E-1,-6.9666706E-2,-5.1424313E-2,-5.709651E-2,4.6390067E-3,-6.8735674E-2,-3.4523588E-2],"split_indices":[5,15,0,14,3,11,0,15,0,6,2,14,0,0,0,0,6,12,0,1,0,0,0,0,0,0,0],"split_type":[0,0,0,0,0,0,0,0,0,0,0,0,0,0,0,0,0,0,0,0,0,0,0,0,0,0,0],"sum_hessian":[1.3754053E4,9.619642E3,4.1344116E3,3.889812E2,9.23066E3,3.609542E2,2.802703E1,9.225989E3,4.6711717E0,3.528858E2,8.068388E0,4.6117206E2,8.764816E3,1.273956E0,3.3972158E0,1.273956E0,3.5161185E2,6.3697796E0,1.6986079E0,4.5395297E2,7.219084E0,3.2485876E2,2.6753075E1,3.821868E0,2.547912E0,4.4503528E2,8.917691E0],"tree_param":{"num_deleted":"0","num_feature":"17","num_nodes":"27","size_leaf_vector":"1"}},{"base_weights":[1.7393006E-3,4.380872E-1,-6.923152E-1,8.788045E-1,2.4562308E-1,1.1275069E-1,-7.3135114E-1,9.751359E-1,-2.3847972E-1,-1.0307277E-1,6.166229E-1,7.116054E-1,-4.744175E-1,1.14103734E-1,-7.356852E-1,1.1677283E0,8.614824E-1,-5.471367E-1,1.0854131E0,2.9779065E-1,-5.0618786E-1,4.484272E-1,1.080607E0,3.1183727E-2,8.2658637E-1,-1.5465523E-2,-6.559131E-1,-7.3829323E-1,1.0835133E-1,1.2029655E0,1.088749E0,1.1063781E0,6.2449723E-1,1.1682202E-1,-6.759054E-1,1.1807519E0,5.717167E-1,8.455824E-1,1.211707E-1,3.1144786E-1,-6.417941E-1,2.1367867E-1,1.0548133E0,1.1687428E0,5.1303613E-1,8.833868E-1,-5.606568E-1,2.9485822E-1,1.0139683E0,4.4459298E-1,-5.2093905E-1,8.9707024E-2,-7.046105E-1,9.932213E-2,-7.396931E-1,1.2057274E-1,6.907077E-2,1.1774707E-1,9.609448E-2,1.18180096E-1,9.360945E-2,8.8324375E-2,3.4200523E-2,-7.040241E-2,9.0940826E-2,3.475059E-2,1.20584905E-1,1.0589502E-1,-5.3450473E-2,1.1095556E-1,3.0537376E-2,1.22410774E-1,3.443588E-3,5.4433912E-2,-6.964364E-2,-7.616389E-2,-4.2250197E-2,4.4873856E-2,-4.8083436E-2,1.2188717E-1,8.533441E-2,1.1786979E-1,-6.0097285E-2,-5.582548E-2,1.17355935E-1,1.060212E-1,1.6262047E-2,-6.2397804E-2,-2.7141904E-3,9.179467E-2,-1.9341731E-2,1.0922436E-1,1.7037614E-3,7.180548E-2,-4.514622E-2,-6.553936E-2,4.1641924E-3,5.2119445E-2,-7.350593E-2,-7.415945E-2,1.4104085E-2],"categories":[],"categories_nodes":[],"categories_segments":[],"categories_sizes":[],"default_left":[0,0,0,0,0,0,0,0,0,0,0,0,0,0,0,0,0,0,0,0,0,0,0,0,0,0,0,0,0,0,0,0,0,0,0,0,0,0,0,0,0,0,0,0,0,0,0,0,0,0,0,0,0,0,0,0,0,0,0,0,0,0,0,0,0,0,0,0,0,0,0,0,0,0,0,0,0,0,0,0,0,0,0,0,0,0,0,0,0,0,0,0,0,0,0,0,0,0,0,0,0],"id":3,"left_children":[1,3,5,7,9,11,13,15,17,19,21,23,25,-1,27,29,31,33,35,37,39,41,43,45,47,49,51,53,-1,55,57,59,61,-1,63,65,67,69,71,73,75,77,79,81,83,85,87,89,91,93,95,-1,97,-1,99,-1,-1,-1,-1,-1,-1,-1,-1,-1,-1,-1,-1,-1,-1,-1,-1,-1,-1,-1,-1,-1,-1,-1,-1,-1,-1,-1,-1,-1,-1,-1,-1,-1,-1,-1,-1,-1,-1,-1,-1,-1,-1,-1,-1,-1,-1],"loss_changes":[4.5067944E3,7.7480164E2,1.8060742E2,2.9911084E2,8.2296704E2,9.405258E1,4.5301025E1,5.4956787E1,9.0991844E1,5.301706E2,2.4004272E2,1.0328346E1,1.12493515E1,0E0,2.6736328E1,1.3231201E0,9.284497E1,4.0562515E1,1.3897591E0,1.5907178E2,1.815661E2,3.220216E2,4.0384644E1,1.0668715E1,1.0977341E1,9.377752E0,7.955826E0,1.396875E1,0E0,7.922363E-2,2.2973328E0,9.056763E0,5.9734253E1,0E0,8.134644E0,3.0498123E-1,5.1681933E0,5.6836914E1,1.1908177E2,5.5157837E1,3.6560425E1,2.668482E2,1.9833984E1,1.3188477E1,7.984255E1,9.306879E-1,4.0587234E-1,9.578689E0,6.4796906E0,5.5017157E0,1.4796572E0,0E0,3.908657E0,0E0,9.240723E0,0E0,0E0,0E0,0E0,0E0,0E0,0E0,0E0,0E0,0E0,0E0,0E0,0E0,0E0,0E0,0E0,0E0,0E0,0E0,0E0,0E0,0E0,0E0,0E0,0E0,0E0,0E0,0E0,0E0,0E0,0E0,0E0,0E0,0E0,0E0,0E0,0E0,0E0,0E0,0E0,0E0,0E0,0E0,0E0,0E0,0E0],"parents":[2147483647,0,0,1,1,2,2,3,3,4,4,5,5,6,6,7,7,8,8,9,9,10,10,11,11,12,12,14,14,15,15,16,16,17,17,18,18,19,19,20,20,21,21,22,22,23,23,24,24,25,25,26,26,27,27,29,29,30,30,31,31,32,32,34,34,35,35,36,36,37,37,38,38,39,39,40,40,41,41,42,42,43,43,44,44,45,45,46,46,47,47,48,48,49,49,50,50,52,52,54,54],"right_children":[2,4,6,8,10,12,14,16,18,20,22,24,26,-1,28,30,32,34,36,38,40,42,44,46,48,50,52,54,-1,56,58,60,62,-1,64,66,68,70,72,74,76,78,80,82,84,86,88,90,92,94,96,-1,98,-1,100,-1,-1,-1,-1,-1,-1,-1,-1,-1,-1,-1,-1,-1,-1,-1,-1,-1,-1,-1,-1,-1,-1,-1,-1,-1,-1,-1,-1,-1,-1,-1,-1,-1,-1,-1,-1,-1,-1,-1,-1,-1,-1,-1,-1,-1,-1],"split_conditions":[2.35E1,5.7416266E-1,1.3E1,7E0,5.665E1,7.1005917E-1,2.631579E-1,2E0,1E1,1E0,6.2225E1,1.3808333E1,8.955224E-1,1.14103734E-1,1.2E1,1E0,3.7151703E-1,1E0,1.26E1,5.8E-1,4E0,6.2E0,6.8E0,4.040404E-1,5.79E1,1.21E0,1.2E1,3.6E-1,1.0835133E-1,2.24E1,5.9691666E1,3.1007752E-1,1E0,1.1682202E-1,2.2E0,2.9E1,1.76E1,1.52E1,5E0,7E0,5.89E0,7E0,7.58E0,1.3E1,8E0,3.7974682E-1,5.1616665E1,5.7E1,5.2633335E1,6.14E1,2.71E1,8.9707024E-2,2.36E1,9.932213E-2,1.1E1,1.2057274E-1,6.907077E-2,1.1774707E-1,9.609448E-2,1.18180096E-1,9.360945E-2,8.8324375E-2,3.4200523E-2,-7.040241E-2,9.0940826E-2,3.475059E-2,1.20584905E-1,1.0589502E-1,-5.3450473E-2,1.1095556E-1,3.0537376E-2,1.22410774E-1,3.443588E-3,5.4433912E-2,-6.964364E-2,-7.616389E-2,-4.2250197E-2,4.4873856E-2,-4.8083436E-2,1.2188717E-1,8.533441E-2,1.1786979E-1,-6.0097285E-2,-5.582548E-2,1.17355935E-1,1.060212E-1,1.6262047E-2,-6.2397804E-2,-2.7141904E-3,9.179467E-2,-1.9341731E-2,1.0922436E-1,1.7037614E-3,7.180548E-2,-4.514622E-2,-6.553936E-2,4.1641924E-3,5.2119445E-2,-7.350593E-2,-7.415945E-2,1.4104085E-2],"split_indices":[3,12,4,5,0,12,12,7,5,8,0,2,12,0,7,7,12,8,14,6,7,14,14,12,1,6,4,6,0,3,0,12,8,0,14,4,3,14,7,5,6,5,6,5,14,12,0,1,0,1,3,0,3,0,8,0,0,0,0,0,0,0,0,0,0,0,0,0,0,0,0,0,0,0,0,0,0,0,0,0,0,0,0,0,0,0,0,0,0,0,0,0,0,0,0,0,0,0,0,0,0],"split_type":[0,0,0,0,0,0,0,0,0,0,0,0,0,0,0,0,0,0,0,0,0,0,0,0,0,0,0,0,0,0,0,0,0,0,0,0,0,0,0,0,0,0,0,0,0,0,0,0,0,0,0,0,0,0,0,0,0,0,0,0,0,0,0,0,0,0,0,0,0,0,0,0,0,0,0,0,0,0,0,0,0,0,0,0,0,0,0,0,0,0,0,0,0,0,0,0,0,0,0,0,0],"sum_hessian":[1.4879312E4,9.135958E3,5.7433535E3,2.7759153E3,6.360043E3,2.6551706E2,5.4778364E3,2.5556926E3,2.202227E2,3.2789456E3,3.0810974E3,1.3134546E2,1.3417159E2,1.2044884E1,5.4657915E3,9.4502264E2,1.6106699E3,1.7906223E2,4.1160477E1,1.6441954E3,1.6347501E3,2.2627937E3,8.183037E2,1.9170652E1,1.12174805E2,3.8330254E1,9.584134E1,5.4585605E3,7.231121E0,6.436312E2,3.013914E2,7.903105E2,8.2035944E2,1.1939618E1,1.671226E2,3.362192E1,7.538556E0,3.999504E2,1.2442451E3,2.3237166E2,1.4023784E3,1.6322557E3,6.3053815E2,7.073959E2,1.1090787E2,7.655186E0,1.1515466E1,2.9900532E1,8.227428E1,2.0129637E1,1.8200617E1,2.3842762E0,9.345706E1,3.8372915E0,5.454723E3,6.388331E2,4.798083E0,1.7304831E2,1.2834306E2,5.435974E2,2.4671307E2,4.2706537E2,3.932941E2,1.6475624E2,2.3663752E0,1.4171693E0,3.220475E1,5.263145E0,2.2754114E0,2.6795847E2,1.3199194E2,8.975752E1,1.1544875E3,1.8912952E2,4.324214E1,9.052043E2,4.971742E2,1.2197737E3,4.1248196E2,3.447526E2,2.8578552E2,7.03771E2,3.62488E0,4.235991E1,6.854796E1,5.7689433E0,1.8862427E0,1.0142162E1,1.3733029E0,1.2750123E1,1.715041E1,7.6196045E1,6.0782332E0,1.5575032E1,4.554604E0,1.4556658E1,3.6439588E0,1.8745489E0,9.158251E1,5.4431304E3,1.1592916E1],"tree_param":{"num_deleted":"0","num_feature":"17","num_nodes":"101","size_leaf_vector":"1"}},{"base_weights":[-1.9666755E-5,3.53178E-1,-6.418315E-1,5.4250336E-1,-3.8504556E-1,9.3254167E-1,-6.6852456E-1,-1.3440086E-1,7.188406E-1,-1.2762517E-1,-6.166726E-1,1.2084352E0,-3.2055476E-1,-4.0018997E-1,-7.228076E-2,-2.791975E-1,1.0145321E0,9.9936646E-1,2.3174562E-1,2.3537923E-1,-5.1885945E-1,-6.931819E-1,-4.6852303E-1,-5.2400798E-2,1.2822616E0,2.4884446E-1,-6.5800056E-2,3.5960174E-1,-6.5920794E-1,1.0197824E0,-3.1986445E-1,1.2274964E0,-5.103682E-1,1.0501399E0,-4.8074895E-1,1.06662385E-1,9.4882256E-1,-3.0790505E-1,6.7277384E-1,-6.5042657E-1,-1.7978919E-1,-7.041674E-1,-4.2554376E-1,-2.1384086E-1,-6.861479E-1,1.2955977E-1,3.7695125E-2,-3.0692497E-1,7.873284E-2,5.3475976E-1,-3.713098E-1,-3.0443636E-1,-7.171348E-1,1.1317497E-1,9.232369E-3,-5.5967297E-2,-1.6536817E-2,-5.2744072E-2,1.2619136E-1,-6.869636E-2,8.959926E-2,6.710985E-2,1.1411692E-1,-6.618654E-2,6.828161E-2,7.789666E-2,-1.1509474E-2,1.0344123E-1,2.0429103E-2,-7.0280455E-2,-1.1705652E-2,-2.0441948E-2,8.390259E-2,-4.06481E-2,-6.955946E-2,-6.330119E-2,2.374971E-2,-3.5820752E-2,-7.071722E-2,2.7850637E-2,-6.935414E-2,-4.2424344E-2,1.2068188E-1,-7.1267895E-2,1.2980302E-2,-4.7515184E-2,3.0802882E-3,-2.0804878E-2,7.632934E-2,-6.853285E-2,1.1653278E-1,3.4023184E-2,-5.811419E-2,1.2838469E-3,-7.189285E-2],"categories":[],"categories_nodes":[],"categories_segments":[],"categories_sizes":[],"default_left":[0,0,0,0,0,0,0,0,0,0,0,0,0,0,0,0,0,0,0,0,0,0,0,0,0,0,0,0,0,0,0,0,0,0,0,0,0,0,0,0,0,0,0,0,0,0,0,0,0,0,0,0,0,0,0,0,0,0,0,0,0,0,0,0,0,0,0,0,0,0,0,0,0,0,0,0,0,0,0,0,0,0,0,0,0,0,0,0,0,0,0,0,0,0,0],"id":4,"left_children":[1,3,5,7,9,11,13,15,17,19,21,23,25,27,-1,29,31,33,35,37,39,41,43,-1,45,47,-1,49,51,53,55,57,59,61,63,65,67,69,71,73,75,77,79,81,83,-1,-1,85,-1,87,89,91,93,-1,-1,-1,-1,-1,-1,-1,-1,-1,-1,-1,-1,-1,-1,-1,-1,-1,-1,-1,-1,-1,-1,-1,-1,-1,-1,-1,-1,-1,-1,-1,-1,-1,-1,-1,-1,-1,-1,-1,-1,-1,-1],"loss_changes":[3.253982E3,1.294306E3,2.1475781E2,8.797605E2,1.1264325E2,2.9901138E1,7.2701904E1,2.5380261E2,7.9868115E2,1.27465034E2,1.0951599E1,9.647209E0,3.2753575E0,1.6660959E2,0E0,7.185885E1,5.608522E1,2.7929443E2,1.916633E2,1.10894104E2,1.9148544E1,1.6230774E0,1.8802422E1,0E0,3.2772827E-1,2.2622492E0,0E0,2.7797626E1,1.2745453E1,4.1890297E0,4.858258E1,9.73407E0,5.988364E0,1.23E2,2.6525488E1,2.716626E2,2.0016022E1,1.562677E1,3.784942E1,3.1412964E0,2.3244013E1,3.981018E-1,5.5350804E0,4.8033943E1,4.0736237E0,0E0,0E0,2.4428368E-1,0E0,2.9749287E1,2.1192636E1,1.630209E1,7.182312E-1,0E0,0E0,0E0,0E0,0E0,0E0,0E0,0E0,0E0,0E0,0E0,0E0,0E0,0E0,0E0,0E0,0E0,0E0,0E0,0E0,0E0,0E0,0E0,0E0,0E0,0E0,0E0,0E0,0E0,0E0,0E0,0E0,0E0,0E0,0E0,0E0,0E0,0E0,0E0,0E0,0E0,0E0],"parents":[2147483647,0,0,1,1,2,2,3,3,4,4,5,5,6,6,7,7,8,8,9,9,10,10,11,11,12,12,13,13,15,15,16,16,17,17,18,18,19,19,20,20,21,21,22,22,24,24,25,25,27,27,28,28,29,29,30,30,31,31,32,32,33,33,34,34,35,35,36,36,37,37,38,38,39,39,40,40,41,41,42,42,43,43,44,44,47,47,49,49,50,50,51,51,52,52],"right_children":[2,4,6,8,10,12,14,16,18,20,22,24,26,28,-1,30,32,34,36,38,40,42,44,-1,46,48,-1,50,52,54,56,58,60,62,64,66,68,70,72,74,76,78,80,82,84,-1,-1,86,-1,88,90,92,94,-1,-1,-1,-1,-1,-1,-1,-1,-1,-1,-1,-1,-1,-1,-1,-1,-1,-1,-1,-1,-1,-1,-1,-1,-1,-1,-1,-1,-1,-1,-1,-1,-1,-1,-1,-1,-1,-1,-1,-1,-1,-1],"split_conditions":[6.91E1,9.9E0,2.9E1,5.2863437E-1,1.12E1,9.3E0,1.3E1,7E0,4E1,5.4341667E1,7E0,3.1007752E-1,3.147E1,9.1E0,-7.228076E-2,2.2E0,1E1,3E0,1E0,3E0,2E0,7E0,5.4341667E1,-5.2400798E-2,2.4E0,6.96E1,-6.5800056E-2,8E0,1.03E1,3.914E1,3.560831E-1,2.5104603E-1,4.62E1,1.3E1,1E1,4.3E0,1.2075E1,3.7151703E-1,5.8E-1,5.7225E1,6.486486E-1,2.95E0,1.19E1,7.5E0,1.69E1,1.2955977E-1,3.7695125E-2,1.03E1,7.873284E-2,6.0301507E-1,3.68E1,6.2766666E1,5.6058334E1,1.1317497E-1,9.232369E-3,-5.5967297E-2,-1.6536817E-2,-5.2744072E-2,1.2619136E-1,-6.869636E-2,8.959926E-2,6.710985E-2,1.1411692E-1,-6.618654E-2,6.828161E-2,7.789666E-2,-1.1509474E-2,1.0344123E-1,2.0429103E-2,-7.0280455E-2,-1.1705652E-2,-2.0441948E-2,8.390259E-2,-4.06481E-2,-6.955946E-2,-6.330119E-2,2.374971E-2,-3.5820752E-2,-7.071722E-2,2.7850637E-2,-6.935414E-2,-4.2424344E-2,1.2068188E-1,-7.1267895E-2,1.2980302E-2,-4.7515184E-2,3.0802882E-3,-2.0804878E-2,7.632934E-2,-6.853285E-2,1.1653278E-1,3.4023184E-2,-5.811419E-2,1.2838469E-3,-7.189285E-2],"split_indices":[1,15,4,12,15,15,5,5,4,0,7,12,6,15,0,15,5,12,10,5,10,5,0,0,12,1,0,14,15,6,12,12,13,4,7,15,2,12,6,0,12,6,15,14,3,0,0,15,0,12,6,0,0,0,0,0,0,0,0,0,0,0,0,0,0,0,0,0,0,0,0,0,0,0,0,0,0,0,0,0,0,0,0,0,0,0,0,0,0,0,0,0,0,0,0],"split_type":[0,0,0,0,0,0,0,0,0,0,0,0,0,0,0,0,0,0,0,0,0,0,0,0,0,0,0,0,0,0,0,0,0,0,0,0,0,0,0,0,0,0,0,0,0,0,0,0,0,0,0,0,0,0,0,0,0,0,0,0,0,0,0,0,0,0,0,0,0,0,0,0,0,0,0,0,0,0,0,0,0,0,0,0,0,0,0,0,0,0,0,0,0,0,0],"sum_hessian":[1.4352551E4,9.258129E3,5.0944224E3,7.3686294E3,1.8894993E3,8.4368706E1,5.0100537E3,1.5229049E3,5.8457246E3,8.956562E2,9.938431E2,6.9174286E1,1.5194418E1,8.4439026E2,4.165663E3,1.3531309E3,1.6977411E2,3.7087458E3,2.1369785E3,4.6479617E2,4.3086002E2,6.5295624E2,3.4088687E2,2.578083E0,6.659621E1,5.7516923E0,9.442725E0,2.1457558E2,6.298147E2,4.0345383E1,1.3127855E3,1.491405E2,2.0633602E1,3.5860225E3,1.227234E2,1.8205585E3,3.1642014E2,2.0743672E2,2.5735944E2,3.097511E2,1.21108894E2,6.256447E2,2.731152E1,1.5798395E2,1.8290291E2,6.5204575E1,1.3916302E0,3.0420313E0,2.709661E0,1.7331111E2,4.1264477E1,8.927957E1,5.405351E2,3.5802822E1,4.5425577E0,5.133472E2,7.9943823E2,2.5931E0,1.4654741E2,1.8786173E1,1.8474294E0,6.960551E2,2.8899673E3,1.06566765E2,1.6156628E1,4.5093616E2,1.3696223E3,2.834464E2,3.29737E1,6.671306E1,1.4072366E2,4.096849E1,2.1639096E2,4.9954426E1,2.597967E2,5.780682E1,6.330208E1,6.4223013E0,6.192224E2,7.519089E0,1.979243E1,1.3821535E2,1.9768597E1,1.7726562E2,5.6372957E0,1.7589612E0,1.2830701E0,4.079705E1,1.3251405E2,3.4722736E1,6.541738E0,2.6743357E1,6.2536213E1,1.3098347E0,5.392253E2],"tree_param":{"num_deleted":"0","num_feature":"17","num_nodes":"95","size_leaf_vector":"1"}},{"base_weights":[-2.936783E-3,-6.787926E-1,1.392616E-1,-4.9461237E-1,-6.8675375E-1,-6.359376E-1,1.3758579E-1,-6.1716175E-1,-6.8961126E-1,-6.484789E-1,-4.5447823E-2,-6.6791064E-1,1.2922655E-1,-6.8983495E-2,-1.9191673E-1,1.2988579E-2,-6.5368E-1,-4.5537424E-1,9.825997E-2,-4.8119807E-1,-6.748849E-2,4.6687078E-2,-5.278902E-2,-6.681347E-2,-4.5603193E-2,-5.687223E-2,-6.510512E-3,5.0806202E-2,-6.627072E-2],"categories":[],"categories_nodes":[],"categories_segments":[],"categories_sizes":[],"default_left":[0,0,0,0,0,0,0,0,0,0,0,0,0,0,0,0,0,0,0,0,0,0,0,0,0,0,0,0,0],"id":5,"left_children":[1,3,-1,5,7,9,-1,11,13,15,17,19,-1,-1,21,-1,23,25,-1,27,-1,-1,-1,-1,-1,-1,-1,-1,-1],"loss_changes":[1.2903404E4,1.3175293E1,0E0,1.0277102E2,1.3305664E0,2.6296234E0,0E0,3.5541733E1,8.1103516E-1,1.5080261E0,4.047698E0,1.3006592E-1,0E0,0E0,1.3959016E0,0E0,6.9340515E-1,2.6338148E-1,0E0,3.2205906E0,0E0,0E0,0E0,0E0,0E0,0E0,0E0,0E0,0E0],"parents":[2147483647,0,0,1,1,3,3,4,4,5,5,7,7,8,8,9,9,10,10,11,11,14,14,16,16,17,17,19,19],"right_children":[2,4,-1,6,8,10,-1,12,14,16,18,20,-1,-1,22,-1,24,26,-1,28,-1,-1,-1,-1,-1,-1,-1,-1,-1],"split_conditions":[1.3E1,1.4E0,1.392616E-1,1.33E1,2.3E0,1.521E2,1.3758579E-1,1.33E1,3.91E1,7.8E-1,1.5016666E1,9.841666E0,1.2922655E-1,-6.8983495E-2,1.415E1,1.2988579E-2,3.776E1,1.37E1,9.825997E-2,5.9E1,-6.748849E-2,4.6687078E-2,-5.278902E-2,-6.681347E-2,-4.5603193E-2,-5.687223E-2,-6.510512E-3,5.0806202E-2,-6.627072E-2],"split_indices":[5,15,0,14,15,11,0,14,3,6,2,2,0,0,2,0,6,2,0,4,0,0,0,0,0,0,0,0,0],"split_type":[0,0,0,0,0,0,0,0,0,0,0,0,0,0,0,0,0,0,0,0,0,0,0,0,0,0,0,0,0],"sum_hessian":[1.3678561E4,9.215888E3,4.462672E3,3.8446677E2,8.831421E3,3.5807227E2,2.639449E1,3.5687558E2,8.474546E3,3.5052924E2,7.543057E0,3.4826944E2,8.606128E0,8.470353E3,4.1932335E0,2.1675928E0,3.4836163E2,5.7909913E0,1.7520659E0,1.5060924E1,3.3320853E2,1.2846482E0,2.9085853E0,3.2240283E2,2.5958813E1,4.1332817E0,1.6577091E0,2.0560343E0,1.30048895E1],"tree_param":{"num_deleted":"0","num_feature":"17","num_nodes":"29","size_leaf_vector":"1"}},{"base_weights":[-1.1187785E-3,3.9935175E-1,-6.650968E-1,1.8261704E-1,9.2774737E-1,1.5457019E-1,-7.064963E-1,6.5616435E-1,-6.2689795E-3,7.051825E-1,1.0544893E0,7.015953E-1,-3.8691297E-1,1.0322791E-1,-7.106118E-1,7.697524E-1,-4.3317246E-1,-2.894403E-1,3.1446218E-1,3.8430476E-1,9.688175E-1,1.0765704E0,8.2739043E-1,2.1174279E-1,8.349326E-1,-5.00608E-1,1.0290661E-1,-7.126953E-1,1.5135032E-1,-3.9387146E-1,8.0792195E-1,-6.6130185E-1,8.8398665E-1,-3.6856067E-1,1.0401174E0,-5.375959E-1,4.473605E-1,7.4263227E-1,-1.088744E-1,1.0411774E0,8.071317E-1,9.857077E-1,1.10203125E-1,-7.158285E-2,1.0829251E0,8.880606E-1,-2.9860753E-1,-3.7248623E-2,9.200081E-1,6.498426E-1,-5.606511E-1,-7.1361697E-1,5.0014484E-1,1.04159E-1,-5.490198E-1,-7.022394E-2,-5.813379E-3,1.0373113E-1,6.994613E-2,8.48634E-2,-6.972759E-2,1.00381665E-1,-4.8782256E-2,-4.3375425E-2,5.9002317E-2,1.1054959E-1,3.2850627E-2,-6.994786E-2,-2.8073115E-2,6.1768413E-2,-2.9827505E-2,1.0747504E-1,5.3718604E-2,7.975092E-2,-2.2804273E-2,8.76498E-2,1.0655426E-1,5.8900114E-2,1.0855333E-1,1.046341E-1,6.816211E-2,3.180784E-2,1.0888791E-1,-5.627602E-3,1.0068523E-1,8.620667E-2,-4.904372E-2,8.761689E-2,-5.2370578E-2,4.1386317E-2,1.00784376E-1,-4.58447E-2,1.0271927E-1,-1.5969925E-2,-7.135896E-2,-3.3142563E-2,-7.1622424E-2,9.716979E-2,-4.0386476E-2,-2.772679E-3,-6.494533E-2],"categories":[],"categories_nodes":[],"categories_segments":[],"categories_sizes":[],"default_left":[0,0,0,0,0,0,0,0,0,0,0,0,0,0,0,0,0,0,0,0,0,0,0,0,0,0,0,0,0,0,0,0,0,0,0,0,0,0,0,0,0,0,0,0,0,0,0,0,0,0,0,0,0,0,0,0,0,0,0,0,0,0,0,0,0,0,0,0,0,0,0,0,0,0,0,0,0,0,0,0,0,0,0,0,0,0,0,0,0,0,0,0,0,0,0,0,0,0,0,0,0],"id":6,"left_children":[1,3,5,7,9,11,13,15,17,19,21,23,25,-1,27,29,31,33,35,37,39,41,43,45,47,49,-1,51,53,55,57,59,61,63,65,67,69,71,73,75,77,79,-1,-1,81,83,85,87,89,91,93,95,97,-1,99,-1,-1,-1,-1,-1,-1,-1,-1,-1,-1,-1,-1,-1,-1,-1,-1,-1,-1,-1,-1,-1,-1,-1,-1,-1,-1,-1,-1,-1,-1,-1,-1,-1,-1,-1,-1,-1,-1,-1,-1,-1,-1,-1,-1,-1,-1],"loss_changes":[3.9163965E3,1.0519845E3,1.8814551E2,5.828647E2,7.4630615E1,7.9429436E1,3.84812E1,2.3024255E2,4.232519E2,8.190015E1,7.6365967E0,8.529472E0,2.2239948E1,0E0,9.55957E0,7.506763E1,5.3496796E1,2.6074445E2,2.4768712E2,7.7892265E1,5.398285E0,2.4916992E0,6.190354E1,1.05714855E1,7.783539E0,9.039528E0,0E0,6.2263184E0,8.998923E0,5.5627203E0,3.9824707E1,8.775719E0,4.833372E0,1.46288E2,6.116501E0,1.2082794E1,2.4032831E2,1.6832047E1,2.0289581E1,5.3027344E-1,9.642479E0,5.7026367E0,0E0,0E0,2.611084E-1,1.5254622E0,4.378473E0,5.010101E0,3.8149414E0,3.2698438E0,7.2381325E0,4.991211E0,2.3426578E0,0E0,4.1232324E-1,0E0,0E0,0E0,0E0,0E0,0E0,0E0,0E0,0E0,0E0,0E0,0E0,0E0,0E0,0E0,0E0,0E0,0E0,0E0,0E0,0E0,0E0,0E0,0E0,0E0,0E0,0E0,0E0,0E0,0E0,0E0,0E0,0E0,0E0,0E0,0E0,0E0,0E0,0E0,0E0,0E0,0E0,0E0,0E0,0E0,0E0],"parents":[2147483647,0,0,1,1,2,2,3,3,4,4,5,5,6,6,7,7,8,8,9,9,10,10,11,11,12,12,14,14,15,15,16,16,17,17,18,18,19,19,20,20,21,21,22,22,23,23,24,24,25,25,27,27,28,28,29,29,30,30,31,31,32,32,33,33,34,34,35,35,36,36,37,37,38,38,39,39,40,40,41,41,44,44,45,45,46,46,47,47,48,48,49,49,50,50,51,51,52,52,54,54],"right_children":[2,4,6,8,10,12,14,16,18,20,22,24,26,-1,28,30,32,34,36,38,40,42,44,46,48,50,-1,52,54,56,58,60,62,64,66,68,70,72,74,76,78,80,-1,-1,82,84,86,88,90,92,94,96,98,-1,100,-1,-1,-1,-1,-1,-1,-1,-1,-1,-1,-1,-1,-1,-1,-1,-1,-1,-1,-1,-1,-1,-1,-1,-1,-1,-1,-1,-1,-1,-1,-1,-1,-1,-1,-1,-1,-1,-1,-1,-1,-1,-1,-1,-1,-1,-1],"split_conditions":[2.35E1,1E1,5.25E1,5.7416266E-1,1.12E1,7.1005917E-1,2.2018349E-1,7E0,4.1E1,5.4341667E1,8E0,5.79E1,1.4E1,1.0322791E-1,1.1E1,2.2E0,1E1,3E0,3.6E0,7E0,2E0,1.18E1,1.11E1,5.7E1,1.1E1,2.36E1,1.0290661E-1,1.28E1,1.336E2,1.5E0,2E0,2.5104603E-1,1.484E2,1E1,1E1,2.5E0,1E0,3.7974682E-1,5.0541668E1,5.7225E1,6.2016666E1,7E0,1.10203125E-1,-7.158285E-2,5.3875E1,3.8E0,1.4225E1,4.1237113E-1,1.3808333E1,5.1325E1,8.955224E-1,4.1958043E-1,6.99E1,1.04159E-1,6.936416E-1,-7.022394E-2,-5.813379E-3,1.0373113E-1,6.994613E-2,8.48634E-2,-6.972759E-2,1.00381665E-1,-4.8782256E-2,-4.3375425E-2,5.9002317E-2,1.1054959E-1,3.2850627E-2,-6.994786E-2,-2.8073115E-2,6.1768413E-2,-2.9827505E-2,1.0747504E-1,5.3718604E-2,7.975092E-2,-2.2804273E-2,8.76498E-2,1.0655426E-1,5.8900114E-2,1.0855333E-1,1.046341E-1,6.816211E-2,3.180784E-2,1.0888791E-1,-5.627602E-3,1.0068523E-1,8.620667E-2,-4.904372E-2,8.761689E-2,-5.2370578E-2,4.1386317E-2,1.00784376E-1,-4.58447E-2,1.0271927E-1,-1.5969925E-2,-7.135896E-2,-3.3142563E-2,-7.1622424E-2,9.716979E-2,-4.0386476E-2,-2.772679E-3,-6.494533E-2],"split_indices":[3,15,11,12,15,12,12,5,4,0,14,1,4,0,8,15,5,12,15,5,10,15,14,1,7,3,0,15,11,15,7,12,11,8,7,15,10,12,0,0,0,5,0,0,0,15,2,12,2,0,12,12,1,0,12,0,0,0,0,0,0,0,0,0,0,0,0,0,0,0,0,0,0,0,0,0,0,0,0,0,0,0,0,0,0,0,0,0,0,0,0,0,0,0,0,0,0,0,0,0,0],"split_type":[0,0,0,0,0,0,0,0,0,0,0,0,0,0,0,0,0,0,0,0,0,0,0,0,0,0,0,0,0,0,0,0,0,0,0,0,0,0,0,0,0,0,0,0,0,0,0,0,0,0,0,0,0,0,0,0,0,0,0,0,0,0,0,0,0,0,0,0,0,0,0,0,0,0,0,0,0,0,0,0,0,0,0,0,0,0,0,0,0,0,0,0,0,0,0,0,0,0,0,0,0],"sum_hessian":[1.4726634E4,9.186377E3,5.540257E3,6.5153066E3,2.6710706E3,2.6624057E2,5.274016E3,1.857067E3,4.6582397E3,9.715489E2,1.6995217E3,1.3229543E2,1.3394513E2,1.1863696E1,5.2621523E3,1.6819762E3,1.7509073E2,2.4740315E3,2.184208E3,4.3930984E2,5.32239E2,1.5455098E3,1.5401202E2,2.885958E1,1.0343585E2,1.2458789E2,9.35724E0,5.2496367E3,1.2515809E1,5.312445E1,1.6288518E3,1.4966669E2,2.5424042E1,2.3357563E3,1.3827522E2,2.943002E2,1.8899077E3,2.5414835E2,1.851615E2,3.6392883E2,1.683102E2,3.469743E2,1.1985354E3,2.1623373E1,1.3238866E2,1.2093343E1,1.6766237E1,9.242745E0,9.419311E1,5.692593E0,1.188953E2,5.2460615E3,3.5748909E0,5.296384E0,7.2194257E0,2.7121916E1,2.6002537E1,5.2016425E2,1.1086875E3,2.9571326E0,1.4670956E2,2.3628319E1,1.795723E0,2.1875293E3,1.4822697E2,1.2613335E2,1.2141873E1,1.7947032E2,1.1482989E2,1.538617E3,3.512908E2,9.551325E1,1.5863509E2,2.0854181E1,1.6430731E2,5.1670616E1,3.1225824E2,9.6117096E1,7.219309E1,2.8725607E2,5.9718243E1,1.4430135E0,1.3094563E2,1.4100864E0,1.0683257E1,1.8824524E0,1.4883784E1,2.9334683E0,6.309277E0,1.4773565E1,7.941954E1,1.3913221E0,4.301271E0,3.339343E1,8.550187E1,3.641303E1,5.2096484E3,2.300184E0,1.2747067E0,1.37236E0,5.847066E0],"tree_param":{"num_deleted":"0","num_feature":"17","num_nodes":"101","size_leaf_vector":"1"}},{"base_weights":[1.9388053E-3,3.24533E-1,-6.1675256E-1,-2.2402802E-1,5.1812404E-1,8.588857E-1,-6.435861E-1,-3.4523353E-1,8.179756E-1,8.1872225E-1,9.18459E-2,1.1464017E-1,7.954549E-2,-3.6275688E-1,-6.987228E-2,-5.615415E-1,-1.6145645E-1,-6.7227125E-1,1.0450695E0,-2.509613E-1,9.0922785E-1,-4.4499558E-1,2.4421428E-1,-3.770302E-1,8.571168E-1,3.1111836E-1,-5.9631157E-1,-6.5068114E-1,-4.0801692E-1,-5.886108E-1,7.359542E-2,-6.9788575E-2,-1.3150096E-2,1.1123109E0,-3.1266278E-1,-1.590061E-2,-7.0921786E-2,5.5319864E-1,1.0349059E0,-2.4817014E-1,-6.876454E-1,-9.6686125E-2,4.672722E-1,-5.202565E-1,2.568665E-1,1.10176206E-1,-4.0381126E-2,-5.992955E-1,4.6908882E-1,-6.528153E-1,-1.6245443E-1,-6.5768704E-2,-2.3855567E-2,-6.662108E-2,-3.0461295E-2,1.0800525E-2,-5.9669923E-2,-2.8931586E-2,4.0211882E-2,1.1365352E-1,-5.632623E-2,-6.3522615E-2,8.269312E-2,2.1723889E-2,-6.39141E-2,1.8124128E-2,8.784168E-2,1.1780246E-1,7.6452926E-2,-6.7354605E-2,2.4866465E-2,-6.987856E-2,-5.162544E-2,-4.21423E-2,1.8556476E-2,1.1128737E-1,1.5043335E-2,-5.7553817E-2,-1.05711064E-4,3.9175883E-2,7.106227E-4,-6.605381E-2,4.2223994E-2,7.1112104E-2,-3.6873005E-2,-6.8488665E-2,-5.250168E-2,7.8207396E-2,-5.3863168E-2],"categories":[],"categories_nodes":[],"categories_segments":[],"categories_sizes":[],"default_left":[0,0,0,0,0,0,0,0,0,0,0,0,0,0,0,0,0,0,0,0,0,0,0,0,0,0,0,0,0,0,0,0,0,0,0,0,0,0,0,0,0,0,0,0,0,0,0,0,0,0,0,0,0,0,0,0,0,0,0,0,0,0,0,0,0,0,0,0,0,0,0,0,0,0,0,0,0,0,0,0,0,0,0,0,0,0,0,0,0],"id":7,"left_children":[1,3,5,7,9,11,13,15,17,19,21,-1,23,25,-1,27,29,31,33,35,37,39,41,43,45,47,49,51,53,55,57,-1,-1,59,61,63,-1,65,67,69,71,73,75,77,79,-1,-1,81,83,85,87,-1,-1,-1,-1,-1,-1,-1,-1,-1,-1,-1,-1,-1,-1,-1,-1,-1,-1,-1,-1,-1,-1,-1,-1,-1,-1,-1,-1,-1,-1,-1,-1,-1,-1,-1,-1,-1,-1],"loss_changes":[2.8456643E3,9.953287E2,1.9403711E2,3.0910822E2,8.8756287E2,1.9559387E1,7.406506E1,8.701306E1,8.703136E1,3.935122E2,2.345283E2,0E0,9.095299E0,1.2448583E2,0E0,1.3503021E1,1.19127975E2,3.8389492E-1,2.059256E1,3.4208996E1,1.6702661E2,3.0105476E1,1.6983763E2,1.6100976E0,3.3589897E0,2.9610039E1,1.4280212E1,1.6760254E0,9.735676E0,2.4371948E0,9.143717E1,0E0,0E0,9.225037E0,4.6586456E0,3.0797525E1,0E0,1.1831537E2,1.061814E2,7.447056E1,1.8026733E-1,8.110301E1,2.7596143E2,3.8961506E-1,1.207483E-1,0E0,0E0,2.1927872E0,3.5614338E1,1.7671967E0,2.4920929E1,0E0,0E0,0E0,0E0,0E0,0E0,0E0,0E0,0E0,0E0,0E0,0E0,0E0,0E0,0E0,0E0,0E0,0E0,0E0,0E0,0E0,0E0,0E0,0E0,0E0,0E0,0E0,0E0,0E0,0E0,0E0,0E0,0E0,0E0,0E0,0E0,0E0,0E0],"parents":[2147483647,0,0,1,1,2,2,3,3,4,4,5,5,6,6,7,7,8,8,9,9,10,10,12,12,13,13,15,15,16,16,17,17,18,18,19,19,20,20,21,21,22,22,23,23,24,24,25,25,26,26,27,27,28,28,29,29,30,30,33,33,34,34,35,35,37,37,38,38,39,39,40,40,41,41,42,42,43,43,44,44,47,47,48,48,49,49,50,50],"right_children":[2,4,6,8,10,12,14,16,18,20,22,-1,24,26,-1,28,30,32,34,36,38,40,42,44,46,48,50,52,54,56,58,-1,-1,60,62,64,-1,66,68,70,72,74,76,78,80,-1,-1,82,84,86,88,-1,-1,-1,-1,-1,-1,-1,-1,-1,-1,-1,-1,-1,-1,-1,-1,-1,-1,-1,-1,-1,-1,-1,-1,-1,-1,-1,-1,-1,-1,-1,-1,-1,-1,-1,-1,-1,-1],"split_conditions":[6.91E1,5.607477E-1,2.9E1,7E0,4E1,1.367E1,1.575E2,3.7974682E-1,1E0,2E0,5.8E-1,1.1464017E-1,9.375E-1,6.2225E1,-6.987228E-2,3.1007752E-1,2E0,5.042017E-1,1E1,2.7906976E0,1E0,5.4925E1,7E0,2.8E1,6.1125E1,4.7244096E-1,6.8E0,6.85E1,2E0,3.91E1,5.16E1,-6.9788575E-2,-1.3150096E-2,2.2E0,1.484E2,6.1433334E1,-7.0921786E-2,8.5106385E-1,1.763E1,5.1833332E1,1E0,1E0,3.3E0,8.633093E-1,6.94E1,1.10176206E-1,-4.0381126E-2,4.9E1,1.1E1,1.2233334E1,8E0,-6.5768704E-2,-2.3855567E-2,-6.662108E-2,-3.0461295E-2,1.0800525E-2,-5.9669923E-2,-2.8931586E-2,4.0211882E-2,1.1365352E-1,-5.632623E-2,-6.3522615E-2,8.269312E-2,2.1723889E-2,-6.39141E-2,1.8124128E-2,8.784168E-2,1.1780246E-1,7.6452926E-2,-6.7354605E-2,2.4866465E-2,-6.987856E-2,-5.162544E-2,-4.21423E-2,1.8556476E-2,1.1128737E-1,1.5043335E-2,-5.7553817E-2,-1.05711064E-4,3.9175883E-2,7.106227E-4,-6.605381E-2,4.2223994E-2,7.1112104E-2,-3.6873005E-2,-6.8488665E-2,-5.250168E-2,7.8207396E-2,-5.3863168E-2],"split_indices":[1,12,4,5,4,6,11,12,8,7,6,0,12,0,0,12,7,12,5,12,8,0,5,4,0,12,14,1,7,13,11,0,0,14,11,0,0,12,6,0,16,7,14,12,1,0,0,4,5,2,14,0,0,0,0,0,0,0,0,0,0,0,0,0,0,0,0,0,0,0,0,0,0,0,0,0,0,0,0,0,0,0,0,0,0,0,0,0,0],"split_type":[0,0,0,0,0,0,0,0,0,0,0,0,0,0,0,0,0,0,0,0,0,0,0,0,0,0,0,0,0,0,0,0,0,0,0,0,0,0,0,0,0,0,0,0,0,0,0,0,0,0,0,0,0,0,0,0,0,0,0,0,0,0,0,0,0,0,0,0,0,0,0,0,0,0,0,0,0,0,0,0,0,0,0,0,0,0,0,0,0],"sum_hessian":[1.4255814E4,9.370423E3,4.8853916E3,2.444243E3,6.92618E3,8.669735E1,4.7986943E3,2.1901536E3,2.5408926E2,4.0613333E3,2.8648472E3,6.29885E1,2.3708849E1,7.887763E2,4.0099182E3,1.00509204E3,1.1850616E3,3.3340454E1,2.2074881E2,3.166836E2,3.7446497E3,6.32927E2,2.2319202E3,1.5262252E1,8.446597E0,2.0293007E2,5.858462E2,6.338353E2,3.712567E2,4.2010687E2,7.649547E2,3.1555248E1,1.7852062E0,2.1050436E2,1.0244436E1,2.099998E2,1.06683784E2,9.7839355E2,2.766256E3,3.5057816E2,2.8234882E2,8.8299756E2,1.3489226E3,1.2595601E1,2.6666512E0,7.179802E0,1.2667954E0,2.9592007E1,1.7333807E2,5.1789325E2,6.795294E1,6.226548E2,1.1180541E1,1.0460965E2,2.6664706E2,4.680108E0,4.154268E2,3.635119E2,4.014428E2,2.0782153E2,2.6828337E0,8.329381E0,1.9150553E0,1.5330388E2,5.6695923E1,4.5712708E2,5.212665E2,1.8066062E3,9.5964984E2,1.8868E2,1.6189815E2,2.6222714E2,2.0121668E1,4.1036685E2,4.726307E2,4.4324313E2,9.056795E2,1.1285472E1,1.3101292E0,1.3623333E0,1.3043178E0,2.8251663E1,1.3403431E0,1.3460431E2,3.8733765E1,4.1051456E2,1.0737871E2,1.9047737E1,4.890521E1],"tree_param":{"num_deleted":"0","num_feature":"17","num_nodes":"89","size_leaf_vector":"1"}},{"base_weights":[-5.2193445E-3,-6.490659E-1,1.2048963E0,-6.5556055E-1,1.1830985E-1,-5.3771394E-1,1.2217426E-1,-4.8072445E-1,-6.681221E-1,-6.620247E-2,1.0150142E-1,-6.059326E-1,1.2758283E-1,-6.684639E-1,-4.7326803E-2,-6.2834895E-1,1.110322E-1,-6.686866E-1,1.3039485E-2,8.639277E-2,-5.3466864E-2,1.761447E-2,-6.335499E-2,5.9390217E-2,-5.937777E-2,-6.690145E-2,-4.42844E-2],"categories":[],"categories_nodes":[],"categories_segments":[],"categories_sizes":[],"default_left":[0,0,0,0,0,0,0,0,0,0,0,0,0,0,0,0,0,0,0,0,0,0,0,0,0,0,0],"id":8,"left_children":[1,3,5,7,-1,9,-1,11,13,-1,-1,15,-1,17,19,21,23,25,-1,-1,-1,-1,-1,-1,-1,-1,-1],"loss_changes":[1.0511201E4,1.0555737E2,1.3819629E2,1.8951416E1,0E0,9.464711E0,0E0,1.3092842E2,1.704834E0,0E0,0E0,8.958939E0,0E0,1.5427246E0,2.9398866E0,2.3562622E0,6.34872E0,3.0932617E-1,0E0,0E0,0E0,0E0,0E0,0E0,0E0,0E0,0E0],"parents":[2147483647,0,0,1,1,2,2,3,3,5,5,7,7,8,8,11,11,13,13,14,14,15,15,16,16,17,17],"right_children":[2,4,6,8,-1,10,-1,12,14,-1,-1,16,-1,18,20,22,24,26,-1,-1,-1,-1,-1,-1,-1,-1,-1],"split_conditions":[1.679E2,7.85E1,2.09E1,2E0,1.1830985E-1,5.3E1,1.2217426E-1,1.33E1,3.91E1,-6.620247E-2,1.0150142E-1,1.521E2,1.2758283E-1,1.22E2,1.4008333E1,5.2E1,2.662E1,7.65E1,1.3039485E-2,8.639277E-2,-5.3466864E-2,1.761447E-2,-6.335499E-2,5.9390217E-2,-5.937777E-2,-6.690145E-2,-4.42844E-2],"split_indices":[11,1,3,15,0,4,0,14,3,0,0,11,0,4,2,1,6,1,0,0,0,0,0,0,0,0,0],"split_type":[0,0,0,0,0,0,0,0,0,0,0,0,0,0,0,0,0,0,0,0,0,0,0,0,0,0,0],"sum_hessian":[1.3488962E4,8.804799E3,4.6841626E3,8.774338E3,3.0460852E1,4.455338E1,4.6396094E3,5.907908E2,8.1835474E3,4.178197E1,2.7714078E0,5.5209235E2,3.8698437E1,8.178968E3,4.5798554E0,5.35474E2,1.6618332E1,8.1768506E3,2.1169844E0,1.3265939E0,3.2532616E0,3.2284076E0,5.322456E2,9.955269E0,6.663063E0,8.1630376E3,1.3812776E1],"tree_param":{"num_deleted":"0","num_feature":"17","num_nodes":"27","size_leaf_vector":"1"}},{"base_weights":[2.9455565E-3,3.7181443E-1,-6.377646E-1,1.5690885E-1,8.378906E-1,9.670789E-2,-6.7610854E-1,-4.602662E-1,2.7688923E-1,6.32957E-1,9.646825E-1,5.248508E-1,-5.171567E-1,9.513964E-2,-6.8050355E-1,-6.125434E-2,-5.84862E-1,4.9365318E-1,-2.014935E-1,9.0517354E-1,1.7956682E-1,8.231895E-1,9.9534416E-1,-1.09943956E-1,6.421845E-1,8.6322E-2,-5.565659E-1,-6.832676E-1,9.414248E-2,-4.5871702E-1,2.573796E-1,-1.8528138E-1,-6.2483805E-1,2.4427436E-1,7.271544E-1,4.0874276E-1,-4.2177856E-1,6.6634333E-1,9.719413E-1,3.9811334E-1,-3.4978485E-1,9.3598044E-1,5.337752E-1,9.562338E-1,1.0138326E-1,7.597539E-1,-5.504025E-1,9.3894994E-1,3.372776E-1,4.6502614E-1,-6.0388595E-1,8.648424E-2,-6.846672E-1,-6.7821026E-2,-2.9223641E-2,4.6991333E-2,-5.8653064E-2,5.0036915E-2,-5.9023846E-2,-6.8508886E-2,-4.720711E-2,1.1611308E-2,1.0876608E-1,8.8360265E-2,4.5863036E-2,8.343013E-2,1.8168725E-2,1.51154E-2,-4.9680933E-2,1.008536E-1,4.0133998E-2,1.0015818E-1,9.0095796E-2,2.5958752E-3,9.4560795E-2,-7.443302E-2,6.759762E-2,9.463971E-2,3.8270894E-2,8.8636026E-2,2.429047E-2,8.2570456E-2,9.757847E-2,9.117414E-2,1.3513665E-2,3.0601455E-3,-7.085493E-2,6.142045E-2,1.0673504E-1,-6.9453955E-2,4.866233E-2,-4.485746E-2,9.00752E-2,-7.7047893E-3,-6.921031E-2,-6.8677455E-2,2.0893635E-2],"categories":[],"categories_nodes":[],"categories_segments":[],"categories_sizes":[],"default_left":[0,0,0,0,0,0,0,0,0,0,0,0,0,0,0,0,0,0,0,0,0,0,0,0,0,0,0,0,0,0,0,0,0,0,0,0,0,0,0,0,0,0,0,0,0,0,0,0,0,0,0,0,0,0,0,0,0,0,0,0,0,0,0,0,0,0,0,0,0,0,0,0,0,0,0,0,0,0,0,0,0,0,0,0,0,0,0,0,0,0,0,0,0,0,0,0,0],"id":9,"left_children":[1,3,5,7,9,11,13,15,17,19,21,23,25,-1,27,29,31,33,35,37,39,41,43,45,47,-1,49,51,-1,53,55,57,59,61,63,65,67,69,71,73,75,77,79,81,-1,83,85,87,89,91,93,-1,95,-1,-1,-1,-1,-1,-1,-1,-1,-1,-1,-1,-1,-1,-1,-1,-1,-1,-1,-1,-1,-1,-1,-1,-1,-1,-1,-1,-1,-1,-1,-1,-1,-1,-1,-1,-1,-1,-1,-1,-1,-1,-1,-1,-1],"loss_changes":[3.4305005E3,9.225453E2,1.4942285E2,4.6707678E2,7.4920654E1,6.965858E1,3.6700928E1,5.100882E1,5.476375E2,1.3732297E2,6.963257E0,1.1692017E1,6.4088955E0,0E0,2.318164E1,3.1201424E1,1.2380524E1,2.114314E2,2.2160046E2,1.0447815E1,4.863083E1,1.0118729E1,9.326172E-2,1.0069344E1,1.1612381E1,0E0,5.4322853E0,1.1468018E1,0E0,3.8055954E0,2.4824165E1,2.0444862E1,6.2184143E0,1.8997754E2,7.841583E1,4.2113297E1,5.2124557E1,1.3669212E1,2.3709106E-1,6.05189E1,5.0289E1,9.791107E-1,9.3785305E0,4.4302368E-1,0E0,7.207732E-1,1.6116743E0,2.1068153E0,1.0598627E1,2.5068865E0,4.7002945E0,0E0,9.588135E0,0E0,0E0,0E0,0E0,0E0,0E0,0E0,0E0,0E0,0E0,0E0,0E0,0E0,0E0,0E0,0E0,0E0,0E0,0E0,0E0,0E0,0E0,0E0,0E0,0E0,0E0,0E0,0E0,0E0,0E0,0E0,0E0,0E0,0E0,0E0,0E0,0E0,0E0,0E0,0E0,0E0,0E0,0E0,0E0],"parents":[2147483647,0,0,1,1,2,2,3,3,4,4,5,5,6,6,7,7,8,8,9,9,10,10,11,11,12,12,14,14,15,15,16,16,17,17,18,18,19,19,20,20,21,21,22,22,23,23,24,24,26,26,27,27,29,29,30,30,31,31,32,32,33,33,34,34,35,35,36,36,37,37,38,38,39,39,40,40,41,41,42,42,43,43,45,45,46,46,47,47,48,48,49,49,50,50,52,52],"right_children":[2,4,6,8,10,12,14,16,18,20,22,24,26,-1,28,30,32,34,36,38,40,42,44,46,48,-1,50,52,-1,54,56,58,60,62,64,66,68,70,72,74,76,78,80,82,-1,84,86,88,90,92,94,-1,96,-1,-1,-1,-1,-1,-1,-1,-1,-1,-1,-1,-1,-1,-1,-1,-1,-1,-1,-1,-1,-1,-1,-1,-1,-1,-1,-1,-1,-1,-1,-1,-1,-1,-1,-1,-1,-1,-1,-1,-1,-1,-1,-1,-1],"split_conditions":[2.35E1,9.8E0,1.3E1,3.6E0,5.4441666E1,7.94702E-1,2.631579E-1,6.1538464E-1,1E0,3E0,1.05E1,1.37E1,1.2E1,9.513964E-2,1.2E1,2.5E0,2E0,6.5E0,5.970149E-1,1.06E1,8E0,2E0,1.16E1,4.040404E-1,1.19E0,8.6322E-2,2.36E1,3.6E-1,9.414248E-2,1.5E0,7E0,6.45E1,2.8E0,7.5E0,7E0,1.3E1,1.3E1,1.3E1,6E0,2.8E0,1.11E1,5.69E1,6.666667E-1,5.755E1,1.0138326E-1,3.7151703E-1,2.39E1,5.1E0,2.41E1,5.1325E1,8.888889E-1,8.648424E-2,1.1E1,-6.7821026E-2,-2.9223641E-2,4.6991333E-2,-5.8653064E-2,5.0036915E-2,-5.9023846E-2,-6.8508886E-2,-4.720711E-2,1.1611308E-2,1.0876608E-1,8.8360265E-2,4.5863036E-2,8.343013E-2,1.8168725E-2,1.51154E-2,-4.9680933E-2,1.008536E-1,4.0133998E-2,1.0015818E-1,9.0095796E-2,2.5958752E-3,9.4560795E-2,-7.443302E-2,6.759762E-2,9.463971E-2,3.8270894E-2,8.8636026E-2,2.429047E-2,8.2570456E-2,9.757847E-2,9.117414E-2,1.3513665E-2,3.0601455E-3,-7.085493E-2,6.142045E-2,1.0673504E-1,-6.9453955E-2,4.866233E-2,-4.485746E-2,9.00752E-2,-7.7047893E-3,-6.921031E-2,-6.8677455E-2,2.0893635E-2],"split_indices":[3,15,4,15,0,12,12,12,10,5,15,2,4,0,7,15,7,15,12,15,14,10,15,12,6,0,3,6,0,15,5,1,15,14,5,4,4,4,7,14,14,13,12,0,0,12,3,15,3,0,12,0,8,0,0,0,0,0,0,0,0,0,0,0,0,0,0,0,0,0,0,0,0,0,0,0,0,0,0,0,0,0,0,0,0,0,0,0,0,0,0,0,0,0,0,0,0],"split_type":[0,0,0,0,0,0,0,0,0,0,0,0,0,0,0,0,0,0,0,0,0,0,0,0,0,0,0,0,0,0,0,0,0,0,0,0,0,0,0,0,0,0,0,0,0,0,0,0,0,0,0,0,0,0,0,0,0,0,0,0,0,0,0,0,0,0,0,0,0,0,0,0,0,0,0,0,0,0,0,0,0,0,0,0,0,0,0,0,0,0,0,0,0,0,0,0,0],"sum_hessian":[1.4513225E4,9.210809E3,5.302416E3,6.3049585E3,2.9058503E3,2.6300833E2,5.0394077E3,1.0257417E3,5.279217E3,1.1129619E3,1.7928884E3,1.5502817E2,1.07980156E2,1.2991707E1,5.026416E3,2.4443672E2,7.81305E2,3.6330044E3,1.6462124E3,6.9480365E2,4.1815833E2,3.242829E2,1.4686056E3,2.4194555E1,1.3083362E2,2.416978E0,1.0556318E2,5.0184424E3,7.973595E0,1.085688E2,1.3586792E2,7.156932E1,7.0973566E2,1.757763E3,1.8752415E3,4.3640967E2,1.2098027E3,1.5420119E2,5.406024E2,2.9614197E2,1.2201636E2,2.3173625E2,9.254665E1,4.8832465E2,9.8028094E2,7.8902054E0,1.630435E1,6.5248184E1,6.5585434E1,4.282443E0,1.0128074E2,3.9757783E0,5.014467E3,4.550275E1,6.306605E1,1.0888824E2,2.697968E1,2.6487152E1,4.508217E1,5.0649237E2,2.0324329E2,1.526876E3,2.3088693E2,1.1834473E3,6.917941E2,1.5090387E2,2.855058E2,1.3997136E2,1.0698314E3,6.6074715E1,8.812648E1,3.721101E2,1.6849232E2,1.769257E2,1.1921626E2,8.831972E1,3.369664E1,2.2675645E2,4.979801E0,4.090974E1,5.1636913E1,6.924602E1,4.190786E2,5.9763145E0,1.9138907E0,3.660994E0,1.2643355E1,2.0127073E1,4.5121105E1,7.83102E0,5.7754414E1,1.3733683E0,2.9090745E0,1.4795365E1,8.648537E1,5.0029004E3,1.1566567E1],"tree_param":{"num_deleted":"0","num_feature":"17","num_nodes":"97","size_leaf_vector":"1"}},{"base_weights":[-9.069481E-4,2.9515126E-1,-5.9828275E-1,4.4761494E-1,-3.7658477E-1,7.540563E-1,-6.235962E-1,-1.1438488E-1,5.866266E-1,-1.1348939E-1,-5.456183E-1,9.672662E-1,-3.8598147E-1,-3.5404903E-1,-6.77383E-2,-2.4715048E-1,8.263171E-1,8.0492914E-1,1.9343102E-1,1.9376966E-1,-4.712754E-1,-6.3589257E-1,-3.506788E-1,-5.093659E-2,1.0340558E0,1.8607897E-1,-6.2731735E-2,3.2134753E-1,-6.150125E-1,7.744259E-1,-2.9201323E-1,9.92539E-1,-5.212735E-1,8.473889E-1,-4.765145E-1,7.958822E-2,7.923077E-1,-4.704696E-1,4.3510008E-1,-6.014054E-1,-1.5556684E-1,-3.953298E-1,-6.598316E-1,2.0380728E-1,-6.389107E-1,5.5450386E-1,1.0579498E-1,6.56712E-2,-4.5604102E-2,5.1499474E-1,-3.8381842E-1,-2.550284E-1,-6.7329377E-1,9.924814E-2,2.7894227E-2,-5.8952022E-2,-1.8585002E-2,-4.882835E-2,1.0171298E-1,-6.468748E-2,6.938107E-2,8.9491576E-2,1.6312435E-2,-6.386543E-2,4.681785E-2,7.153454E-2,-9.339425E-3,1.6979575E-2,8.579534E-2,-5.6828703E-3,-6.398225E-2,2.3316976E-2,1.0344567E-1,-4.3036647E-2,-6.499242E-2,-6.0752966E-2,1.877368E-2,-5.381853E-2,1.1209555E-1,-6.742286E-2,-5.7302535E-2,-1.5025943E-2,1.04900755E-1,-6.595375E-2,4.584302E-2,-7.7301017E-3,7.97827E-2,6.987139E-2,-2.6274636E-2,-6.609116E-2,1.086965E-1,3.7104744E-2,-5.2249968E-2,2.017641E-3,-6.7522526E-2],"categories":[],"categories_nodes":[],"categories_segments":[],"categories_sizes":[],"default_left":[0,0,0,0,0,0,0,0,0,0,0,0,0,0,0,0,0,0,0,0,0,0,0,0,0,0,0,0,0,0,0,0,0,0,0,0,0,0,0,0,0,0,0,0,0,0,0,0,0,0,0,0,0,0,0,0,0,0,0,0,0,0,0,0,0,0,0,0,0,0,0,0,0,0,0,0,0,0,0,0,0,0,0,0,0,0,0,0,0,0,0,0,0,0,0],"id":10,"left_children":[1,3,5,7,9,11,13,15,17,19,21,23,25,27,-1,29,31,33,35,37,39,41,43,-1,45,47,-1,49,51,53,55,57,59,61,63,65,67,69,71,73,75,77,79,81,83,85,-1,-1,-1,87,89,91,93,-1,-1,-1,-1,-1,-1,-1,-1,-1,-1,-1,-1,-1,-1,-1,-1,-1,-1,-1,-1,-1,-1,-1,-1,-1,-1,-1,-1,-1,-1,-1,-1,-1,-1,-1,-1,-1,-1,-1,-1,-1,-1],"loss_changes":[2.471963E3,9.5729083E2,1.59021E2,5.9515625E2,7.684386E1,2.1169056E1,6.5683716E1,1.889594E2,5.2402954E2,7.459371E1,1.830072E1,7.6632156E0,2.0763886E0,1.3388622E2,0E0,6.0960373E1,4.243908E1,2.1403906E2,1.4866266E2,5.8763794E1,1.2781921E1,3.8751526E0,5.373298E1,0E0,2.1040344E-1,1.8052816E0,0E0,2.9153917E1,1.1313934E1,5.775879E0,4.0007668E1,6.575882E0,3.685111E0,1.23461426E2,1.9685518E1,2.0177269E2,1.4088928E1,6.8169765E0,3.2251705E1,1.5590744E0,1.4516564E1,1.5223736E1,4.281311E-1,3.4713337E1,5.3028107E0,8.922565E-1,0E0,0E0,0E0,2.4015793E1,1.9570887E1,1.3237368E1,6.439209E-1,0E0,0E0,0E0,0E0,0E0,0E0,0E0,0E0,0E0,0E0,0E0,0E0,0E0,0E0,0E0,0E0,0E0,0E0,0E0,0E0,0E0,0E0,0E0,0E0,0E0,0E0,0E0,0E0,0E0,0E0,0E0,0E0,0E0,0E0,0E0,0E0,0E0,0E0,0E0,0E0,0E0,0E0],"parents":[2147483647,0,0,1,1,2,2,3,3,4,4,5,5,6,6,7,7,8,8,9,9,10,10,11,11,12,12,13,13,15,15,16,16,17,17,18,18,19,19,20,20,21,21,22,22,24,24,25,25,27,27,28,28,29,29,30,30,31,31,32,32,33,33,34,34,35,35,36,36,37,37,38,38,39,39,40,40,41,41,42,42,43,43,44,44,45,45,49,49,50,50,51,51,52,52],"right_children":[2,4,6,8,10,12,14,16,18,20,22,24,26,28,-1,30,32,34,36,38,40,42,44,-1,46,48,-1,50,52,54,56,58,60,62,64,66,68,70,72,74,76,78,80,82,84,86,-1,-1,-1,88,90,92,94,-1,-1,-1,-1,-1,-1,-1,-1,-1,-1,-1,-1,-1,-1,-1,-1,-1,-1,-1,-1,-1,-1,-1,-1,-1,-1,-1,-1,-1,-1,-1,-1,-1,-1,-1,-1,-1,-1,-1,-1,-1,-1],"split_conditions":[6.91E1,1E1,2.9E1,5.2863437E-1,1.1E1,9.6E0,1.575E2,7E0,4E1,5.4341667E1,7E0,3.1007752E-1,3.147E1,9.2E0,-6.77383E-2,2.5E0,1E1,3E0,1E0,4.7244096E-1,2E0,3.27E0,5.4116665E1,-5.093659E-2,6.95E1,6.1283333E1,-6.2731735E-2,8E0,1.03E1,3.547E1,3.1007752E-1,2.5104603E-1,1.484E2,9E0,1E1,3.9E0,6.741573E-1,1.41E1,1E0,5.8158333E1,6.486486E-1,1E0,9.160305E-1,7.5E0,1.75E1,3.19E1,1.0579498E-1,6.56712E-2,-4.5604102E-2,1.1E1,3.68E1,6.2766666E1,5.6058334E1,9.924814E-2,2.7894227E-2,-5.8952022E-2,-1.8585002E-2,-4.882835E-2,1.0171298E-1,-6.468748E-2,6.938107E-2,8.9491576E-2,1.6312435E-2,-6.386543E-2,4.681785E-2,7.153454E-2,-9.339425E-3,1.6979575E-2,8.579534E-2,-5.6828703E-3,-6.398225E-2,2.3316976E-2,1.0344567E-1,-4.3036647E-2,-6.499242E-2,-6.0752966E-2,1.877368E-2,-5.381853E-2,1.1209555E-1,-6.742286E-2,-5.7302535E-2,-1.5025943E-2,1.04900755E-1,-6.595375E-2,4.584302E-2,-7.7301017E-3,7.97827E-2,6.987139E-2,-2.6274636E-2,-6.609116E-2,1.086965E-1,3.7104744E-2,-5.2249968E-2,2.017641E-3,-6.7522526E-2],"split_indices":[1,15,4,12,15,15,11,5,4,0,5,12,6,15,0,15,5,12,10,12,10,6,0,0,1,0,0,14,15,6,12,12,11,8,7,15,12,3,8,0,12,8,12,14,3,3,0,0,0,8,6,0,0,0,0,0,0,0,0,0,0,0,0,0,0,0,0,0,0,0,0,0,0,0,0,0,0,0,0,0,0,0,0,0,0,0,0,0,0,0,0,0,0,0,0],"split_type":[0,0,0,0,0,0,0,0,0,0,0,0,0,0,0,0,0,0,0,0,0,0,0,0,0,0,0,0,0,0,0,0,0,0,0,0,0,0,0,0,0,0,0,0,0,0,0,0,0,0,0,0,0,0,0,0,0,0,0,0,0,0,0,0,0,0,0,0,0,0,0,0,0,0,0,0,0,0,0,0,0,0,0,0,0,0,0,0,0,0,0,0,0,0,0],"sum_hessian":[1.39751045E4,9.344497E3,4.6306074E3,7.6161875E3,1.7283097E3,8.455535E1,4.5460522E3,1.5103368E3,6.105851E3,6.7670734E2,1.0516023E3,7.136096E1,1.3194383E1,7.5750006E2,3.7885522E3,1.3241857E3,1.8615115E2,3.9254116E3,2.1804392E3,3.6430676E2,3.1240054E2,7.172089E2,3.3439337E2,2.801306E0,6.855966E1,3.9827256E0,9.211657E0,2.1105074E2,5.464493E2,5.5021473E1,1.2691642E3,1.6594563E2,2.020551E1,3.799845E3,1.2556669E2,1.8331093E3,3.4733002E2,9.683315E1,2.6747363E2,2.2057722E2,9.182332E1,6.6496765E1,6.507122E2,1.1447159E2,2.199218E2,4.4027753E0,6.415688E1,2.2851393E0,1.6975863E0,1.6579193E2,4.525881E1,7.689147E1,4.6955783E2,3.7510548E1,1.7510925E1,3.3258636E2,9.365778E2,2.4026823E0,1.6354295E2,1.873639E1,1.4691204E0,3.5527727E3,2.4707224E2,1.07448944E2,1.8117748E1,3.9141574E2,1.4416935E3,3.3475163E1,3.1385486E2,2.8516865E1,6.831629E1,2.0110725E2,6.636637E1,5.092522E1,1.6965201E2,3.9306393E1,5.2516926E1,6.1360775E1,5.1359887E0,5.523382E2,9.837396E1,8.125494E1,3.3216652E1,2.162558E2,3.6659927E0,1.4138722E0,2.988903E0,1.3419405E2,3.159789E1,3.854722E1,6.711591E0,2.2900509E1,5.399096E1,1.2779881E0,4.6827985E2],"tree_param":{"num_deleted":"0","num_feature":"17","num_nodes":"95","size_leaf_vector":"1"}},{"base_weights":[-7.185536E-3,-6.4035034E-1,1.0955361E-1,-4.4579667E-1,-6.488698E-1,-6.0365474E-1,1.1530528E-1,-5.8795124E-1,-6.52111E-1,-6.2015253E-1,5.812316E-2,-6.2269944E-1,1.1189951E-1,-6.523439E-2,-9.6076064E-2,2.5023383E-3,-6.228883E-1,-5.220368E-2,4.789801E-1,-6.288759E-1,-3.2371137E-1,4.1267272E-2,-4.618088E-2,-6.362806E-2,-4.2331126E-2,-1.9079035E-2,1.0345288E-1,-5.8062818E-2,-6.636875E-2,9.0059005E-2,-5.9871454E-2],"categories":[],"categories_nodes":[],"categories_segments":[],"categories_sizes":[],"default_left":[0,0,0,0,0,0,0,0,0,0,0,0,0,0,0,0,0,0,0,0,0,0,0,0,0,0,0,0,0,0,0],"id":11,"left_children":[1,3,-1,5,7,9,-1,11,13,15,17,19,-1,-1,21,-1,23,-1,25,27,29,-1,-1,-1,-1,-1,-1,-1,-1,-1,-1],"loss_changes":[9.195424E3,1.3577637E1,0E0,9.008883E1,1.1989746E0,3.5626526E0,0E0,2.5309952E1,9.2163086E-1,5.720062E-1,2.3916073E0,5.48645E-1,0E0,0E0,1.0008066E0,0E0,5.697861E-1,0E0,2.2829108E0,2.831726E-1,4.008808E0,0E0,0E0,0E0,0E0,0E0,0E0,0E0,0E0,0E0,0E0],"parents":[2147483647,0,0,1,1,3,3,4,4,5,5,7,7,8,8,9,9,10,10,11,11,14,14,16,16,18,18,19,19,20,20],"right_children":[2,4,-1,6,8,10,-1,12,14,16,18,20,-1,-1,22,-1,24,-1,26,28,30,-1,-1,-1,-1,-1,-1,-1,-1,-1,-1],"split_conditions":[1.3E1,1.4E0,1.0955361E-1,1.33E1,2.5E0,1.521E2,1.1530528E-1,1.33E1,3.91E1,7.8E-1,7E0,6.95E1,1.1189951E-1,-6.523439E-2,4.9275E1,2.5023383E-3,3.776E1,-5.220368E-2,6.09E1,1E1,7E1,4.1267272E-2,-4.618088E-2,-6.362806E-2,-4.2331126E-2,-1.9079035E-2,1.0345288E-1,-5.8062818E-2,-6.636875E-2,9.0059005E-2,-5.9871454E-2],"split_indices":[5,15,0,14,15,11,0,14,3,6,5,1,0,0,0,0,6,0,1,7,1,0,0,0,0,0,0,0,0,0,0],"split_type":[0,0,0,0,0,0,0,0,0,0,0,0,0,0,0,0,0,0,0,0,0,0,0,0,0,0,0,0,0,0,0],"sum_hessian":[1.3168097E4,8.365298E3,4.802799E3,3.5318335E2,8.0121143E3,3.2201276E2,3.1170609E1,4.1396893E2,7.5981455E3,3.1424176E2,7.770987E0,4.0633246E2,7.636482E0,7.594791E3,3.3545315E0,1.2924821E0,3.1294928E2,3.1660743E0,4.6049128E0,3.9702728E2,9.305162E0,1.3492819E0,2.0052497E0,2.912193E2,2.172997E1,2.3855104E0,2.2194023E0,1.7381041E2,2.2321687E2,1.289506E0,8.015656E0],"tree_param":{"num_deleted":"0","num_feature":"17","num_nodes":"31","size_leaf_vector":"1"}},{"base_weights":[6.9544464E-3,3.46434E-1,-6.1889064E-1,1.513996E-1,7.693198E-1,1.2857187E-1,-6.588911E-1,-4.2063668E-1,2.6070505E-1,5.795021E-1,8.894259E-1,-4.1451532E-1,3.6359847E-1,-4.979755E-1,-6.7470425E-1,3.8787216E-1,-4.7020006E-1,1.5420781E-1,7.1843576E-1,6.987961E-1,-3.5519803E-1,8.1044626E-1,9.281077E-2,-4.9619237E-1,3.9133087E-1,4.3467903E-1,-5.413533E-1,-6.738349E-1,3.2572475E-1,-6.751584E-2,-3.2942596E-1,8.399952E-1,2.4861366E-2,-6.081358E-1,-2.6534867E-1,1.4762617E-2,6.174184E-1,8.468826E-1,-7.6903844E-1,8.024839E-1,6.306234E-2,-7.255421E-2,5.926949E-1,9.357565E-2,7.3994637E-1,-5.4052174E-1,-7.1832776E-2,-4.3553162E-2,6.3646245E-1,1.75302E-1,5.972906E-1,-6.667644E-2,2.9711306E-2,6.9689736E-2,-6.81544E-2,-2.2767651E-1,6.96855E-1,4.938957E-2,-5.6827612E-2,9.021639E-2,-1.2567528E-2,-2.381487E-2,9.523429E-2,-5.327409E-2,-7.030246E-2,9.533997E-3,-4.385681E-2,-7.353471E-3,7.212293E-2,7.065769E-2,1.1279448E-2,7.239678E-2,9.7562626E-2,-1.5017849E-3,-7.81764E-2,6.760711E-2,9.125309E-2,-7.2814986E-2,9.4033405E-2,8.0529325E-2,-7.237458E-3,8.076314E-2,-3.1515786E-3,6.734916E-3,-5.632795E-2,-4.5708653E-2,5.8139104E-2,-4.1924366E-3,8.255901E-2,-1.3592102E-2,5.715974E-2,9.0527914E-2,2.2937851E-2,1.3004209E-1,-5.249477E-2,9.557636E-2,5.130518E-3],"categories":[],"categories_nodes":[],"categories_segments":[],"categories_sizes":[],"default_left":[0,0,0,0,0,0,0,0,0,0,0,0,0,0,0,0,0,0,0,0,0,0,0,0,0,0,0,0,0,0,0,0,0,0,0,0,0,0,0,0,0,0,0,0,0,0,0,0,0,0,0,0,0,0,0,0,0,0,0,0,0,0,0,0,0,0,0,0,0,0,0,0,0,0,0,0,0,0,0,0,0,0,0,0,0,0,0,0,0,0,0,0,0,0,0,0,0],"id":12,"left_children":[1,3,5,7,9,11,13,15,17,19,21,23,25,27,29,31,33,35,37,39,41,43,-1,45,47,49,51,53,55,-1,57,59,61,63,65,67,69,71,73,75,77,-1,79,-1,81,83,85,-1,87,89,91,-1,-1,-1,-1,93,95,-1,-1,-1,-1,-1,-1,-1,-1,-1,-1,-1,-1,-1,-1,-1,-1,-1,-1,-1,-1,-1,-1,-1,-1,-1,-1,-1,-1,-1,-1,-1,-1,-1,-1,-1,-1,-1,-1,-1,-1],"loss_changes":[3.0135312E3,7.5832544E2,1.4922351E2,3.93687E2,6.565015E1,3.25988E1,1.1712402E1,4.066342E1,2.5753467E2,1.2597797E2,4.6724854E0,5.2788563E0,1.168272E1,6.2142426E1,4.5288086E-1,9.645828E0,2.67471E1,2.770296E2,1.9120245E2,6.588663E1,4.5464237E1,4.5343323E0,0E0,1.2889671E0,1.8315192E0,6.8781414E0,1.6077573E0,4.2009277E0,1.574397E1,0E0,1.7775688E0,1.6862316E0,8.447252E0,3.6913452E0,2.409433E1,2.0575658E2,4.4569397E1,1.38289795E1,7.539711E-1,1.1345947E1,9.880017E1,0E0,5.2319517E0,0E0,2.004538E1,9.199028E-1,2.2360182E0,0E0,8.4563327E-1,8.120747E0,1.1276062E1,0E0,0E0,0E0,0E0,1.486254E1,7.5839043E0,0E0,0E0,0E0,0E0,0E0,0E0,0E0,0E0,0E0,0E0,0E0,0E0,0E0,0E0,0E0,0E0,0E0,0E0,0E0,0E0,0E0,0E0,0E0,0E0,0E0,0E0,0E0,0E0,0E0,0E0,0E0,0E0,0E0,0E0,0E0,0E0,0E0,0E0,0E0,0E0],"parents":[2147483647,0,0,1,1,2,2,3,3,4,4,5,5,6,6,7,7,8,8,9,9,10,10,11,11,12,12,13,13,14,14,15,15,16,16,17,17,18,18,19,19,20,20,21,21,23,23,24,24,25,25,26,26,27,27,28,28,30,30,31,31,32,32,33,33,34,34,35,35,36,36,37,37,38,38,39,39,40,40,42,42,44,44,45,45,46,46,48,48,49,49,50,50,55,55,56,56],"right_children":[2,4,6,8,10,12,14,16,18,20,22,24,26,28,30,32,34,36,38,40,42,44,-1,46,48,50,52,54,56,-1,58,60,62,64,66,68,70,72,74,76,78,-1,80,-1,82,84,86,-1,88,90,92,-1,-1,-1,-1,94,96,-1,-1,-1,-1,-1,-1,-1,-1,-1,-1,-1,-1,-1,-1,-1,-1,-1,-1,-1,-1,-1,-1,-1,-1,-1,-1,-1,-1,-1,-1,-1,-1,-1,-1,-1,-1,-1,-1,-1,-1],"split_conditions":[2.36E1,9.8E0,5.25E1,3.6E0,5.4441666E1,4.1E0,7E0,1E0,1.1E1,8E0,1.11E1,6.3E1,3.67E0,4.18E0,3.985E1,6.45E1,2.6E0,1.2E1,7E0,1E0,1.11E1,1.14E2,9.281077E-2,4E0,5.1325E1,5.6E0,4.97E1,1.2E1,3.9E0,-6.751584E-2,5.8758335E1,1.539E2,6.88E1,7E0,1.72E1,8E0,1.52E1,7.3E0,6.15E1,1.14E1,4E0,-7.255421E-2,9.741667E0,9.357565E-2,7E0,4.37E1,2.63E1,-4.3553162E-2,1.11E0,2.63E1,1.19E0,-6.667644E-2,2.9711306E-2,6.9689736E-2,-6.81544E-2,6.07E1,2.53E1,4.938957E-2,-5.6827612E-2,9.021639E-2,-1.2567528E-2,-2.381487E-2,9.523429E-2,-5.327409E-2,-7.030246E-2,9.533997E-3,-4.385681E-2,-7.353471E-3,7.212293E-2,7.065769E-2,1.1279448E-2,7.239678E-2,9.7562626E-2,-1.5017849E-3,-7.81764E-2,6.760711E-2,9.125309E-2,-7.2814986E-2,9.4033405E-2,8.0529325E-2,-7.237458E-3,8.076314E-2,-3.1515786E-3,6.734916E-3,-5.632795E-2,-4.5708653E-2,5.8139104E-2,-4.1924366E-3,8.255901E-2,-1.3592102E-2,5.715974E-2,9.0527914E-2,2.2937851E-2,1.3004209E-1,-5.249477E-2,9.557636E-2,5.130518E-3],"split_indices":[3,15,11,15,0,15,5,7,8,14,15,1,6,6,6,1,15,7,5,8,14,11,0,15,0,15,11,4,15,0,0,11,1,5,3,14,14,15,1,15,6,0,2,0,5,11,3,0,6,3,6,0,0,0,0,1,3,0,0,0,0,0,0,0,0,0,0,0,0,0,0,0,0,0,0,0,0,0,0,0,0,0,0,0,0,0,0,0,0,0,0,0,0,0,0,0,0],"split_type":[0,0,0,0,0,0,0,0,0,0,0,0,0,0,0,0,0,0,0,0,0,0,0,0,0,0,0,0,0,0,0,0,0,0,0,0,0,0,0,0,0,0,0,0,0,0,0,0,0,0,0,0,0,0,0,0,0,0,0,0,0,0,0,0,0,0,0,0,0,0,0,0,0,0,0,0,0,0,0,0,0,0,0,0,0,0,0,0,0,0,0,0,0,0,0,0,0],"sum_hessian":[1.4181877E4,9.19477E3,4.9871074E3,6.2935503E3,2.9012195E3,2.5321577E2,4.7338916E3,1.00919696E3,5.284353E3,1.1265797E3,1.7746399E3,7.625228E1,1.7696349E2,4.2648096E2,4.3074106E3,5.789828E1,9.512987E2,4.2880234E3,9.9632965E2,9.9929407E2,1.272856E2,5.906385E2,1.1840013E3,6.9583824E1,6.6684546E0,1.6455777E2,1.2405729E1,3.5159717E2,7.488379E1,4.300799E3,6.611981E0,2.5199194E1,3.2699085E1,5.673246E2,3.8397412E2,3.2966345E3,9.91389E2,9.1752954E2,7.880014E1,8.589393E2,1.4035477E2,9.169479E1,3.5590805E1,2.082359E2,3.824026E2,6.2754627E1,6.8291993E0,1.3472543E0,5.3212004E0,6.421242E1,1.00345345E2,1.0969744E1,1.4359856E0,1.4663827E0,3.5013077E2,3.0215403E1,4.4668385E1,1.2467164E0,5.365265E0,2.3736813E1,1.4623817E0,2.6054054E1,6.6450334E0,3.198213E2,2.475033E2,1.2472121E2,2.5925293E2,2.9311787E3,3.6545572E2,8.421883E2,1.4920068E2,4.7277884E2,4.447507E2,1.3440186E0,7.745612E1,4.030698E2,4.558695E2,7.3886475E1,6.64683E1,2.6809843E1,8.780963E0,3.5151517E2,3.0887405E1,2.1939409E0,6.0560688E1,4.4845777E0,2.344622E0,1.3297644E0,3.9914362E0,3.633469E1,2.7877731E1,5.382581E1,4.651953E1,4.3711824E0,2.5844221E1,3.1538713E1,1.3129671E1],"tree_param":{"num_deleted":"0","num_feature":"17","num_nodes":"97","size_leaf_vector":"1"}},{"base_weights":[3.5678116E-3,2.856723E-1,-5.457121E-1,4.5095643E-1,-4.70707E-1,-1.9074823E-1,-6.583E-1,-2.9023763E-2,6.358257E-1,-5.9841174E-1,-1.6459826E-1,6.711616E-1,-2.7195662E-1,-7.6089287E-3,-6.585148E-2,-1.8138845E-1,8.241611E-1,7.1221787E-1,-3.49398E-2,-4.1617957E-1,-6.469738E-1,7.968977E-2,-5.719408E-1,1.0515355E0,-7.057329E-2,3.5459977E-2,-5.7085234E-1,7.776073E-1,-2.3373395E-1,9.555817E-1,-4.5114526E-1,7.6882833E-1,-1.478627E-1,-2.4880114E-1,1.1143619E0,-4.8447308E-1,6.5789235E-1,-1.9368269E-1,-6.4795434E-1,-4.0943915E-1,3.6417624E-1,-5.942585E-1,2.9798485E-2,-5.8511745E-2,1.1021351E0,-5.988954E-1,5.191298E-1,-1.9585241E-1,-6.5869266E-1,1.0551222E-1,5.2399307E-2,-5.6767672E-2,-1.0281743E-2,9.6885405E-2,-5.3608138E-2,5.2440155E-2,-6.2387127E-2,8.068954E-2,1.1598808E-2,-4.7960687E-2,2.7539963E-2,3.9720614E-2,-4.9505454E-2,1.1369995E-1,-3.4285408E-2,-5.5861153E-2,-4.5036874E-3,9.473949E-2,-5.309052E-2,-3.687091E-2,6.6567347E-3,-6.540157E-2,-5.5087425E-2,-2.3164377E-2,-6.0548127E-2,4.9721304E-2,-6.1783135E-2,-4.8822176E-2,-6.64675E-2,8.6625904E-2,-5.504318E-2,1.15268506E-1,3.127618E-2,8.542853E-2,-6.1541893E-2,-2.7767522E-2,7.5503886E-2,5.5758398E-2,-6.153031E-2,-6.744947E-2,-2.0727008E-3],"categories":[],"categories_nodes":[],"categories_segments":[],"categories_sizes":[],"default_left":[0,0,0,0,0,0,0,0,0,0,0,0,0,0,0,0,0,0,0,0,0,0,0,0,0,0,0,0,0,0,0,0,0,0,0,0,0,0,0,0,0,0,0,0,0,0,0,0,0,0,0,0,0,0,0,0,0,0,0,0,0,0,0,0,0,0,0,0,0,0,0,0,0,0,0,0,0,0,0,0,0,0,0,0,0,0,0,0,0,0,0],"id":13,"left_children":[1,3,5,7,9,11,13,15,17,19,21,23,25,-1,-1,27,29,31,33,35,37,39,41,43,-1,45,47,49,51,53,55,57,59,61,63,65,67,69,71,73,75,77,79,-1,81,83,85,87,89,-1,-1,-1,-1,-1,-1,-1,-1,-1,-1,-1,-1,-1,-1,-1,-1,-1,-1,-1,-1,-1,-1,-1,-1,-1,-1,-1,-1,-1,-1,-1,-1,-1,-1,-1,-1,-1,-1,-1,-1,-1,-1],"loss_changes":[2.1234912E3,1.1321147E3,1.8571082E2,6.593795E2,6.3392212E1,7.865648E1,3.9135742E-1,2.688727E2,2.7491455E2,9.869415E0,4.775948E1,5.1453323E1,9.423238E1,0E0,0E0,8.826967E1,5.2958588E1,2.346106E2,1.3532765E2,1.8206783E1,2.7578735E-1,4.19799E1,2.4333725E0,6.961029E0,0E0,1.55683E2,1.6997345E1,5.855755E0,7.272069E1,6.1508484E0,5.3752685E0,1.12208984E2,4.2012497E1,7.4021225E1,3.2394257E0,7.463558E0,5.6664047E0,1.7827894E-1,1.6958618E-1,3.7293167E0,2.5207441E1,9.7091675E-1,4.0611014E0,0E0,2.6054E0,5.7972107E0,5.4319717E1,3.1976725E1,4.2284546E0,0E0,0E0,0E0,0E0,0E0,0E0,0E0,0E0,0E0,0E0,0E0,0E0,0E0,0E0,0E0,0E0,0E0,0E0,0E0,0E0,0E0,0E0,0E0,0E0,0E0,0E0,0E0,0E0,0E0,0E0,0E0,0E0,0E0,0E0,0E0,0E0,0E0,0E0,0E0,0E0,0E0,0E0],"parents":[2147483647,0,0,1,1,2,2,3,3,4,4,5,5,6,6,7,7,8,8,9,9,10,10,11,11,12,12,15,15,16,16,17,17,18,18,19,19,20,20,21,21,22,22,23,23,25,25,26,26,27,27,28,28,29,29,30,30,31,31,32,32,33,33,34,34,35,35,36,36,37,37,38,38,39,39,40,40,41,41,42,42,44,44,45,45,46,46,47,47,48,48],"right_children":[2,4,6,8,10,12,14,16,18,20,22,24,26,-1,-1,28,30,32,34,36,38,40,42,44,-1,46,48,50,52,54,56,58,60,62,64,66,68,70,72,74,76,78,80,-1,82,84,86,88,90,-1,-1,-1,-1,-1,-1,-1,-1,-1,-1,-1,-1,-1,-1,-1,-1,-1,-1,-1,-1,-1,-1,-1,-1,-1,-1,-1,-1,-1,-1,-1,-1,-1,-1,-1,-1,-1,-1,-1,-1,-1,-1],"split_conditions":[7.7E1,1.02E1,2.3E1,5.970149E-1,6E0,3.2E0,4.9275E1,7E0,1.1E1,1.11E1,1.17E1,1.33E1,5.4925E1,-7.6089287E-3,-6.585148E-2,2.5E0,1E1,3E0,7E0,7E0,2.79E0,5.91133E-1,2.07E1,2.2E0,-7.057329E-2,5.1725E1,8E0,1.5E0,2E0,2.2E0,3.3E0,6.1E1,1E1,5.5E0,6.8E1,4E0,2.2E0,1.15E1,7E0,3.56E0,1.11E1,5.3658333E1,1.1891666E1,-5.8511745E-2,3E0,4.7391666E1,8.1E0,9.8E0,1.445E2,1.0551222E-1,5.2399307E-2,-5.6767672E-2,-1.0281743E-2,9.6885405E-2,-5.3608138E-2,5.2440155E-2,-6.2387127E-2,8.068954E-2,1.1598808E-2,-4.7960687E-2,2.7539963E-2,3.9720614E-2,-4.9505454E-2,1.1369995E-1,-3.4285408E-2,-5.5861153E-2,-4.5036874E-3,9.473949E-2,-5.309052E-2,-3.687091E-2,6.6567347E-3,-6.540157E-2,-5.5087425E-2,-2.3164377E-2,-6.0548127E-2,4.9721304E-2,-6.1783135E-2,-4.8822176E-2,-6.64675E-2,8.6625904E-2,-5.504318E-2,1.15268506E-1,3.127618E-2,8.542853E-2,-6.1541893E-2,-2.7767522E-2,7.5503886E-2,5.5758398E-2,-6.153031E-2,-6.744947E-2,-2.0727008E-3],"split_indices":[4,15,3,12,7,15,0,5,8,15,15,14,0,0,0,15,5,12,5,5,6,12,3,14,0,0,14,15,7,14,15,4,7,15,4,7,14,15,5,6,14,0,2,0,15,0,14,15,11,0,0,0,0,0,0,0,0,0,0,0,0,0,0,0,0,0,0,0,0,0,0,0,0,0,0,0,0,0,0,0,0,0,0,0,0,0,0,0,0,0,0],"split_type":[0,0,0,0,0,0,0,0,0,0,0,0,0,0,0,0,0,0,0,0,0,0,0,0,0,0,0,0,0,0,0,0,0,0,0,0,0,0,0,0,0,0,0,0,0,0,0,0,0,0,0,0,0,0,0,0,0,0,0,0,0,0,0,0,0,0,0,0,0,0,0,0,0,0,0,0,0,0,0,0,0,0,0,0,0,0,0,0,0,0,0],"sum_hessian":[1.3701975E4,9.052952E3,4.6490225E3,7.4297954E3,1.6231565E3,1.1201473E3,3.5288752E3,2.0661772E3,5.3636187E3,1.1446627E3,4.7849377E2,9.582618E1,1.0243212E3,1.4324666E0,3.5274429E3,1.7537703E3,3.1240692E2,4.815167E3,5.4845166E2,2.4286543E2,9.0179724E2,2.9961536E2,1.7887842E2,7.526904E1,2.055714E1,5.0539734E2,5.189239E2,9.005539E1,1.6637148E3,2.834482E2,2.89587E1,4.517905E3,2.9726212E2,4.630678E2,8.538384E1,2.2886244E2,1.4002993E1,2.3750336E0,8.994222E2,1.1001793E2,1.8959743E2,1.7249332E2,6.3851037E0,1.9404743E0,7.332857E1,2.1853731E2,2.8686002E2,9.909716E1,4.1982672E2,4.1492416E1,4.8562973E1,4.6760605E2,1.1961088E3,2.8129584E2,2.152397E0,4.049774E0,2.4908926E1,4.268758E3,2.4914694E2,1.6657275E2,1.3068936E2,1.2763205E2,3.3543576E2,8.42941E1,1.0897464E0,1.9559233E2,3.3270107E1,1.1424018E1,2.5789747E0,1.17085E0,1.2041836E0,8.41166E2,5.825616E1,5.8837955E1,5.117997E1,1.674112E2,2.2186241E1,7.200218E1,1.00491135E2,2.4132307E0,3.971873E0,6.84828E1,4.8457627E0,1.8869488E0,2.1665036E2,6.5488716E1,2.213713E2,3.532159E1,6.377557E1,4.096233E2,1.0203408E1],"tree_param":{"num_deleted":"0","num_feature":"17","num_nodes":"91","size_leaf_vector":"1"}},{"base_weights":[-7.901695E-3,-6.2523687E-1,9.987298E-2,-4.2595094E-1,-6.3395596E-1,-5.8337045E-1,1.07974924E-1,-5.6718105E-1,-6.375452E-2,-5.972454E-1,-3.5839908E-2,-6.067967E-1,1.06744245E-1,1.4038197E-2,-6.03085E-1,-5.3469777E-2,4.774522E-1,-6.1305594E-1,-3.198177E-1,-6.1990764E-2,-3.942981E-2,1.0309354E-1,-4.1112404E-2,-9.00858E-3,-6.154185E-2,8.2929924E-2,-5.852453E-2],"categories":[],"categories_nodes":[],"categories_segments":[],"categories_sizes":[],"default_left":[0,0,0,0,0,0,0,0,0,0,0,0,0,0,0,0,0,0,0,0,0,0,0,0,0,0,0],"id":14,"left_children":[1,3,-1,5,7,9,-1,11,-1,13,15,17,-1,-1,19,-1,21,23,25,-1,-1,-1,-1,-1,-1,-1,-1],"loss_changes":[7.9570815E3,1.352124E1,0E0,8.02113E1,1.4604492E0,2.2927704E0,0E0,2.634639E1,0E0,1.36409E0,2.4554567E0,5.010681E-1,0E0,0E0,7.9128265E-1,0E0,2.7664428E0,4.124756E-1,3.649684E0,0E0,0E0,0E0,0E0,0E0,0E0,0E0,0E0],"parents":[2147483647,0,0,1,1,3,3,4,4,5,5,7,7,9,9,10,10,11,11,14,14,16,16,17,17,18,18],"right_children":[2,4,-1,6,8,10,-1,12,-1,14,16,18,-1,-1,20,-1,22,24,26,-1,-1,-1,-1,-1,-1,-1,-1],"split_conditions":[1E0,1.4E0,9.987298E-2,1.33E1,2.5E0,1.521E2,1.07974924E-1,1.33E1,-6.375452E-2,7.8E-1,1.0084034E0,6.95E1,1.06744245E-1,1.4038197E-2,3.776E1,-5.3469777E-2,7E-1,5.2E1,7E1,-6.1990764E-2,-3.942981E-2,1.0309354E-1,-4.1112404E-2,-9.00858E-3,-6.154185E-2,8.2929924E-2,-5.852453E-2],"split_indices":[9,15,0,14,15,11,0,14,0,6,12,1,0,0,6,0,15,1,1,0,0,0,0,0,0,0,0],"split_type":[0,0,0,0,0,0,0,0,0,0,0,0,0,0,0,0,0,0,0,0,0,0,0,0,0,0,0],"sum_hessian":[1.2802485E4,7.9359795E3,4.866506E3,3.3474884E2,7.6012305E3,3.0361838E2,3.1130451E1,3.958495E2,7.2053813E3,2.96026E2,7.592384E0,3.8709683E2,8.75264E0,2.1441822E0,2.938818E2,3.8291807E0,3.7632031E0,3.777222E2,9.374638E0,2.7014618E2,2.3735645E1,2.220112E0,1.5430912E0,1.8747112E0,3.758475E2,1.3604493E0,8.014189E0],"tree_param":{"num_deleted":"0","num_feature":"17","num_nodes":"27","size_leaf_vector":"1"}},{"base_weights":[7.837113E-3,2.957854E-1,-5.353689E-1,9.501366E-2,6.9106305E-1,3.158307E-1,-6.25932E-1,5.1101786E-1,-4.0933184E-2,4.9048546E-1,8.184037E-1,6.6151196E-1,-2.8470695E-1,-6.4047945E-1,7.0757234E-1,6.014618E-1,-3.756786E-1,-3.2647943E-1,1.71114E-1,1.9848001E-1,7.1922165E-1,7.313163E-1,8.624331E-1,-8.989068E-2,7.458585E-1,9.8406926E-2,-4.1411778E-1,8.757582E-2,-6.490474E-1,8.981569E-1,-6.1505873E-2,-3.9422557E-1,6.302989E-1,-5.924482E-1,6.9123006E-1,-3.9026758E-1,8.6703056E-1,-4.865507E-1,2.9704824E-1,5.675606E-1,-1.2793902E-1,8.148853E-1,4.9423903E-1,7.896133E-1,-5.1880634E-1,3.0182106E-2,8.630976E-1,-5.511081E-1,1.1725102E-1,8.059066E-1,4.352216E-1,-5.9879553E-1,6.872721E-2,-1.786264E-2,-6.520975E-1,-1.4698952E-2,9.499001E-2,-6.2902756E-2,-2.0957568E-3,6.669354E-2,7.7425423E-3,7.913614E-2,-6.423473E-2,8.759301E-2,-5.1120427E-2,-1.5021393E-2,-5.453214E-2,9.371576E-2,2.2634414E-3,-6.3194856E-2,-1.9710017E-2,4.4844255E-2,-3.4168176E-2,8.8231675E-2,3.6511514E-2,9.315181E-2,-2.0943662E-2,8.1868E-2,-3.7081588E-2,8.267164E-2,2.185191E-2,8.399343E-2,5.2172568E-2,-6.631372E-2,5.5137046E-2,8.636216E-2,3.397232E-2,-6.2983885E-2,-1.3368872E-2,-6.014351E-2,2.8875425E-2,2.8296107E-2,8.376747E-2,5.5343863E-2,-6.0949303E-2,-6.458803E-2,-8.807646E-3,5.224442E-2,-5.2354384E-2,-2.994666E-2,8.553745E-2,1.3028391E-2,-6.5246575E-2],"categories":[],"categories_nodes":[],"categories_segments":[],"categories_sizes":[],"default_left":[0,0,0,0,0,0,0,0,0,0,0,0,0,0,0,0,0,0,0,0,0,0,0,0,0,0,0,0,0,0,0,0,0,0,0,0,0,0,0,0,0,0,0,0,0,0,0,0,0,0,0,0,0,0,0,0,0,0,0,0,0,0,0,0,0,0,0,0,0,0,0,0,0,0,0,0,0,0,0,0,0,0,0,0,0,0,0,0,0,0,0,0,0,0,0,0,0,0,0,0,0,0,0],"id":15,"left_children":[1,3,5,7,9,11,13,15,17,19,21,23,25,27,29,31,33,35,37,39,41,43,45,47,49,-1,51,-1,53,55,-1,57,59,61,63,65,67,69,71,73,75,77,79,81,83,-1,85,87,89,91,93,95,97,99,101,-1,-1,-1,-1,-1,-1,-1,-1,-1,-1,-1,-1,-1,-1,-1,-1,-1,-1,-1,-1,-1,-1,-1,-1,-1,-1,-1,-1,-1,-1,-1,-1,-1,-1,-1,-1,-1,-1,-1,-1,-1,-1,-1,-1,-1,-1,-1,-1],"loss_changes":[2.1556096E3,7.147235E2,3.6824768E2,3.3788675E2,7.7083984E1,9.5638855E1,8.417334E1,1.1823697E2,2.7274814E2,7.871002E1,6.47876E0,1.8580963E1,2.81028E1,5.6034912E1,1.2411846E1,3.860019E1,3.205227E1,1.4647722E2,2.1424828E2,6.271319E1,1.3837128E1,4.6264374E1,1.9610596E-1,2.966464E0,4.550247E0,0E0,1.3752644E1,0E0,8.16333E0,2.385456E0,0E0,3.335785E0,2.6249817E1,8.397678E0,5.6814804E0,6.776697E1,5.763954E0,1.7376106E1,2.1001714E2,1.5239197E1,2.4089378E1,2.3853455E0,1.81474E1,7.67099E0,4.788958E0,0E0,4.23584E-2,2.3093104E-1,2.8588014E0,3.4013367E0,5.862423E0,2.6202393E0,1.1946424E1,5.530657E0,1.3022461E0,0E0,0E0,0E0,0E0,0E0,0E0,0E0,0E0,0E0,0E0,0E0,0E0,0E0,0E0,0E0,0E0,0E0,0E0,0E0,0E0,0E0,0E0,0E0,0E0,0E0,0E0,0E0,0E0,0E0,0E0,0E0,0E0,0E0,0E0,0E0,0E0,0E0,0E0,0E0,0E0,0E0,0E0,0E0,0E0,0E0,0E0,0E0,0E0],"parents":[2147483647,0,0,1,1,2,2,3,3,4,4,5,5,6,6,7,7,8,8,9,9,10,10,11,11,12,12,13,13,14,14,15,15,16,16,17,17,18,18,19,19,20,20,21,21,22,22,23,23,24,24,26,26,28,28,29,29,31,31,32,32,33,33,34,34,35,35,36,36,37,37,38,38,39,39,40,40,41,41,42,42,43,43,44,44,46,46,47,47,48,48,49,49,50,50,51,51,52,52,53,53,54,54],"right_children":[2,4,6,8,10,12,14,16,18,20,22,24,26,28,30,32,34,36,38,40,42,44,46,48,50,-1,52,-1,54,56,-1,58,60,62,64,66,68,70,72,74,76,78,80,82,84,-1,86,88,90,92,94,96,98,100,102,-1,-1,-1,-1,-1,-1,-1,-1,-1,-1,-1,-1,-1,-1,-1,-1,-1,-1,-1,-1,-1,-1,-1,-1,-1,-1,-1,-1,-1,-1,-1,-1,-1,-1,-1,-1,-1,-1,-1,-1,-1,-1,-1,-1,-1,-1,-1,-1],"split_conditions":[1.4083333E1,9.6E0,1.3E1,5.4298645E-1,1.1E1,8.2758623E-1,1.1E1,7E0,3.7E1,5.3875E1,5.4341667E1,3.8E0,1.2E1,2.5104603E-1,7E0,2.1E0,1E1,2.9268293E0,3.6E0,3E0,2E0,8E0,5.76E1,2.6E0,3.67E1,9.8406926E-2,5.6E0,8.757582E-2,3.883495E-1,3.1E0,-6.1505873E-2,1.5E0,3E0,2.8846154E-1,4.63E1,7.94702E-1,7E0,2.6E0,1E0,1.3E1,3.1007752E-1,1.12E2,6.486486E-1,5.01E1,1.11E1,3.0182106E-2,1.395E1,7.2727275E-1,1.4225E1,4.44E1,7.3619634E-1,5.2266666E1,5.76E1,4.07E1,4.37E1,-1.4698952E-2,9.499001E-2,-6.2902756E-2,-2.0957568E-3,6.669354E-2,7.7425423E-3,7.913614E-2,-6.423473E-2,8.759301E-2,-5.1120427E-2,-1.5021393E-2,-5.453214E-2,9.371576E-2,2.2634414E-3,-6.3194856E-2,-1.9710017E-2,4.4844255E-2,-3.4168176E-2,8.8231675E-2,3.6511514E-2,9.315181E-2,-2.0943662E-2,8.1868E-2,-3.7081588E-2,8.267164E-2,2.185191E-2,8.399343E-2,5.2172568E-2,-6.631372E-2,5.5137046E-2,8.636216E-2,3.397232E-2,-6.2983885E-2,-1.3368872E-2,-6.014351E-2,2.8875425E-2,2.8296107E-2,8.376747E-2,5.5343863E-2,-6.0949303E-2,-6.458803E-2,-8.807646E-3,5.224442E-2,-5.2354384E-2,-2.994666E-2,8.553745E-2,1.3028391E-2,-6.5246575E-2],"split_indices":[2,15,4,12,15,12,8,5,4,0,0,15,4,12,5,15,5,12,15,5,10,14,1,15,13,0,15,0,12,15,0,15,10,12,13,12,5,15,10,4,12,4,12,11,14,0,2,12,2,11,12,0,1,13,11,0,0,0,0,0,0,0,0,0,0,0,0,0,0,0,0,0,0,0,0,0,0,0,0,0,0,0,0,0,0,0,0,0,0,0,0,0,0,0,0,0,0,0,0,0,0,0,0],"split_type":[0,0,0,0,0,0,0,0,0,0,0,0,0,0,0,0,0,0,0,0,0,0,0,0,0,0,0,0,0,0,0,0,0,0,0,0,0,0,0,0,0,0,0,0,0,0,0,0,0,0,0,0,0,0,0,0,0,0,0,0,0,0,0,0,0,0,0,0,0,0,0,0,0,0,0,0,0,0,0,0,0,0,0,0,0,0,0,0,0,0,0,0,0,0,0,0,0,0,0,0,0,0,0],"sum_hessian":[1.3779314E4,9.005854E3,4.7734604E3,5.973168E3,3.0326858E3,4.587928E2,4.314668E3,1.4705258E3,4.502642E3,1.1795686E3,1.8531172E3,2.91118E2,1.6767477E2,4.26862E3,4.6047577E1,1.334706E3,1.3581973E2,1.9185505E3,2.5840916E3,5.1894696E2,6.606217E2,6.28195E2,1.2249221E3,2.937394E1,2.6174408E2,1.49080715E1,1.5276671E2,2.3416672E1,4.2452036E3,4.0528545E1,5.519031E0,3.7211006E1,1.297495E3,1.1325401E2,2.256572E1,1.821853E3,9.669748E1,4.14836E2,2.1692556E3,2.432108E2,2.7573615E2,4.6168793E2,1.9893379E2,6.0055756E2,2.7637434E1,1.9892088E0,1.222933E3,8.589097E0,2.0784842E1,2.1800748E2,4.3736607E1,1.10328354E2,4.2438347E1,2.0449167E1,4.2247544E3,1.8250053E0,3.870354E1,2.2421629E1,1.4789377E1,1.2166658E3,8.082932E1,3.424559E0,1.0982945E2,1.9796425E1,2.7692957E0,7.157308E2,1.1061223E3,8.918113E1,7.516343E0,2.7534192E2,1.3949406E2,1.7538492E3,4.154063E2,9.388419E1,1.493266E2,1.895063E1,2.5678552E2,4.6052362E2,1.1643002E0,8.927862E1,1.09655174E2,5.0378882E2,9.676874E1,2.4688177E1,2.9492564E0,1.2210604E3,1.8725715E0,6.798016E0,1.7910812E0,3.5214255E0,1.7263416E1,1.3052543E1,2.0495494E2,3.971304E1,4.0235677E0,1.0077312E2,9.555242E0,2.4096672E1,1.8341675E1,1.5959548E1,4.4896193E0,1.8214538E0,4.222933E3],"tree_param":{"num_deleted":"0","num_feature":"17","num_nodes":"103","size_leaf_vector":"1"}},{"base_weights":[5.457079E-3,2.5976893E-1,-5.584622E-1,3.6770132E-1,-4.2473844E-1,6.797814E-1,-5.8511895E-1,-1.15016066E-1,4.9363038E-1,-5.5629873E-1,-1.8739218E-1,8.023044E-1,-5.732723E-2,-3.1475466E-1,-6.4193174E-2,-2.3508321E-1,7.1078867E-1,6.954469E-1,1.9225177E-1,-6.0670006E-1,-3.6125338E-1,3.2257774E-1,-5.737038E-1,-5.50881E-2,8.851459E-1,2.107468E-1,-6.1636806E-1,-5.020121E-1,-8.61353E-2,8.6754835E-1,-4.742578E-1,7.360453E-1,-4.729173E-1,8.502199E-2,6.555325E-1,-5.051092E-1,-6.310545E-2,-4.90369E-1,5.8188164E-1,-4.0358707E-1,5.949274E-1,-6.052513E-1,8.548732E-1,-1.23618385E-2,9.1051435E-1,3.8303575E-1,-4.1292605E-1,-3.6558947E-1,-6.3657165E-1,-5.8395356E-2,-3.2412004E-2,-5.1081367E-2,1.0432052E-2,8.863067E-2,-5.2298732E-2,4.7701277E-2,-6.400777E-2,4.344533E-2,8.1260756E-2,-6.205408E-2,3.3249043E-2,4.8365682E-2,-1.1646625E-2,7.223396E-2,1.0534427E-2,-5.6197256E-2,-2.1796655E-2,-5.1982608E-2,1.6182525E-2,7.313809E-2,-2.6215602E-2,-6.123624E-2,9.945021E-2,3.315277E-2,9.0316385E-2,-6.226177E-2,1.7812133E-2,1.015169E-1,1.00845825E-2,9.185675E-2,2.9355396E-2,5.4825176E-2,-3.0262753E-2,-6.413554E-2,2.7777253E-2,-6.282679E-2,-1.792278E-2,2.3480526E-3,-6.385873E-2],"categories":[],"categories_nodes":[],"categories_segments":[],"categories_sizes":[],"default_left":[0,0,0,0,0,0,0,0,0,0,0,0,0,0,0,0,0,0,0,0,0,0,0,0,0,0,0,0,0,0,0,0,0,0,0,0,0,0,0,0,0,0,0,0,0,0,0,0,0,0,0,0,0,0,0,0,0,0,0,0,0,0,0,0,0,0,0,0,0,0,0,0,0,0,0,0,0,0,0,0,0,0,0,0,0,0,0,0,0],"id":16,"left_children":[1,3,5,7,9,11,13,15,17,19,21,23,-1,25,-1,27,29,31,33,35,37,39,41,-1,43,45,47,49,51,53,55,57,59,61,63,65,-1,67,69,71,73,75,77,-1,79,81,83,85,87,-1,-1,-1,-1,-1,-1,-1,-1,-1,-1,-1,-1,-1,-1,-1,-1,-1,-1,-1,-1,-1,-1,-1,-1,-1,-1,-1,-1,-1,-1,-1,-1,-1,-1,-1,-1,-1,-1,-1,-1],"loss_changes":[1.9216279E3,6.8242566E2,1.3786218E2,4.849945E2,3.9185486E1,1.40055275E1,6.2427612E1,1.6390259E2,3.847036E2,7.7340393E0,8.888427E1,9.543823E0,0E0,1.126611E2,0E0,5.7307953E1,3.9398224E1,1.8008044E2,1.26076004E2,1.2682495E0,2.0816643E1,3.8745598E1,1.2078941E1,0E0,2.070507E0,2.805762E1,2.0540314E0,7.338562E0,7.5036446E1,5.3074646E0,4.274834E0,8.421118E1,1.5407587E1,1.657524E2,1.7459259E1,1.9845467E0,0E0,2.9436493E0,2.811254E0,1.6283457E1,1.1229233E1,3.5334625E0,6.176591E-1,0E0,1.0176468E-1,2.32714E1,9.121287E0,1.649683E0,5.689087E-1,0E0,0E0,0E0,0E0,0E0,0E0,0E0,0E0,0E0,0E0,0E0,0E0,0E0,0E0,0E0,0E0,0E0,0E0,0E0,0E0,0E0,0E0,0E0,0E0,0E0,0E0,0E0,0E0,0E0,0E0,0E0,0E0,0E0,0E0,0E0,0E0,0E0,0E0,0E0,0E0],"parents":[2147483647,0,0,1,1,2,2,3,3,4,4,5,5,6,6,7,7,8,8,9,9,10,10,11,11,13,13,15,15,16,16,17,17,18,18,19,19,20,20,21,21,22,22,24,24,25,25,26,26,27,27,28,28,29,29,30,30,31,31,32,32,33,33,34,34,35,35,37,37,38,38,39,39,40,40,41,41,42,42,44,44,45,45,46,46,47,47,48,48],"right_children":[2,4,6,8,10,12,14,16,18,20,22,24,-1,26,-1,28,30,32,34,36,38,40,42,-1,44,46,48,50,52,54,56,58,60,62,64,66,-1,68,70,72,74,76,78,-1,80,82,84,86,88,-1,-1,-1,-1,-1,-1,-1,-1,-1,-1,-1,-1,-1,-1,-1,-1,-1,-1,-1,-1,-1,-1,-1,-1,-1,-1,-1,-1,-1,-1,-1,-1,-1,-1,-1,-1,-1,-1,-1,-1],"split_conditions":[6.91E1,1.05E1,2.9E1,5.4298645E-1,7E0,1.08E1,1.575E2,7E0,3.8E1,6E0,5.4233334E1,3.3707866E-1,-5.732723E-2,9.7E0,-6.4193174E-2,3.560831E-1,1E1,3E0,1E0,1.11E1,8.333333E-1,5.0916668E1,1.391E2,-5.50881E-2,1.0508333E1,8E0,1.03E1,3.1007752E-1,2E0,2.2E0,3.3E0,1.3E1,1E1,5.1E0,1.2016666E1,4E0,-6.310545E-2,1.305E2,5.3875E1,1E0,8E0,1.75E1,5.3E1,-1.23618385E-2,2.6086957E0,1.1E1,1.4E2,1E0,5.6058334E1,-5.8395356E-2,-3.2412004E-2,-5.1081367E-2,1.0432052E-2,8.863067E-2,-5.2298732E-2,4.7701277E-2,-6.400777E-2,4.344533E-2,8.1260756E-2,-6.205408E-2,3.3249043E-2,4.8365682E-2,-1.1646625E-2,7.223396E-2,1.0534427E-2,-5.6197256E-2,-2.1796655E-2,-5.1982608E-2,1.6182525E-2,7.313809E-2,-2.6215602E-2,-6.123624E-2,9.945021E-2,3.315277E-2,9.0316385E-2,-6.226177E-2,1.7812133E-2,1.015169E-1,1.00845825E-2,9.185675E-2,2.9355396E-2,5.4825176E-2,-3.0262753E-2,-6.413554E-2,2.7777253E-2,-6.282679E-2,-1.792278E-2,2.3480526E-3,-6.385873E-2],"split_indices":[1,15,4,12,5,15,11,5,4,7,0,12,0,15,0,12,5,12,10,15,12,0,11,0,2,14,15,12,7,14,15,4,7,15,2,7,0,11,0,8,14,3,4,0,12,8,11,7,0,0,0,0,0,0,0,0,0,0,0,0,0,0,0,0,0,0,0,0,0,0,0,0,0,0,0,0,0,0,0,0,0,0,0,0,0,0,0,0,0],"split_type":[0,0,0,0,0,0,0,0,0,0,0,0,0,0,0,0,0,0,0,0,0,0,0,0,0,0,0,0,0,0,0,0,0,0,0,0,0,0,0,0,0,0,0,0,0,0,0,0,0,0,0,0,0,0,0,0,0,0,0,0,0,0,0,0,0,0,0,0,0,0,0,0,0,0,0,0,0,0,0,0,0,0,0,0,0,0,0,0,0],"sum_hessian":[1.3397401E4,9.23377E3,4.163633E3,7.9765054E3,1.2572639E3,8.722883E1,4.0764038E3,1.6503582E3,6.326147E3,8.080309E2,4.4923297E2,7.978701E1,7.4418178E0,7.0898376E2,3.36742E3,1.4414895E3,2.0886873E2,3.788135E3,2.538012E3,6.404284E2,1.6760251E2,1.9369768E2,2.555353E2,4.276827E0,7.5510185E1,2.586459E2,4.5033783E2,5.154262E2,9.260633E2,1.8470377E2,2.416496E1,3.6612827E3,1.2685229E2,2.0619434E3,4.7606863E2,1.2804529E2,5.123831E2,1.4784282E2,1.9759682E1,5.2700542E1,1.4099715E2,2.5057806E2,4.957225E0,1.7573417E0,7.3752846E1,2.0296335E2,5.5682564E1,3.499941E1,4.1533844E2,3.513178E2,1.6410838E2,2.862039E2,6.398594E2,1.8260307E2,2.1007042E0,3.3084502E0,2.0856512E1,7.426259E2,2.9186567E3,1.0739699E2,1.9455305E1,6.918167E2,1.3701266E3,4.2424182E2,5.1826813E1,1.0608081E2,2.1964483E1,1.4164809E2,6.1947308E0,1.6899797E1,2.8598847E0,4.6342293E1,6.3582487E0,7.714738E1,6.3849766E1,2.4534428E2,5.2337823E0,3.8025303E0,1.1546948E0,7.231999E1,1.4328473E0,1.6371527E2,3.924808E1,4.1897556E1,1.3785009E1,1.3541422E1,2.1457987E1,1.2320728E0,4.1410635E2],"tree_param":{"num_deleted":"0","num_feature":"17","num_nodes":"89","size_leaf_vector":"1"}},{"base_weights":[-1.0106799E-2,-6.1097234E-1,9.226064E-2,-4.074101E-1,-6.1993444E-1,-5.632252E-1,9.886702E-2,-6.202944E-1,-6.774598E-2,-5.808703E-1,8.324847E-2,-5.539475E-1,-6.238494E-2,8.0574654E-2,-5.228573E-2,2.6843956E-2,-5.87101E-1,-5.0819058E-2,5.5723286E-1,-5.939814E-1,9.765812E-2,-6.046609E-2,-3.6846872E-2,8.942147E-2,-3.5333283E-2,-6.006507E-2,-2.4946248E-2],"categories":[],"categories_nodes":[],"categories_segments":[],"categories_sizes":[],"default_left":[0,0,0,0,0,0,0,0,0,0,0,0,0,0,0,0,0,0,0,0,0,0,0,0,0,0,0],"id":17,"left_children":[1,3,-1,5,7,9,-1,11,13,15,17,19,-1,-1,-1,-1,21,-1,23,25,-1,-1,-1,-1,-1,-1,-1],"loss_changes":[6.9182217E3,1.3444092E1,0E0,7.006151E1,1.387207E0,3.3344269E0,0E0,1.348877E0,2.7295892E0,1.642189E0,2.6740038E0,2.351455E1,0E0,0E0,0E0,0E0,8.476181E-1,0E0,1.9150252E0,6.8969727E-1,0E0,0E0,0E0,0E0,0E0,0E0,0E0],"parents":[2147483647,0,0,1,1,3,3,4,4,5,5,7,7,8,8,9,9,10,10,11,11,16,16,18,18,19,19],"right_children":[2,4,-1,6,8,10,-1,12,14,16,18,20,-1,-1,-1,-1,22,-1,24,26,-1,-1,-1,-1,-1,-1,-1],"split_conditions":[1.3E1,1.4E0,9.226064E-2,1.33E1,3.91E1,1.521E2,9.886702E-2,2.5E0,1.4008333E1,7.8E-1,1.0084034E0,1.33E1,-6.238494E-2,8.0574654E-2,-5.228573E-2,2.6843956E-2,3.776E1,-5.0819058E-2,9E-1,6.95E1,9.765812E-2,-6.046609E-2,-3.6846872E-2,8.942147E-2,-3.5333283E-2,-6.006507E-2,-2.4946248E-2],"split_indices":[5,15,0,14,3,11,0,15,2,6,12,14,0,0,0,0,6,0,15,1,0,0,0,0,0,0,0],"split_type":[0,0,0,0,0,0,0,0,0,0,0,0,0,0,0,0,0,0,0,0,0,0,0,0,0,0,0],"sum_hessian":[1.2342369E4,7.506763E3,4.8356064E3,3.1851697E2,7.188246E3,2.8707355E2,3.1443428E1,7.1834395E3,4.8065095E0,2.7954504E2,7.528515E0,3.7329968E2,6.8101396E3,1.3825502E0,3.4239593E0,1.729378E0,2.7781567E2,3.3171716E0,4.2113433E0,3.6438055E2,8.919157E0,2.5552687E2,2.2288786E1,3.086901E0,1.1244423E0,3.5673138E2,7.6491637E0],"tree_param":{"num_deleted":"0","num_feature":"17","num_nodes":"27","size_leaf_vector":"1"}},{"base_weights":[8.368635E-3,2.7572295E-1,-5.170454E-1,9.0254314E-2,6.465696E-1,3.010974E-1,-6.086079E-1,5.6218094E-1,-1.988006E-2,4.5790723E-1,7.682833E-1,6.246602E-1,-2.719007E-1,-6.226459E-1,6.5405184E-1,6.2662035E-1,-2.12217E-1,1.20500185E-1,-3.673028E-1,2.0144218E-1,6.649605E-1,6.395987E-1,7.9992396E-1,3.4898218E-2,6.989514E-1,9.101429E-2,-3.9118236E-1,4.0107694E-1,-6.341433E-1,8.377956E-1,-5.9912827E-2,-4.7348088E-1,6.43324E-1,-5.380275E-1,6.8763715E-1,-2.7368712E-1,3.852373E-1,-7.033495E-2,-4.7599244E-1,5.574196E-1,-1.2939367E-1,7.605813E-1,4.4411886E-1,7.032619E-1,-7.0820004E-2,7.401659E-1,8.199539E-2,-4.1107103E-1,2.0549071E-1,7.601469E-1,3.799088E-1,-5.6400245E-1,4.5348153E-2,-7.005008E-2,9.2565574E-2,2.6228404E-2,-6.3452536E-1,-1.3977124E-2,8.8820286E-2,2.9804721E-2,-5.8392074E-2,8.1534915E-2,5.654004E-2,7.303299E-2,-6.1042983E-2,8.2264565E-2,-4.7881506E-2,-5.640198E-2,-7.227236E-3,2.0322826E-2,5.4049868E-2,2.0343725E-2,-3.45637E-2,-5.9254754E-2,-2.0371467E-2,8.250832E-2,3.9292034E-2,6.108719E-2,-2.5174787E-2,4.6712827E-2,7.893831E-2,7.614237E-2,1.7321648E-2,5.1573914E-2,8.12528E-2,7.963773E-2,2.4813073E-2,2.9335171E-2,-5.7165094E-2,5.815847E-2,-1.1922865E-2,7.7598356E-2,-3.3713613E-2,5.031685E-2,-5.9855003E-2,-6.194378E-2,-3.5625778E-3,5.1941823E-2,-6.087401E-2,-6.3497454E-2,-3.2505232E-3],"categories":[],"categories_nodes":[],"categories_segments":[],"categories_sizes":[],"default_left":[0,0,0,0,0,0,0,0,0,0,0,0,0,0,0,0,0,0,0,0,0,0,0,0,0,0,0,0,0,0,0,0,0,0,0,0,0,0,0,0,0,0,0,0,0,0,0,0,0,0,0,0,0,0,0,0,0,0,0,0,0,0,0,0,0,0,0,0,0,0,0,0,0,0,0,0,0,0,0,0,0,0,0,0,0,0,0,0,0,0,0,0,0,0,0,0,0,0,0,0,0],"id":18,"left_children":[1,3,5,7,9,11,13,15,17,19,21,23,25,27,29,31,33,35,37,39,41,43,45,47,49,-1,51,53,55,57,-1,59,61,63,65,67,69,71,73,75,77,79,81,83,-1,85,-1,87,89,91,93,95,97,-1,-1,-1,99,-1,-1,-1,-1,-1,-1,-1,-1,-1,-1,-1,-1,-1,-1,-1,-1,-1,-1,-1,-1,-1,-1,-1,-1,-1,-1,-1,-1,-1,-1,-1,-1,-1,-1,-1,-1,-1,-1,-1,-1,-1,-1,-1,-1],"loss_changes":[1.8775212E3,6.092193E2,3.3784668E2,3.0698868E2,6.745923E1,8.440748E1,7.226843E1,5.5901947E1,2.336411E2,6.1492203E1,6.79126E0,1.2711655E1,2.3573864E1,4.7453735E1,1.0878939E1,1.9267853E1,2.5759243E1,3.561709E2,4.4464447E1,6.129377E1,1.3212738E1,3.1298096E1,1.1113892E0,2.6386657E0,4.7505875E0,0E0,1.1362549E1,2.6738735E1,1.5246582E0,2.0814E0,0E0,1.5382876E0,1.3171265E1,6.3359184E0,4.0882435E0,8.015731E1,5.7583313E1,2.7998772E1,3.1902206E1,1.0709572E1,2.4631256E1,3.4041443E0,1.6741096E1,6.614395E0,0E0,1.0054413E1,0E0,1.2561386E0,3.1164289E0,4.007637E0,5.552237E0,3.1334152E0,1.3819017E1,0E0,0E0,0E0,1.0516357E0,0E0,0E0,0E0,0E0,0E0,0E0,0E0,0E0,0E0,0E0,0E0,0E0,0E0,0E0,0E0,0E0,0E0,0E0,0E0,0E0,0E0,0E0,0E0,0E0,0E0,0E0,0E0,0E0,0E0,0E0,0E0,0E0,0E0,0E0,0E0,0E0,0E0,0E0,0E0,0E0,0E0,0E0,0E0,0E0],"parents":[2147483647,0,0,1,1,2,2,3,3,4,4,5,5,6,6,7,7,8,8,9,9,10,10,11,11,12,12,13,13,14,14,15,15,16,16,17,17,18,18,19,19,20,20,21,21,22,22,23,23,24,24,26,26,27,27,28,28,29,29,31,31,32,32,33,33,34,34,35,35,36,36,37,37,38,38,39,39,40,40,41,41,42,42,43,43,45,45,47,47,48,48,49,49,50,50,51,51,52,52,56,56],"right_children":[2,4,6,8,10,12,14,16,18,20,22,24,26,28,30,32,34,36,38,40,42,44,46,48,50,-1,52,54,56,58,-1,60,62,64,66,68,70,72,74,76,78,80,82,84,-1,86,-1,88,90,92,94,96,98,-1,-1,-1,100,-1,-1,-1,-1,-1,-1,-1,-1,-1,-1,-1,-1,-1,-1,-1,-1,-1,-1,-1,-1,-1,-1,-1,-1,-1,-1,-1,-1,-1,-1,-1,-1,-1,-1,-1,-1,-1,-1,-1,-1,-1,-1,-1,-1],"split_conditions":[1.4083333E1,9.6E0,1.3E1,4.7808766E-1,1.1E1,8.2758623E-1,1.1E1,7E0,1E0,5.3875E1,3.27E0,4E0,1.2E1,3.883495E-1,7E0,1.9E0,1E1,5E0,5.3E1,3E0,2E0,1E0,1.18E1,5.68E1,3.67E1,9.101429E-2,5.6E0,3.56E0,4.53E1,3.1E0,-5.9912827E-2,1.065E1,3.1007752E-1,2.8846154E-1,4.63E1,2.8E0,5.6433334E1,8.955224E-1,7E0,1.3E1,4.5E-1,5.47E1,6.666667E-1,5.81E1,-7.0820004E-2,7E0,8.199539E-2,3.24E1,5.970149E-1,6.41E1,7.3619634E-1,5.2266666E1,5.76E1,-7.005008E-2,9.2565574E-2,2.6228404E-2,1.24E1,-1.3977124E-2,8.8820286E-2,2.9804721E-2,-5.8392074E-2,8.1534915E-2,5.654004E-2,7.303299E-2,-6.1042983E-2,8.2264565E-2,-4.7881506E-2,-5.640198E-2,-7.227236E-3,2.0322826E-2,5.4049868E-2,2.0343725E-2,-3.45637E-2,-5.9254754E-2,-2.0371467E-2,8.250832E-2,3.9292034E-2,6.108719E-2,-2.5174787E-2,4.6712827E-2,7.893831E-2,7.614237E-2,1.7321648E-2,5.1573914E-2,8.12528E-2,7.963773E-2,2.4813073E-2,2.9335171E-2,-5.7165094E-2,5.815847E-2,-1.1922865E-2,7.7598356E-2,-3.3713613E-2,5.031685E-2,-5.9855003E-2,-6.194378E-2,-3.5625778E-3,5.1941823E-2,-6.087401E-2,-6.3497454E-2,-3.2505232E-3],"split_indices":[2,15,4,12,15,12,8,5,10,0,6,15,4,12,5,15,5,15,11,5,10,8,15,1,13,0,15,6,11,15,0,2,12,12,13,15,0,12,8,4,6,0,12,1,0,5,0,13,12,1,12,0,1,0,0,0,15,0,0,0,0,0,0,0,0,0,0,0,0,0,0,0,0,0,0,0,0,0,0,0,0,0,0,0,0,0,0,0,0,0,0,0,0,0,0,0,0,0,0,0,0],"split_type":[0,0,0,0,0,0,0,0,0,0,0,0,0,0,0,0,0,0,0,0,0,0,0,0,0,0,0,0,0,0,0,0,0,0,0,0,0,0,0,0,0,0,0,0,0,0,0,0,0,0,0,0,0,0,0,0,0,0,0,0,0,0,0,0,0,0,0,0,0,0,0,0,0,0,0,0,0,0,0,0,0,0,0,0,0,0,0,0,0,0,0,0,0,0,0,0,0,0,0,0,0],"sum_hessian":[1.3363817E4,8.8573E3,4.506518E3,5.905214E3,2.9520854E3,4.5335397E2,4.053164E3,1.1165753E3,4.7886387E3,1.1595255E3,1.79256E3,2.8968393E2,1.6367003E2,4.0090984E3,4.406561E1,1.0309763E3,8.559903E1,3.4110264E3,1.3776122E3,5.1884045E2,6.4068506E2,3.579533E2,1.4346067E3,3.257292E1,2.5711102E2,1.4394533E1,1.492755E2,4.4149548E1,3.964949E3,3.8719883E1,5.345724E0,1.5010937E1,1.0159654E3,6.314E1,2.2459028E1,1.37044E3,2.0405864E3,3.6955118E2,1.008061E3,2.4959395E2,2.692465E2,4.453931E2,1.9529199E2,3.4226468E2,1.5688638E1,3.696706E2,1.0649362E3,8.622359E0,2.3950562E1,2.1457149E2,4.2539528E1,1.06729744E2,4.2545753E1,1.4133938E1,3.0015612E1,1.397164E0,3.9635518E3,1.8117175E0,3.690817E1,1.6669521E0,1.3343985E1,3.137854E2,7.0217993E2,2.9189076E0,6.0221092E1,2.0393387E1,2.0656424E0,5.6058093E2,8.09859E2,9.4044037E2,1.100146E3,1.8542131E2,1.8412988E2,7.050647E2,3.0299625E2,9.347735E1,1.561166E2,3.7623672E1,2.3162282E2,4.134631E1,4.0404678E2,8.910898E1,1.06183014E2,1.2811433E2,2.1415034E2,3.3121338E2,3.84572E1,1.4471699E0,7.17519E0,1.0730883E1,1.3219679E1,2.1180739E2,2.7641032E0,3.821163E1,4.3278933E0,9.643934E1,1.02904E1,2.478672E1,1.7759031E1,3.9605417E3,3.0099847E0],"tree_param":{"num_deleted":"0","num_feature":"17","num_nodes":"101","size_leaf_vector":"1"}},{"base_weights":[5.9581776E-3,2.0789745E-1,-6.273269E-2,-4.2421544E-1,3.0404982E-1,-5.0298E-1,9.635707E-2,-2.4338169E-2,4.7388005E-1,-4.213201E-1,-6.2371343E-2,-3.8524857E-1,1.4797561E-1,8.700469E-1,2.1462227E-1,-6.31612E-1,-3.0292508E-1,-5.3799444E-1,-2.0671944E-1,-3.8803074E-1,3.7764013E-1,8.914588E-1,1.6347265E-1,-4.1069266E-1,2.787514E-1,-6.4618E-2,-4.953939E-2,-5.256435E-2,-1.1172543E-2,-5.8442023E-2,-4.193115E-2,-3.5945296E-3,-3.7908208E-2,-4.2447526E-2,6.42067E-2,4.3817177E-2,-5.0810874E-2,8.936104E-2,-7.155829E-2,-6.789607E-3,1.2835701E-1,-6.2869936E-2,-1.8827913E-2,3.8680803E-2,-2.4239553E-2],"categories":[],"categories_nodes":[],"categories_segments":[],"categories_sizes":[],"default_left":[0,0,0,0,0,0,0,0,0,0,0,0,0,0,0,0,0,0,0,0,0,0,0,0,0,0,0,0,0,0,0,0,0,0,0,0,0,0,0,0,0,0,0,0,0],"id":19,"left_children":[1,3,-1,5,7,9,-1,11,13,15,-1,17,19,21,23,25,27,29,31,33,35,37,39,41,43,-1,-1,-1,-1,-1,-1,-1,-1,-1,-1,-1,-1,-1,-1,-1,-1,-1,-1,-1,-1],"loss_changes":[1.6637806E3,5.996793E2,0E0,1.4289256E2,4.7754956E2,1.1898346E1,0E0,1.8163449E2,5.794916E2,1.8205353E1,0E0,2.562587E1,2.4350967E2,3.3624756E1,1.3696786E2,2.0622253E-1,2.0154182E1,2.5540314E0,1.284351E1,2.2552498E1,7.445117E1,8.129639E0,1.7418863E1,1.5293011E1,1.7443356E2,0E0,0E0,0E0,0E0,0E0,0E0,0E0,0E0,0E0,0E0,0E0,0E0,0E0,0E0,0E0,0E0,0E0,0E0,0E0,0E0],"parents":[2147483647,0,0,1,1,3,3,4,4,5,5,7,7,8,8,9,9,11,11,12,12,13,13,14,14,15,15,16,16,17,17,18,18,19,19,20,20,21,21,22,22,23,23,24,24],"right_children":[2,4,-1,6,8,10,-1,12,14,16,-1,18,20,22,24,26,28,30,32,34,36,38,40,42,44,-1,-1,-1,-1,-1,-1,-1,-1,-1,-1,-1,-1,-1,-1,-1,-1,-1,-1,-1,-1],"split_conditions":[1.3E1,1E0,-6.273269E-2,7E0,1E0,6.2225E1,9.635707E-2,6.0913706E-1,4.18E0,5.8666668E1,-6.2371343E-2,4.040404E-1,5.8E-1,1.11E1,3.883495E-1,1.521E2,6.4171124E-1,3.3707866E-1,5.0208332E1,1.73E1,5.4816666E1,6E0,1.61E1,2.8846154E-1,1E1,-6.4618E-2,-4.953939E-2,-5.256435E-2,-1.1172543E-2,-5.8442023E-2,-4.193115E-2,-3.5945296E-3,-3.7908208E-2,-4.2447526E-2,6.42067E-2,4.3817177E-2,-5.0810874E-2,8.936104E-2,-7.155829E-2,-6.789607E-3,1.2835701E-1,-6.2869936E-2,-1.8827913E-2,3.8680803E-2,-2.4239553E-2],"split_indices":[5,7,0,5,8,0,0,12,6,0,0,12,6,14,12,11,12,12,0,3,0,8,14,12,5,0,0,0,0,0,0,0,0,0,0,0,0,0,0,0,0,0,0,0,0],"split_type":[0,0,0,0,0,0,0,0,0,0,0,0,0,0,0,0,0,0,0,0,0,0,0,0,0,0,0,0,0,0,0,0,0,0,0,0,0,0,0,0,0,0,0,0,0],"sum_hessian":[1.300794E4,9.86341E3,3.1445308E3,1.3018086E3,8.561601E3,1.2324952E3,6.93134E1,2.9187297E3,5.6428716E3,7.3789685E2,4.9459836E2,9.428012E2,1.9759285E3,2.2311453E3,3.411726E3,2.642335E2,4.736634E2,5.070048E2,4.3579642E2,5.9247687E2,1.3834515E3,2.1652676E3,6.587767E1,3.1684143E2,3.0948848E3,2.3532294E2,2.8910555E1,2.1798962E2,2.5567377E2,3.6162283E2,1.4538194E2,2.1951399E2,2.1628244E2,5.727993E2,1.9677528E1,1.295428E3,8.802362E1,2.162816E3,2.4517398E0,5.5378086E1,1.0499584E1,1.5908336E2,1.5775807E2,2.5635962E3,5.312884E2],"tree_param":{"num_deleted":"0","num_feature":"17","num_nodes":"45","size_leaf_vector":"1"}},{"base_weights":[-1.2500955E-2,-5.977534E-1,8.614407E-2,-4.3214598E-1,-6.081606E-1,-5.521655E-1,9.425428E-2,-6.0854614E-1,2.2230798E-2,-5.673271E-1,8.399515E-2,-6.1235677E-2,-5.792837E-1,7.9015635E-2,-4.8775893E-2,1.5710314E-1,-5.740237E-1,-3.116572E-1,1.0021072E-1,-5.8907664E-1,4.2946777E-1,8.848052E-2,-4.5944735E-2,-5.8847863E-2,-3.8722526E-2,1.2668336E-2,-5.216515E-2,-4.2199496E-2,-6.0748722E-2,-4.6340413E-2,1.0526694E-1],"categories":[],"categories_nodes":[],"categories_segments":[],"categories_sizes":[],"default_left":[0,0,0,0,0,0,0,0,0,0,0,0,0,0,0,0,0,0,0,0,0,0,0,0,0,0,0,0,0,0,0],"id":20,"left_children":[1,3,-1,5,7,9,-1,11,13,15,17,-1,19,-1,-1,21,23,25,-1,27,29,-1,-1,-1,-1,-1,-1,-1,-1,-1,-1],"loss_changes":[6.066788E3,1.1980957E1,0E0,7.0391884E1,1.6374512E0,3.8103867E0,0E0,3.8964844E-1,2.3627536E0,1.9393082E0,3.9274817E0,0E0,8.036072E0,0E0,0E0,2.325166E0,7.9247284E-1,7.764984E-1,0E0,2.1452332E0,5.0247135E0,0E0,0E0,0E0,0E0,0E0,0E0,0E0,0E0,0E0,0E0],"parents":[2147483647,0,0,1,1,3,3,4,4,5,5,7,7,8,8,9,9,10,10,12,12,15,15,16,16,17,17,19,19,20,20],"right_children":[2,4,-1,6,8,10,-1,12,14,16,18,-1,20,-1,-1,22,24,26,-1,28,30,-1,-1,-1,-1,-1,-1,-1,-1,-1,-1],"split_conditions":[1.3E1,1.8E0,8.614407E-2,1.33E1,3.91E1,1.539E2,9.425428E-2,8.1E0,1.4008333E1,7.8E-1,1.5016666E1,-6.1235677E-2,2.3E1,7.9015635E-2,-4.8775893E-2,4.835E1,1E1,7E-1,1.0021072E-1,1.1E1,5.92E1,8.848052E-2,-4.5944735E-2,-5.8847863E-2,-3.8722526E-2,1.2668336E-2,-5.216515E-2,-4.2199496E-2,-6.0748722E-2,-4.6340413E-2,1.0526694E-1],"split_indices":[5,15,0,14,3,11,0,14,2,6,2,0,3,0,0,0,8,15,0,5,1,0,0,0,0,0,0,0,0,0,0],"split_type":[0,0,0,0,0,0,0,0,0,0,0,0,0,0,0,0,0,0,0,0,0,0,0,0,0,0,0,0,0,0,0],"sum_hessian":[1.1859316E4,7.10298E3,4.7563364E3,4.2249008E2,6.6804897E3,3.8911597E2,3.3374104E1,6.676441E3,4.048968E0,3.801638E2,8.952198E0,5.8895654E3,7.868755E2,1.3966227E0,2.6523452E0,3.2763407E0,3.7688742E2,6.717777E0,2.2344215E0,7.7972205E2,7.1534557E0,1.3031591E0,1.9731817E0,3.4782184E2,2.9065592E1,2.3043737E0,4.413403E0,7.976364E1,6.999584E2,3.0459228E0,4.107533E0],"tree_param":{"num_deleted":"0","num_feature":"17","num_nodes":"31","size_leaf_vector":"1"}},{"base_weights":[7.0927325E-3,2.8242698E-1,-5.687972E-1,1.17811516E-1,6.191006E-1,9.113601E-2,-6.091889E-1,-3.6894765E-1,2.0863274E-1,4.4886792E-1,7.3061484E-1,-4.1021448E-1,3.004263E-1,-4.2985663E-1,-6.223421E-1,1.3937284E-1,-4.4439182E-1,3.6614046E-1,-1.7334034E-1,2.3620088E-1,6.371031E-1,6.373284E-1,7.6798755E-1,-4.7671396E-1,7.08999E-2,3.6460933E-1,-3.5318252E-1,-5.304362E-1,3.316888E-1,6.0106236E-2,-6.229993E-1,3.1401455E-1,-6.272786E-2,-6.029339E-1,-3.029479E-1,1.8017045E-1,5.456048E-1,4.323734E-1,-3.2234365E-1,5.4910207E-1,-3.705136E-2,7.3757803E-1,4.1264722E-1,5.057522E-1,7.586683E-2,7.750176E-2,6.362952E-1,-5.656987E-1,-3.2986817E-1,1.7365965E-1,5.571841E-1,3.2044206E-2,-4.7130734E-1,3.1743816E-1,-5.5300146E-1,1.1467551E0,1.8681847E-2,-6.2322028E-2,-1.8516648E-1,6.420936E-2,-4.2766365E-3,-6.0732134E-2,-1.2857935E-2,4.386287E-3,-4.089521E-2,7.1951943E-3,8.867516E-2,6.0133107E-2,-1.1673944E-2,3.3209868E-2,6.8076454E-2,-1.8821348E-2,-5.5474687E-2,7.795458E-2,3.9258875E-2,-1.5590898E-2,4.379423E-2,7.474216E-2,3.9557427E-2,2.5473893E-2,8.208099E-2,5.8159377E-2,-1.1511321E-2,-5.8110505E-2,7.648009E-2,-6.0245622E-2,-1.1015573E-2,-5.3429514E-2,4.6039998E-4,3.2176055E-2,-4.0592737E-2,7.820839E-2,2.7252624E-2,5.0765567E-4,-5.1984645E-2,7.856383E-2,-4.979272E-2,9.228571E-3,-5.792625E-2,1.2446485E-1,3.3382576E-2,-3.3110205E-2,5.0177064E-2,4.5568584E-3,-3.40454E-2],"categories":[],"categories_nodes":[],"categories_segments":[],"categories_sizes":[],"default_left":[0,0,0,0,0,0,0,0,0,0,0,0,0,0,0,0,0,0,0,0,0,0,0,0,0,0,0,0,0,0,0,0,0,0,0,0,0,0,0,0,0,0,0,0,0,0,0,0,0,0,0,0,0,0,0,0,0,0,0,0,0,0,0,0,0,0,0,0,0,0,0,0,0,0,0,0,0,0,0,0,0,0,0,0,0,0,0,0,0,0,0,0,0,0,0,0,0,0,0,0,0,0,0,0,0],"id":21,"left_children":[1,3,5,7,9,11,13,15,17,19,21,23,25,27,29,31,33,35,37,39,41,43,45,47,-1,49,51,53,55,-1,57,59,-1,61,63,65,67,69,71,73,75,77,79,81,-1,-1,83,85,87,89,91,-1,93,95,97,99,101,-1,103,-1,-1,-1,-1,-1,-1,-1,-1,-1,-1,-1,-1,-1,-1,-1,-1,-1,-1,-1,-1,-1,-1,-1,-1,-1,-1,-1,-1,-1,-1,-1,-1,-1,-1,-1,-1,-1,-1,-1,-1,-1,-1,-1,-1,-1,-1],"loss_changes":[2.065733E3,4.884093E2,1.12382324E2,2.618242E2,5.4612183E1,2.5716528E1,9.099365E0,3.5779945E1,3.0030606E2,4.5808502E1,5.6013794E0,5.715905E0,7.371791E0,2.1208347E1,3.347168E0,1.6414913E1,1.8009338E1,1.1784015E2,1.3170099E2,4.624582E1,1.3417099E1,7.6882324E0,6.571655E-1,7.124443E-1,0E0,5.702545E0,1.4199091E0,4.8235703E0,8.308324E0,0E0,2.421875E-1,1.1653359E1,0E0,7.1588135E-1,1.5853806E1,1.3274904E2,6.642792E1,6.952675E0,3.638195E1,8.786552E0,1.6414923E1,1.1149902E0,1.2063171E1,1.1629856E1,0E0,0E0,1.1168669E1,6.275854E-1,1.9415662E0,7.052676E0,4.7847233E0,0E0,3.2571697E-1,3.0379865E0,4.069725E0,3.0414104E-1,4.324188E0,0E0,1.332911E-1,0E0,0E0,0E0,0E0,0E0,0E0,0E0,0E0,0E0,0E0,0E0,0E0,0E0,0E0,0E0,0E0,0E0,0E0,0E0,0E0,0E0,0E0,0E0,0E0,0E0,0E0,0E0,0E0,0E0,0E0,0E0,0E0,0E0,0E0,0E0,0E0,0E0,0E0,0E0,0E0,0E0,0E0,0E0,0E0,0E0,0E0],"parents":[2147483647,0,0,1,1,2,2,3,3,4,4,5,5,6,6,7,7,8,8,9,9,10,10,11,11,12,12,13,13,14,14,15,15,16,16,17,17,18,18,19,19,20,20,21,21,22,22,23,23,25,25,26,26,27,27,28,28,30,30,31,31,33,33,34,34,35,35,36,36,37,37,38,38,39,39,40,40,41,41,42,42,43,43,46,46,47,47,48,48,49,49,50,50,52,52,53,53,54,54,55,55,56,56,58,58],"right_children":[2,4,6,8,10,12,14,16,18,20,22,24,26,28,30,32,34,36,38,40,42,44,46,48,-1,50,52,54,56,-1,58,60,-1,62,64,66,68,70,72,74,76,78,80,82,-1,-1,84,86,88,90,92,-1,94,96,98,